conv1.weight 150 0.136294
0.194828
0.258002
0.007527
0.119773
-0.012456
0.070100
-0.024817
-0.187260
-0.122426
-0.113407
-0.189181
0.219530
-0.058824
-0.038641
-0.168187
-0.060683
0.278634
0.266887
-0.072108
-0.013199
0.148693
0.297834
0.224384
-0.105621
-0.051728
0.029945
0.168244
0.356896
0.305869
-0.351768
-0.227902
0.234546
0.409856
0.074327
-0.364632
0.159542
0.197838
0.201506
0.100720
-0.253974
0.290458
0.063402
0.253270
0.058929
0.082431
0.126195
0.116432
-0.080616
-0.288163
-0.027788
-0.036292
-0.302789
-0.114287
-0.250199
0.026342
0.095703
0.044724
0.079367
-0.089092
0.014367
0.244509
0.112872
0.402183
0.323124
-0.031984
-0.014162
0.107894
0.291914
0.375820
0.235712
0.044358
-0.230014
-0.149447
0.054815
-0.102146
-0.091335
0.240568
-0.020295
-0.107660
0.082446
0.273746
0.233599
-0.086217
-0.074446
0.089289
0.017944
0.087870
0.083710
-0.143304
0.172664
0.355655
0.058811
0.015051
0.155765
0.276808
0.274534
-0.000786
-0.027702
0.306444
-0.069510
0.119470
0.299142
-0.015060
0.090267
0.273889
0.343734
0.336214
0.413486
0.403858
0.149832
0.037929
0.349012
0.278305
0.169468
-0.024714
-0.331163
-0.404256
-0.131843
0.099121
-0.495102
-0.448723
-0.570666
-0.335351
-0.141218
0.110605
0.221522
-0.188830
-0.367474
-0.431296
0.146728
0.446968
0.438149
0.020321
-0.355536
-0.241400
0.164313
0.345053
0.458716
0.025636
-0.149118
-0.026468
0.183235
0.342545
0.169080
-0.402676
-0.159825
-0.331605
-0.056339
0.031691
conv1.bias 6 -0.070554
-0.138794
-0.011780
-0.007913
0.067204
-0.049845
conv2.weight 2400 0.055084
0.064913
0.091348
-0.071496
-0.130972
-0.018049
0.082676
-0.034026
-0.044706
0.052528
0.092647
0.104666
0.089361
0.121772
0.085959
0.089842
0.062267
0.079683
0.015218
0.038291
-0.067107
-0.058397
0.044730
-0.056407
0.005335
0.003191
0.051619
-0.032359
0.054754
-0.030038
0.056619
0.066731
0.029642
0.010096
0.004342
-0.029405
-0.059473
-0.109473
-0.007088
0.102236
0.014852
0.066690
-0.071018
0.074893
-0.006599
0.008012
-0.040963
0.057454
-0.093486
-0.194286
0.000871
-0.052915
0.096334
-0.052000
-0.120527
0.045520
0.042692
-0.014036
-0.078772
-0.071147
-0.050255
0.059908
-0.028997
-0.042772
0.036724
0.009605
0.124699
0.013688
0.107160
-0.004300
0.095240
0.129353
0.062714
-0.026725
-0.025307
-0.093323
0.005800
-0.005556
0.052098
0.001300
-0.058081
0.095878
0.113282
-0.036131
-0.070744
0.031715
0.018272
-0.020253
0.015674
0.089091
0.021491
0.037153
-0.016685
0.088892
0.007813
-0.122403
-0.088243
0.021057
0.033410
-0.166878
-0.116726
-0.172863
0.001205
0.011894
0.039570
-0.148425
-0.197283
-0.038629
-0.093455
-0.255834
-0.153919
-0.079328
-0.055913
-0.123793
0.017966
0.026481
-0.100209
-0.004746
0.084747
0.056359
0.000868
0.091302
0.103119
0.039265
0.068576
-0.035409
-0.088849
-0.087428
-0.072896
-0.007847
-0.114318
0.003437
-0.064312
0.052941
0.107195
-0.003784
-0.011901
-0.023386
-0.055375
-0.045188
0.116782
0.139435
0.004380
-0.114852
0.024046
0.133241
0.172144
0.044166
0.051562
0.070941
0.114222
0.084429
0.099589
-0.015224
-0.019086
0.112437
-0.012446
0.177829
0.196153
0.061820
-0.080431
-0.019688
-0.022029
0.005381
0.026368
-0.024562
-0.025132
-0.071989
-0.003313
-0.027570
-0.058819
-0.078082
-0.099488
0.041772
-0.029625
-0.021602
-0.014106
-0.205496
-0.194741
-0.269147
0.126814
0.086965
0.009842
0.077721
0.029347
-0.002165
-0.061779
0.122478
0.171096
0.011902
-0.020005
-0.033814
0.056826
0.106191
0.015850
0.095548
-0.070932
-0.097525
-0.015678
-0.040260
0.229935
0.197168
0.144177
0.176647
0.044379
-0.054766
-0.070974
0.087974
0.036115
0.037405
-0.069554
-0.067445
-0.033120
0.012888
-0.042594
-0.069731
-0.110653
-0.152054
-0.062243
0.000139
-0.039951
-0.084184
-0.050086
0.015528
0.030859
0.096138
-0.042674
0.052409
0.044839
0.076417
-0.051709
-0.111809
-0.043213
-0.033383
-0.047598
-0.027504
-0.083708
-0.000168
0.048102
-0.047666
-0.007608
-0.035213
-0.003309
-0.019332
-0.024899
-0.011938
0.044763
-0.061226
-0.058710
-0.017689
0.070282
0.179205
0.142299
0.127135
-0.085997
-0.014109
0.192604
0.152216
0.103912
-0.139290
-0.067395
-0.060595
-0.101409
-0.036574
-0.146407
0.100332
0.027869
0.016348
-0.012657
-0.075387
-0.038445
0.071064
-0.002495
0.009599
-0.033463
0.237977
0.271400
0.221955
0.131065
-0.022284
-0.106335
0.067399
0.177535
0.170466
0.001782
-0.057468
-0.113644
-0.063642
0.075043
0.006713
-0.059490
-0.159299
-0.057272
0.014981
-0.034817
-0.074863
-0.022363
-0.008978
-0.050911
-0.058183
-0.085505
-0.100165
-0.164989
-0.218085
-0.263873
-0.086666
-0.136911
-0.078840
-0.107936
0.082619
-0.016736
-0.069309
-0.076953
0.043606
0.075672
0.107545
0.182173
0.166114
0.048870
-0.011484
0.138759
0.160675
0.122598
0.029928
-0.009001
-0.131406
-0.064703
0.049272
-0.017627
-0.109621
-0.323309
-0.134417
-0.096774
-0.145627
-0.114896
-0.203500
-0.175083
-0.050205
-0.163645
-0.192898
-0.115341
0.113563
0.079271
0.065179
0.005750
0.052946
0.042239
0.034600
0.022765
-0.075961
-0.122389
-0.187754
-0.152968
-0.164960
-0.157580
-0.094688
-0.140971
-0.178162
-0.191917
-0.136354
0.064076
0.028440
0.196788
0.166425
0.144856
0.048161
0.090044
0.120612
0.097215
-0.010510
0.197303
0.059449
0.025985
0.002798
0.036438
-0.162556
-0.289483
-0.321027
-0.149051
-0.143972
-0.131860
-0.185427
-0.087202
-0.054961
-0.112428
0.032997
-0.001483
0.108987
0.130506
0.131331
0.070374
0.127543
0.051104
0.089019
0.095064
0.039890
0.086580
0.135272
0.023524
-0.079542
0.166509
0.050907
0.190093
0.103327
0.080884
-0.103998
-0.099589
-0.134221
-0.070409
-0.034659
0.009257
-0.132133
-0.088964
0.049551
0.052686
-0.057710
-0.011389
-0.023083
0.198975
0.238082
0.030422
0.027952
0.028664
-0.044615
-0.001449
-0.071177
0.163349
-0.006544
0.041848
0.042055
-0.159343
-0.195835
-0.164791
-0.075087
-0.107120
-0.058905
-0.072928
0.076268
0.058871
0.053616
0.021756
0.043459
0.042981
0.078015
0.113156
0.070529
0.004304
-0.001658
0.034247
-0.041857
0.197968
-0.021000
-0.308953
-0.137334
0.049511
-0.063127
-0.143459
-0.248202
-0.036857
0.083536
-0.019387
-0.052463
0.020767
0.088172
0.008307
0.052091
0.067915
0.083594
0.103733
0.084473
0.077229
-0.006563
0.073817
0.006922
0.042301
0.239225
0.091748
-0.120851
-0.038783
0.058011
0.171191
0.031048
-0.184895
0.067691
0.233584
-0.048793
-0.236022
0.015402
0.218204
0.223200
-0.143581
-0.101653
0.070067
0.257230
0.026375
-0.040046
0.017497
0.171031
-0.003536
-0.271886
0.104138
0.024662
-0.143104
-0.131725
-0.120841
-0.067609
-0.257513
-0.129193
-0.004953
0.011485
-0.198337
-0.134116
0.055533
0.073932
0.070855
0.058575
0.062447
0.013024
0.101017
-0.046478
0.070614
0.002494
0.059224
0.015068
-0.000552
0.133086
0.084914
-0.082197
-0.235242
-0.059095
0.127652
0.038291
-0.179641
-0.097369
0.106972
0.027088
-0.013038
-0.087986
0.106865
0.130426
0.084092
0.000661
-0.017480
0.121073
0.163721
-0.025778
0.022303
0.069713
0.156486
0.094789
0.022360
-0.068755
-0.153209
-0.175162
-0.138605
0.149435
-0.060537
-0.119521
-0.327699
-0.177636
-0.019698
-0.301693
-0.435539
-0.111464
-0.048210
-0.168026
-0.070982
-0.071727
-0.038794
-0.031503
-0.059504
0.068318
0.061950
0.046198
-0.100766
0.174840
0.126394
-0.045293
-0.163913
-0.097200
0.111404
0.054957
-0.247658
-0.257633
-0.149501
0.004148
-0.199643
-0.277321
-0.246892
-0.094482
-0.139831
-0.036453
-0.144282
-0.033605
0.112878
-0.024760
0.002481
0.044611
0.124773
0.132584
-0.144640
-0.108139
-0.081890
-0.050636
-0.005385
0.006700
-0.023880
-0.124907
-0.264264
0.091955
0.073620
0.084105
-0.010205
-0.155301
-0.083714
0.007030
0.038566
0.014326
-0.094343
-0.042019
0.144910
0.097828
0.040653
-0.056012
0.123876
-0.113164
-0.073473
0.017149
-0.039365
0.302800
-0.176817
-0.252308
-0.180170
0.068314
0.236249
-0.049563
-0.128239
-0.248087
-0.112311
0.116191
0.188727
0.112604
-0.084040
-0.360227
-0.175462
0.155343
0.120153
0.013468
-0.087067
-0.048903
-0.113754
-0.237457
-0.128542
-0.119460
0.148292
0.010310
-0.047964
-0.162486
-0.192986
-0.008000
0.147266
0.163203
-0.113432
-0.272130
-0.077170
0.098748
0.036518
0.149030
0.054082
-0.096425
0.065119
0.068111
0.076213
0.141508
0.195015
-0.065020
-0.206367
-0.247529
-0.072163
-0.038281
0.081150
0.039761
-0.182769
-0.084555
-0.142407
0.138616
0.176626
0.083250
-0.039319
-0.149424
0.161638
0.127885
0.067489
0.119529
0.105414
0.085447
0.104616
0.070776
0.075951
-0.004150
-0.024266
-0.006323
0.015406
-0.054824
-0.001749
0.076765
-0.148569
-0.169569
-0.017377
0.178951
0.154382
-0.180847
-0.486263
-0.205002
0.085981
-0.037597
-0.017798
-0.190578
-0.356685
-0.434812
0.093047
0.001956
0.083203
0.025047
0.050500
0.033238
-0.125257
-0.007260
-0.071099
-0.044384
0.224715
0.028020
-0.215979
0.026991
0.081060
0.253969
0.164781
-0.024168
-0.282555
-0.049144
-0.045715
0.064537
0.167368
0.061071
-0.144104
-0.078669
0.029464
0.075735
0.210034
0.235256
-0.071463
0.120930
0.104164
-0.101643
-0.118724
-0.112337
0.163623
0.127476
-0.055915
0.048502
-0.166547
0.142445
-0.000169
0.040595
0.036847
-0.128486
0.036991
0.107265
0.054184
-0.088865
-0.108773
0.023381
0.014028
0.041619
-0.050418
0.026665
0.096663
0.161502
-0.033990
0.009016
-0.111913
0.191659
-0.011782
0.029357
-0.036573
0.058841
0.127142
-0.142658
-0.194202
-0.027725
0.049933
0.037890
-0.140755
-0.110460
-0.054874
-0.065871
0.112102
-0.032116
-0.079488
-0.219960
0.045646
0.092480
0.021828
-0.011652
-0.064302
0.090285
0.059421
-0.014100
-0.005121
-0.142879
0.030310
0.010400
-0.042971
0.039385
0.046527
-0.051336
0.109860
0.180453
0.051008
-0.044984
-0.004010
-0.034793
0.094990
0.063423
-0.123828
-0.089245
0.059654
0.246387
-0.016094
-0.123604
-0.173546
0.043665
0.233993
-0.061583
-0.163477
-0.237511
0.101944
0.122774
-0.083606
0.024511
-0.082941
0.072820
0.040999
-0.060106
0.071491
-0.229506
-0.013835
0.061121
-0.023240
-0.149060
0.017954
-0.139809
-0.231596
-0.065853
-0.017561
-0.017671
-0.225219
-0.348409
-0.079180
0.086335
-0.052142
-0.038083
-0.358365
-0.165761
-0.024925
-0.074785
-0.000423
0.086325
0.085337
0.106487
0.042351
0.090553
0.140951
0.065432
0.030883
-0.154082
0.006438
-0.015995
0.014404
0.005413
-0.053176
-0.004093
0.060172
-0.084258
-0.001353
-0.070431
0.241011
0.183448
-0.126674
-0.036707
-0.244830
0.047536
0.243435
0.063804
-0.079782
-0.147374
0.114682
0.234073
0.133980
-0.047805
0.031208
0.134409
0.099647
0.165310
0.042829
-0.087025
-0.149160
-0.147507
-0.020033
-0.040075
0.053417
0.096932
0.000292
-0.060764
0.011175
0.028795
-0.014828
-0.053565
-0.040876
0.009821
0.099911
0.059573
0.005865
0.025573
-0.014002
-0.094153
0.083348
0.003656
-0.048836
-0.020166
0.002020
0.006190
-0.098085
-0.017439
-0.077793
0.030864
-0.095531
-0.171815
-0.050329
-0.027533
0.043646
-0.228008
-0.275075
-0.010397
-0.112770
-0.072268
0.000954
0.010662
0.099111
-0.118609
0.131967
0.104615
0.054888
0.160157
0.142257
0.049721
0.015749
0.044972
0.018983
-0.112029
-0.105007
-0.333074
-0.291389
-0.202485
-0.211836
0.080131
0.013549
0.114246
0.100710
0.060850
-0.041473
0.060647
0.149768
0.107832
0.029150
-0.027638
0.085332
0.055450
0.148840
0.084024
-0.049414
0.039517
-0.059357
-0.175573
-0.092961
-0.077770
0.010342
-0.085923
-0.272601
-0.237731
0.060830
-0.017422
-0.012678
0.077910
0.040606
0.013959
0.102893
0.044782
0.154405
0.104775
-0.058260
-0.135459
-0.178514
-0.076927
0.151351
0.190009
0.251929
0.299920
0.244337
0.258771
-0.129527
-0.087406
0.160916
0.104167
-0.031571
-0.117605
-0.253003
-0.182255
-0.249837
-0.319956
0.073553
-0.094992
-0.025064
0.043856
0.067253
0.090571
-0.054969
0.015423
0.021947
-0.006656
0.052142
0.206137
0.244200
0.156633
0.020966
-0.206800
-0.089799
-0.116622
-0.114256
-0.120532
-0.014559
-0.038123
-0.124416
-0.109285
-0.107258
-0.019794
0.026279
-0.095568
0.120617
-0.003014
0.007801
-0.036666
-0.005945
-0.039093
-0.003238
0.008189
0.129640
0.040558
-0.021187
0.008069
0.054997
0.078600
-0.024497
-0.078333
0.007488
0.021934
0.131773
0.092686
-0.207773
-0.136121
0.008945
0.077586
-0.008523
0.003350
-0.126277
-0.108263
-0.014549
-0.007180
-0.020144
-0.088299
-0.083030
0.209709
0.227047
0.046550
-0.090788
-0.020030
0.248588
0.178988
-0.119659
-0.149652
0.153422
0.220536
-0.219194
-0.240722
0.040247
0.020603
0.007604
-0.148816
-0.197054
-0.061220
-0.020208
-0.002763
-0.025744
0.027131
0.119284
0.086439
0.055620
0.038538
0.017431
-0.026519
0.099894
0.095120
-0.050992
0.003779
-0.115929
0.108438
0.058456
-0.125761
-0.180320
-0.035529
-0.021210
-0.065433
0.035316
-0.065471
-0.122873
-0.109640
0.027070
0.116518
0.020319
0.032656
-0.111953
0.067757
0.105796
0.161684
-0.021678
-0.184757
0.064129
0.232405
0.020665
-0.116350
-0.033397
0.178836
0.109824
-0.092434
-0.267687
0.024808
0.131171
0.015642
-0.113160
-0.140862
-0.014351
-0.102198
-0.244025
-0.130272
0.045221
-0.120683
-0.184725
-0.201469
0.135200
0.209885
-0.135886
-0.209575
-0.066174
0.017675
0.046621
-0.077062
-0.063488
-0.020830
-0.053073
0.155611
0.094513
-0.047602
-0.109092
0.000540
0.135772
-0.050696
-0.002437
0.011760
0.014672
-0.082600
0.010674
0.024950
-0.043800
-0.022170
0.016332
-0.115825
-0.097138
0.072911
0.029201
0.082380
-0.222075
0.076326
0.166642
-0.033485
0.024802
-0.095510
0.157055
0.109720
0.045489
-0.180662
-0.101369
0.058740
-0.041082
0.117292
0.065816
0.042868
0.080457
-0.015169
0.126393
0.128812
-0.027625
-0.057699
0.036898
-0.011481
0.129885
-0.120945
-0.073048
0.023006
0.011927
0.168894
-0.019779
-0.047741
-0.060089
0.038526
-0.054022
-0.112486
-0.036289
-0.235819
-0.070180
0.003296
-0.005051
0.033401
-0.055515
-0.115625
-0.066258
0.091052
-0.003511
-0.015997
0.050615
-0.101931
-0.005440
-0.147707
-0.028850
0.066789
0.160204
-0.084144
-0.096877
-0.069274
0.090078
0.091030
-0.050435
0.047742
-0.048248
0.084548
-0.083874
0.068539
0.069499
0.055528
0.166138
0.107162
-0.101283
-0.034013
0.105775
0.200127
0.087462
-0.074539
-0.140600
-0.043803
0.097104
0.018483
-0.127858
-0.037161
-0.035186
-0.094286
-0.026901
-0.081458
-0.049829
0.122528
0.111996
0.065062
-0.108289
-0.036957
-0.020838
0.058534
0.138704
0.037099
-0.052876
-0.054521
-0.016142
0.095543
-0.073639
-0.146145
-0.139718
-0.078187
0.058719
-0.093682
-0.115904
-0.029915
-0.009779
0.053417
0.147942
0.050971
0.008358
-0.006406
-0.243018
-0.060602
0.026089
0.186940
0.176048
-0.174332
-0.037411
0.142418
0.132518
0.156208
0.076818
-0.020429
0.015472
0.047042
0.200181
0.043748
-0.001242
-0.204678
-0.160299
-0.069356
0.052270
-0.040511
0.062923
-0.046881
-0.102159
-0.148060
0.008038
0.043227
0.082916
0.071115
0.023048
-0.140251
0.085623
0.061732
0.069025
0.122484
-0.076763
-0.056302
-0.114091
-0.004487
0.220078
-0.071697
-0.169731
-0.166956
-0.179196
-0.038973
-0.101681
-0.016548
0.035076
0.061805
0.079612
-0.012578
0.059627
0.011795
0.032512
0.095741
0.086109
0.036065
-0.066064
0.134286
0.066179
0.032184
-0.088540
-0.010648
0.107338
0.095500
0.065789
-0.108309
-0.137242
0.006622
0.043692
-0.081291
-0.039828
-0.041726
-0.068957
-0.014795
0.020405
0.125605
0.018429
0.098933
0.072087
-0.087242
0.005524
-0.108747
0.031089
-0.077928
0.102138
-0.025761
-0.147163
0.051478
-0.066780
0.048881
-0.165699
-0.072113
0.060869
-0.083207
0.061619
-0.074257
-0.033661
0.022780
0.055062
0.028913
0.003164
0.023788
0.024624
0.105880
0.020281
0.036159
0.030737
0.019013
0.043085
0.045136
-0.128773
0.066943
0.160516
0.015757
-0.136394
-0.190632
-0.217176
-0.032187
0.025328
-0.007661
-0.064663
0.085953
0.017516
0.087228
-0.076981
-0.013038
-0.006124
0.009082
0.175714
0.048374
-0.021491
-0.005159
0.017361
0.167045
-0.003805
-0.041911
-0.131514
-0.101665
0.088371
-0.060385
-0.214639
-0.231000
-0.132642
-0.018800
-0.009055
-0.087488
-0.037056
0.020607
-0.147533
-0.049507
-0.052349
-0.165807
-0.083428
-0.023833
-0.116175
0.047839
0.005500
0.081940
-0.156567
0.024971
0.096311
0.113627
0.037598
-0.116721
-0.003354
-0.094194
-0.027292
0.046205
0.123180
0.066836
-0.019747
0.003170
0.064430
-0.046226
-0.068343
-0.064803
0.000133
0.005576
0.082106
-0.093253
-0.083727
-0.060142
0.013674
0.003936
-0.015686
0.076118
0.048293
0.170657
0.196724
0.069444
0.008307
-0.097515
0.093440
0.241451
0.003515
0.141870
0.009239
0.103778
-0.038546
0.058856
0.004970
0.092601
0.112291
0.061057
-0.031214
-0.016798
-0.023681
-0.096375
-0.014695
0.064711
0.006117
-0.162800
-0.150423
-0.116557
0.035019
0.058785
-0.142293
-0.091638
-0.155292
-0.070904
0.092084
0.044293
-0.015565
-0.038814
-0.022935
0.094333
0.075637
0.108439
0.003457
-0.076740
0.077982
-0.013769
0.053086
-0.176875
-0.146477
-0.219842
-0.044750
-0.037740
-0.172854
-0.018798
-0.209334
-0.365273
-0.263715
-0.233607
0.057169
0.005250
0.105958
0.090216
-0.001442
0.146119
0.179296
0.169116
0.083376
-0.056993
-0.045417
0.018983
0.045004
-0.014121
-0.123365
-0.014223
-0.132626
-0.158487
-0.237766
-0.273485
0.016909
-0.001804
0.016080
-0.089650
-0.236591
0.069541
0.041142
0.127922
0.036217
-0.031695
0.019745
0.101442
0.072533
0.035185
-0.028413
-0.051650
-0.029904
-0.215290
-0.160035
-0.218396
0.025214
-0.107373
-0.210265
-0.268098
-0.291227
-0.030010
0.005411
-0.078968
-0.082886
-0.062190
-0.072867
-0.000183
0.044977
0.119662
0.237303
0.046713
0.103772
0.145281
0.095378
-0.012598
0.142458
0.215509
0.319988
0.215466
0.189620
-0.092997
-0.139017
0.075025
0.112639
-0.014950
-0.167404
-0.280599
-0.134173
-0.232949
-0.236108
0.044032
0.078681
0.028506
0.127491
0.132901
0.032498
0.170836
0.057555
0.097458
-0.015045
0.104489
0.132102
0.155986
0.032588
0.005251
-0.010987
-0.037620
-0.179326
0.010321
-0.140237
0.059930
0.039284
-0.167014
-0.099767
-0.168766
0.019810
0.045449
-0.125635
-0.139508
-0.140231
-0.036505
0.053033
-0.080383
-0.040021
0.087955
-0.060660
0.104316
0.082486
0.118667
-0.064430
-0.026422
0.011794
0.034103
0.026456
-0.011652
0.013238
-0.099290
0.098824
0.146191
0.007203
0.027938
-0.028982
0.036895
0.051484
-0.063855
-0.123617
-0.062591
-0.021276
0.006332
-0.028105
-0.027613
-0.145766
-0.238693
-0.145543
-0.029460
0.013045
0.008989
-0.064836
-0.016508
-0.100577
-0.033774
0.062064
-0.012182
0.025966
-0.058735
-0.082185
-0.001742
-0.087620
-0.026144
-0.154947
0.062054
-0.140144
-0.139265
-0.147680
-0.077641
0.062715
0.072311
0.106491
0.127849
0.101149
0.081206
0.040776
0.092520
0.112607
0.076254
-0.055044
-0.024444
0.050777
0.032848
-0.001337
-0.011611
-0.024593
-0.071696
-0.132564
-0.145176
0.033908
0.005044
-0.006411
-0.039519
-0.098778
0.018818
0.114199
0.133919
0.073144
0.146222
-0.099611
0.085227
-0.005083
0.090064
0.022570
-0.141816
-0.186715
-0.171639
-0.078571
-0.126873
-0.108440
-0.012311
0.127340
0.206690
0.088276
-0.082907
-0.050106
-0.033298
0.047251
-0.010325
0.083174
-0.106802
-0.126563
-0.144097
0.038215
0.087967
0.274235
0.208543
0.355815
0.189901
0.022557
0.167421
0.128601
0.184138
-0.022034
-0.042773
-0.026365
-0.033706
0.103530
0.093607
-0.018781
-0.063777
-0.128717
0.028794
-0.038078
0.119006
0.143118
0.074195
-0.061069
-0.036663
0.027959
0.110803
0.177219
0.081830
0.095077
0.012382
-0.022747
0.097919
0.044288
-0.075411
-0.038541
-0.152164
-0.143089
-0.041812
0.059629
0.046845
-0.050694
-0.091299
-0.080476
0.024985
-0.065750
0.060799
0.020146
-0.103835
-0.024116
0.035481
0.005987
0.082082
0.068036
-0.106984
0.097264
-0.002345
-0.021833
0.118352
-0.026758
-0.071292
-0.075278
-0.020228
-0.080000
-0.037398
-0.118257
-0.170052
-0.067455
-0.010508
0.058160
-0.021465
-0.146169
-0.217472
-0.263122
-0.017027
0.023081
0.029658
-0.040903
-0.104708
-0.062900
-0.014936
0.115910
0.017253
0.084048
-0.122691
-0.049824
-0.109889
0.037488
0.103661
-0.049780
0.132648
-0.088190
-0.182754
0.030602
0.002241
0.149643
0.058388
-0.082337
-0.114628
-0.036543
-0.053545
0.163022
0.088858
0.178277
-0.037583
-0.011561
-0.008911
0.100595
0.140274
-0.045266
-0.060217
-0.140511
-0.050930
0.027364
0.018513
0.008302
0.021447
-0.101455
-0.186501
-0.151086
0.040205
0.095792
0.002572
-0.039693
-0.062939
-0.067096
0.015270
0.081959
0.102667
-0.017816
0.021884
0.038342
0.028153
0.086096
0.026280
-0.115309
-0.032146
0.128007
0.253765
0.155746
0.049146
-0.088414
0.022864
0.327383
0.269400
0.146603
0.161260
-0.161198
-0.222506
-0.035991
0.033855
0.109839
0.075063
-0.135421
-0.098346
-0.180037
-0.025975
0.158442
0.161199
0.123328
-0.087660
-0.066978
-0.025119
0.005667
0.128366
-0.038658
-0.035789
-0.088397
0.015898
0.202343
0.224795
0.159832
0.145988
-0.229192
-0.099552
-0.090213
0.105668
0.235482
0.204921
-0.157259
-0.111964
-0.012785
0.068328
0.203015
0.032926
-0.064192
0.047515
0.076698
0.044064
0.007355
-0.026248
0.044170
0.107747
-0.012111
-0.069020
-0.009752
-0.142254
-0.117261
-0.060032
0.072266
0.011928
0.096055
0.011636
0.043976
0.080306
0.022443
-0.063829
0.036286
-0.057370
-0.121080
0.014768
-0.135726
-0.239662
-0.129372
-0.032218
-0.039095
-0.179047
-0.048527
0.044478
-0.031904
-0.055390
-0.025361
0.112587
0.017980
-0.038443
-0.074088
-0.075773
-0.130152
-0.133258
0.028734
-0.060090
-0.141943
-0.114671
0.019643
0.012632
-0.184422
-0.172635
-0.071333
0.019532
0.079760
0.030629
0.088639
0.243902
0.161946
0.096429
-0.055220
0.064219
0.014299
-0.091747
-0.175918
-0.018395
-0.265015
-0.139603
-0.066670
0.096072
0.060567
0.096262
0.092985
0.127097
0.113051
0.013734
-0.018535
-0.042194
0.044533
0.117125
0.102994
0.138614
0.049111
0.134808
0.000394
-0.074926
-0.075258
-0.138419
-0.213861
-0.111579
-0.056887
-0.077509
-0.048993
-0.159536
0.002989
-0.012282
-0.045551
0.072656
0.106957
0.048499
-0.237423
-0.027909
-0.089600
-0.179736
-0.100838
-0.040126
-0.063961
-0.035064
0.225365
0.323840
0.064110
0.377931
0.497383
0.397429
0.182709
-0.154342
-0.116870
-0.037658
-0.202640
-0.350814
-0.038240
-0.227016
-0.263440
0.016247
0.127110
-0.118690
-0.102948
-0.271517
-0.175746
-0.191720
-0.005258
0.156628
-0.027381
-0.030948
0.035801
0.015699
0.231784
0.183620
0.196047
0.097968
0.096758
-0.060100
-0.147569
-0.067640
-0.201219
-0.032414
0.066689
-0.036272
-0.046021
-0.051278
-0.199731
-0.123308
0.098481
0.100255
-0.169693
0.003204
0.187124
0.011065
0.022328
-0.101577
-0.027626
0.056379
-0.028589
0.096179
-0.053389
-0.015127
-0.030171
0.085700
0.069471
0.021058
0.025453
0.043956
-0.017358
-0.059272
-0.075841
-0.138854
-0.007594
0.158120
0.141606
-0.124465
-0.143973
0.140937
0.183553
-0.062714
-0.250048
0.001696
0.204143
0.027245
-0.240579
-0.207271
0.219413
0.075172
-0.133024
-0.123074
-0.056252
0.075708
-0.099891
-0.093516
-0.127489
-0.166460
-0.098742
-0.147646
-0.060714
0.052005
-0.119137
-0.159352
-0.012481
0.148009
0.064398
-0.181545
0.111429
0.005440
0.124692
-0.019030
0.009929
0.100091
0.075073
-0.001190
0.051432
-0.034134
-0.053568
-0.014390
0.105513
-0.105936
-0.060955
-0.070850
-0.223122
0.085088
0.094312
-0.033650
-0.189418
-0.126773
0.140679
0.036705
-0.049547
-0.070764
0.042622
0.118777
-0.123796
-0.119355
0.076353
0.195162
0.049090
-0.126038
-0.020381
0.142931
0.002194
-0.138768
-0.074389
-0.033196
0.056407
0.140625
0.013527
-0.082079
-0.185928
0.013218
-0.220483
0.052215
-0.014450
-0.031657
-0.155285
-0.144211
0.098809
0.160282
0.053841
-0.033555
0.078564
0.097341
0.009945
0.142380
-0.120881
-0.067836
-0.040973
0.116588
0.004620
0.079888
-0.096351
0.028706
0.198436
0.004073
-0.121412
-0.244214
0.048032
0.151664
-0.090290
-0.084761
-0.144742
0.001181
0.203478
0.054367
-0.223443
0.091906
0.072553
-0.039248
0.117983
-0.084333
0.163796
0.002212
-0.044226
0.096014
-0.047217
-0.149227
0.042101
0.062515
0.098258
-0.045125
0.046989
0.090442
0.168443
-0.037290
-0.097249
0.064989
0.016912
0.092051
0.063604
0.042820
0.015596
0.103554
0.008680
-0.041461
0.043477
0.048518
0.047468
0.018348
-0.077118
-0.006639
-0.130018
0.048025
0.005092
-0.017381
-0.048948
-0.023094
0.182631
0.113401
-0.061561
-0.103267
0.002379
0.130844
-0.003858
-0.027675
-0.064519
0.101511
0.108262
-0.132356
-0.066981
-0.077344
-0.076662
-0.147186
-0.231076
-0.098840
-0.128329
-0.008702
-0.015107
0.051734
0.075238
-0.044593
-0.031287
0.022053
0.066469
0.084305
0.013075
0.106316
0.074110
0.091458
-0.050578
-0.013756
0.077087
-0.022442
0.017154
-0.009252
-0.093018
0.020834
-0.051303
-0.048739
-0.138760
0.068313
-0.030028
-0.071181
0.001008
0.136902
0.031255
-0.110847
0.095950
0.039874
0.123295
-0.012046
-0.126505
-0.000811
0.149973
-0.045200
0.035372
0.043749
0.136635
0.033287
-0.100027
-0.017405
0.022749
0.006799
0.030474
-0.091797
-0.000314
0.028366
0.077030
-0.208704
-0.168757
-0.093968
-0.054215
-0.189406
-0.207617
0.025508
-0.085643
-0.092359
-0.185694
-0.022417
-0.128482
0.082871
-0.033173
-0.067002
-0.010161
-0.000863
0.023717
0.017365
0.057523
0.070656
0.110842
0.085845
-0.055102
0.055778
0.071216
0.115542
0.041250
-0.103099
0.035544
-0.017553
-0.044732
0.040419
-0.191648
-0.034765
0.018858
0.007945
-0.059726
-0.087040
-0.017102
0.064897
-0.051550
-0.041962
-0.061286
0.066733
0.092373
-0.012480
conv2.bias 16 -0.221572
-0.082335
-0.009685
0.024287
0.131225
-0.187799
-0.022736
0.059762
-0.196400
0.014833
0.140394
-0.138655
-0.104582
-0.011121
-0.134622
-0.029019
fc1.weight 30720 0.075218
0.050319
0.000869
0.003993
-0.007619
-0.014156
0.014285
0.041809
-0.018291
-0.097830
-0.020485
0.002651
-0.079091
-0.076928
-0.016770
-0.020471
-0.022394
-0.044712
-0.070273
-0.150579
0.031882
0.017467
0.040505
-0.013083
0.001621
0.010975
0.063145
0.135720
0.011287
0.043738
0.028564
-0.069939
0.002217
0.063366
0.064172
0.074036
-0.141787
-0.106711
0.064203
-0.022941
-0.007537
-0.019696
-0.055917
0.025998
0.195022
0.080779
-0.001547
-0.029169
0.033117
0.010760
-0.108139
0.044913
-0.005491
-0.027203
0.019757
0.024886
0.016372
-0.083983
-0.105463
-0.016807
-0.020752
0.002227
0.061974
-0.100719
-0.144861
-0.128552
-0.068665
0.008190
-0.137646
-0.125336
-0.019237
0.001992
0.180891
-0.113208
0.094777
0.096104
0.173221
0.002409
0.098552
0.028335
-0.038481
0.080148
0.077531
-0.077724
0.067376
-0.017999
0.084317
-0.088731
-0.177109
-0.017542
0.053888
-0.042767
-0.098683
-0.115677
0.011836
0.074046
0.079879
0.060269
0.116972
0.141769
0.034233
-0.065331
0.026741
0.057412
0.099286
0.030944
0.020688
-0.108472
0.218728
0.054466
0.045319
-0.242970
-0.087759
-0.087023
-0.024698
-0.041709
-0.093473
-0.007808
0.136127
0.068404
-0.191527
-0.085816
-0.074909
-0.001548
-0.114327
-0.063581
-0.034986
0.063278
-0.051011
0.048876
-0.041970
-0.124927
0.063028
0.029440
-0.004895
-0.050171
0.019085
0.121571
0.048323
0.050693
-0.014008
-0.010106
-0.025070
-0.071112
0.000728
0.071661
-0.122261
-0.057118
0.059855
0.039887
0.062006
0.022413
-0.034437
0.045393
0.060954
-0.113928
-0.063282
-0.075637
-0.017849
0.018308
-0.092178
0.064777
0.041319
0.075368
0.053581
0.019654
0.012771
0.093016
0.132957
0.073424
0.053443
-0.069763
0.012456
-0.001709
-0.010092
-0.176260
0.027109
-0.027255
0.029728
0.059150
-0.000297
-0.023492
-0.038229
0.080251
0.070586
0.008133
0.009675
-0.002636
0.125134
-0.030635
-0.053580
-0.071888
-0.118954
-0.042262
0.018572
0.030848
0.035953
-0.112120
-0.073390
0.068279
0.067537
-0.030182
0.072480
0.119833
0.097647
0.015420
-0.064683
-0.023013
0.099356
0.067186
0.117644
0.153195
0.058112
0.034128
0.057023
0.122615
0.127109
0.041726
-0.046163
-0.073702
0.127148
0.070335
-0.003843
-0.146571
-0.011575
0.005353
-0.019379
-0.043671
-0.097211
0.021189
-0.001149
-0.067997
0.002920
0.001489
-0.078628
-0.219980
-0.056522
0.128073
0.022679
0.086818
-0.027417
-0.023711
0.063155
0.008499
-0.041426
0.067317
-0.020561
-0.046351
-0.112290
0.065143
-0.082443
-0.106549
-0.096779
0.068349
0.003518
0.116753
0.080925
-0.001778
-0.022139
-0.066573
-0.066651
-0.040363
-0.069920
-0.000367
-0.053727
-0.121190
-0.072267
-0.096451
-0.023312
-0.068369
-0.076061
-0.035815
-0.079316
-0.210621
-0.106432
0.015215
-0.038296
0.044169
-0.002097
0.028761
0.022197
-0.012992
-0.048875
0.092576
-0.061029
-0.030665
-0.135163
-0.047494
0.138463
0.006241
0.106620
-0.053472
0.049083
-0.001461
0.027908
0.016853
-0.167654
-0.111162
-0.115266
-0.101369
-0.017231
0.036350
0.065791
-0.005237
-0.081955
-0.062862
-0.062825
-0.087607
-0.025812
-0.070300
-0.118299
-0.034355
-0.169214
-0.119925
-0.024603
-0.098286
-0.134583
0.006254
-0.038458
-0.019145
0.000043
-0.090612
-0.019815
-0.078835
0.031550
-0.048013
-0.046883
-0.020060
-0.106054
-0.049552
0.030050
-0.039715
0.024054
0.080680
0.108925
-0.040112
0.050801
0.025793
-0.076265
-0.067984
0.109906
-0.042980
-0.014215
-0.098135
0.004186
-0.106173
-0.076383
-0.092495
0.041016
-0.022413
-0.010632
-0.069637
0.047456
-0.011290
-0.002630
0.009504
-0.110494
-0.023729
0.002493
-0.043538
0.030425
0.035013
0.094281
0.082115
0.044270
-0.007915
-0.100439
-0.035733
0.074680
-0.030746
-0.146153
-0.158348
0.103247
-0.035440
-0.102443
-0.132483
0.027859
-0.044755
-0.123059
-0.120804
-0.023667
-0.049352
-0.028018
-0.114693
-0.106932
-0.023095
-0.082135
0.118313
-0.008440
-0.027147
0.062463
0.075893
-0.017838
0.024595
-0.018338
0.094511
-0.007989
-0.062297
-0.129731
-0.027344
-0.081872
-0.012143
-0.081088
0.076060
-0.114703
-0.043245
-0.088809
0.073215
-0.039468
-0.067705
-0.034776
-0.018589
-0.043960
-0.026157
-0.097999
0.015403
-0.070153
-0.002318
-0.003375
-0.021646
-0.023128
0.062259
0.098971
-0.015029
0.079509
0.094067
0.039218
0.064456
0.010664
-0.087424
-0.049545
-0.147931
0.043980
0.075988
0.051456
0.050405
0.059316
0.000354
-0.039039
0.004455
-0.026387
-0.104413
-0.097513
-0.124518
-0.087097
-0.018832
0.040332
0.020181
-0.048295
-0.014842
-0.070191
0.027596
0.129378
-0.034720
-0.010794
0.080966
-0.018835
-0.039156
0.045433
0.018950
0.023960
-0.021549
0.075726
0.150142
0.045129
-0.003751
0.049222
0.088997
-0.060355
0.003876
0.028031
-0.001237
0.083050
-0.012232
0.093157
0.109853
-0.021152
-0.005694
-0.043452
0.055248
-0.046231
-0.005715
0.033194
-0.078369
0.036613
-0.032330
-0.080588
-0.110739
0.008545
-0.123442
-0.161629
-0.061150
-0.071744
-0.057961
-0.071372
-0.078087
-0.000467
-0.110801
-0.068720
-0.145976
0.012047
-0.130070
-0.208029
-0.017867
0.017057
-0.113635
-0.094568
-0.074122
-0.128555
-0.091646
-0.100155
-0.052207
-0.075659
-0.030836
0.013066
-0.042959
-0.036651
0.136911
0.047104
0.003186
0.080161
-0.082800
-0.103318
0.015797
0.051405
0.082608
-0.013641
-0.009406
-0.039817
0.067434
0.088182
0.051887
-0.105632
0.057277
-0.069517
-0.040287
0.109301
0.142763
0.089774
0.029274
-0.001211
-0.044738
0.086200
-0.007872
-0.018652
-0.034556
0.007090
0.058536
0.058946
0.050969
0.029144
-0.139760
0.281735
0.140822
-0.041715
-0.169459
-0.097519
-0.102414
-0.176786
0.051609
0.098259
-0.038130
-0.089462
-0.218402
-0.092573
-0.059243
-0.039709
-0.068682
0.164677
-0.102670
-0.132670
0.076622
0.161041
-0.104387
-0.096747
0.106361
-0.115354
-0.021911
-0.061977
0.110546
0.222909
0.030881
-0.088899
-0.163351
-0.073384
0.035321
0.002120
-0.142995
-0.128108
-0.106621
0.077492
0.205816
-0.234996
-0.014313
-0.030038
0.049925
-0.115571
0.034930
0.080868
-0.026792
-0.107075
-0.105933
-0.032224
-0.008627
0.076096
0.011031
-0.060810
0.070612
-0.057279
0.042203
0.000874
-0.004068
0.035876
0.055621
-0.009154
-0.079706
0.056876
-0.066066
0.052767
0.102919
-0.056428
-0.039633
-0.016179
0.036048
-0.041499
-0.009021
-0.105486
-0.077036
-0.165583
-0.060593
0.052497
0.134871
0.077899
0.048425
0.103051
0.027701
0.132260
0.075592
-0.084736
-0.157391
0.021618
-0.014026
0.057156
0.217404
0.089694
0.098675
-0.071746
-0.052942
-0.076946
0.013076
0.018500
0.019306
0.075370
-0.171076
-0.009903
0.148974
0.035742
0.099371
-0.045000
0.044787
0.011232
0.050211
-0.113020
-0.064924
0.011899
0.044537
-0.032110
0.076047
0.122762
-0.079038
-0.084853
0.021395
0.002350
-0.035116
-0.099133
-0.235298
-0.022000
0.001434
-0.046016
-0.060371
-0.083156
0.059726
0.128334
0.130938
-0.027283
0.053355
0.021478
-0.031812
-0.093384
-0.071027
-0.024962
0.085162
0.067628
0.050008
0.084360
-0.020168
0.065175
0.091119
-0.118771
-0.013341
0.025877
0.004465
-0.048184
0.089518
-0.081697
0.057251
0.006815
0.123362
0.281496
0.164419
0.090059
-0.153539
0.232852
0.079577
-0.084551
-0.195092
-0.015413
0.054087
-0.004115
0.120860
0.019533
-0.001421
0.044110
-0.053955
0.125681
0.000391
0.002298
-0.088308
-0.143351
-0.103429
0.075160
0.163463
-0.143046
0.005399
-0.058691
-0.092851
-0.024428
0.072192
0.013215
-0.109809
-0.094072
-0.084510
-0.038985
0.010047
-0.026257
0.140834
0.094728
-0.010528
-0.018006
0.004736
-0.042502
-0.112594
0.002331
-0.031049
-0.071455
-0.117683
-0.095912
-0.101061
0.040219
0.084770
0.063817
0.040616
-0.015829
-0.051523
0.120118
0.078957
-0.147484
-0.078527
-0.038975
0.031484
-0.004000
0.006827
-0.011445
-0.018167
0.013709
-0.027399
-0.078037
-0.072265
-0.012686
-0.069094
0.034888
0.013986
0.040338
-0.062311
-0.015141
-0.053796
0.025423
0.012880
0.046078
0.026291
-0.064306
-0.006705
-0.062590
-0.016498
-0.007390
-0.073967
-0.027242
-0.070960
-0.020265
-0.058522
0.004007
0.036063
-0.021210
0.031246
-0.014702
0.006525
-0.013089
-0.014767
0.018043
-0.046066
-0.063729
-0.031118
-0.033252
-0.020762
-0.002416
-0.038875
-0.062649
-0.006790
0.033207
0.043362
0.008161
-0.054356
-0.020685
0.017867
-0.065026
-0.017447
0.036684
-0.012729
0.006107
0.035003
0.006016
-0.003162
0.028756
-0.032355
0.030127
-0.041576
-0.012785
0.033031
-0.076189
-0.044526
0.020554
-0.057123
-0.061658
0.018016
0.012141
-0.071915
-0.068844
-0.061980
0.042857
-0.031813
-0.059420
-0.005924
0.023990
0.007978
-0.052906
-0.017912
-0.052270
0.024189
-0.077021
-0.003892
0.033294
-0.080691
0.027686
-0.065661
0.009752
-0.010179
-0.055984
-0.052269
0.038313
-0.018709
-0.000862
0.042302
-0.068902
-0.023213
-0.072878
-0.064397
0.001914
-0.020601
-0.023820
0.042607
0.014207
-0.030997
-0.004039
-0.044569
-0.072512
-0.011872
-0.057100
-0.047262
0.027369
0.026625
-0.039196
-0.061810
-0.065370
-0.022601
-0.037352
-0.062073
-0.001659
-0.027678
-0.020317
0.010005
0.030788
0.014008
-0.030435
0.001922
-0.013552
0.007827
-0.031931
-0.063160
-0.048038
-0.046623
0.014203
-0.055917
-0.002937
0.018139
-0.020025
-0.020273
-0.045390
-0.005587
-0.047434
-0.024792
-0.026332
0.008602
-0.059452
-0.065317
-0.037735
0.025837
-0.074060
0.013938
0.034519
0.060437
-0.071006
0.016903
-0.069574
-0.071325
-0.048990
-0.002834
-0.050900
0.011875
-0.013184
0.026124
-0.072040
-0.036483
0.018320
-0.066984
0.025198
0.041979
-0.016249
0.033259
-0.018145
-0.072174
-0.015559
-0.012796
-0.031294
-0.000058
-0.035904
-0.081161
0.039356
0.020607
-0.009284
-0.033491
0.011561
-0.072997
-0.070537
0.040101
-0.057870
-0.082417
-0.059597
-0.018156
-0.077934
-0.016186
-0.057834
-0.019533
-0.013035
-0.042752
-0.016082
0.032093
-0.019392
-0.030548
-0.047920
0.045881
-0.027773
-0.044336
-0.036387
-0.055393
-0.001162
-0.008976
-0.059415
0.029507
0.024387
0.033583
-0.030891
0.011315
-0.051599
-0.064770
-0.067260
-0.064565
-0.019563
0.000713
0.022221
-0.072333
-0.046610
0.005289
-0.019420
-0.045192
-0.073791
-0.049312
0.031376
-0.035103
-0.017005
-0.048170
-0.079391
-0.058512
-0.034458
-0.064469
-0.033709
0.042178
-0.032882
-0.074606
-0.029428
-0.028709
-0.051190
0.014883
0.002842
-0.075942
-0.010234
-0.002904
-0.066131
0.001245
-0.111641
-0.032084
-0.067295
-0.086074
-0.034416
0.005398
-0.090117
0.014428
-0.105087
-0.089308
-0.038838
-0.020360
-0.068333
0.004997
0.047467
-0.076716
-0.108086
-0.002399
0.016391
-0.069867
-0.026290
-0.046062
-0.010255
-0.067968
0.005666
-0.050862
-0.034348
-0.077956
-0.004968
-0.104661
-0.118514
-0.008906
-0.063346
-0.010016
-0.075654
-0.006637
-0.037657
-0.000367
-0.015200
-0.001641
-0.042540
-0.018786
-0.108818
-0.030381
-0.045223
0.033739
-0.038361
-0.038000
-0.025913
-0.025455
-0.102430
-0.007112
-0.052332
-0.056300
-0.114572
-0.043867
-0.038239
-0.039499
-0.074619
-0.052349
-0.035411
-0.064798
0.040847
0.024746
0.019090
0.036235
0.025253
0.041984
0.041734
0.015839
0.016878
0.028793
0.017529
0.072136
-0.036017
-0.036688
-0.074169
-0.002358
-0.029131
-0.004843
-0.082037
-0.057413
0.057390
-0.017380
0.009963
-0.076298
-0.068230
-0.014871
-0.021769
-0.021119
0.022316
0.009271
0.001292
-0.011932
-0.061532
0.050510
0.015638
-0.018592
-0.042006
-0.028136
-0.087179
-0.085905
0.008319
-0.070586
-0.090505
-0.107074
-0.073857
-0.077022
-0.086698
0.027232
0.041312
-0.097135
0.012713
-0.009431
-0.091907
0.002134
-0.015491
0.018169
0.022747
-0.017231
-0.053480
-0.001531
-0.047625
-0.068953
0.015712
-0.079419
0.019059
0.047487
-0.042307
0.000675
-0.078056
0.008956
-0.074928
-0.005866
0.026248
-0.020538
-0.027254
-0.043133
-0.094996
-0.061238
-0.000768
-0.014951
-0.070720
-0.006417
-0.047509
0.003788
0.000234
-0.077249
-0.075215
0.018481
0.004750
-0.075081
-0.015529
0.027102
-0.051014
-0.005950
-0.013287
-0.084499
0.031400
0.034840
0.052635
-0.034945
-0.002547
-0.062004
-0.124003
-0.035716
-0.032462
-0.054000
-0.059448
-0.036900
-0.034893
0.014787
-0.016310
-0.116994
-0.012709
-0.077615
-0.029245
-0.007092
0.061916
-0.049431
-0.035702
-0.025660
-0.006144
-0.081480
-0.039533
0.048813
-0.079067
-0.034072
-0.011419
0.018341
-0.059810
0.008718
-0.078487
0.027116
0.070257
0.033996
0.000172
-0.045632
-0.013799
0.057832
0.021710
0.032966
-0.022334
-0.095479
0.029519
-0.087651
-0.092158
0.039152
-0.058273
-0.078676
-0.114334
-0.086066
-0.038753
0.020138
-0.002911
-0.077409
-0.049419
-0.010363
0.057309
0.000721
-0.019997
-0.075023
-0.027495
-0.068074
0.007236
0.008973
-0.066421
-0.045512
-0.009616
-0.074418
-0.055591
-0.109288
-0.022083
-0.051198
0.013271
-0.014563
0.016622
0.044401
-0.064195
-0.027749
-0.064698
-0.004119
-0.055551
-0.004183
0.002937
0.034584
-0.085224
-0.024348
-0.040080
0.012593
-0.053061
-0.080730
-0.028446
0.022137
0.039616
-0.015446
-0.008687
0.106056
0.087144
-0.035993
0.040667
0.000845
0.012863
0.002783
-0.127612
0.034081
0.003596
0.002032
-0.092706
-0.107612
-0.077886
0.001038
-0.046267
0.008379
-0.121313
0.053232
0.195004
0.091698
-0.020025
-0.085371
0.116320
-0.011793
0.022625
0.054596
0.133906
0.054866
-0.011796
-0.007702
-0.123766
-0.105925
0.004520
-0.077423
0.047856
-0.005255
-0.053490
-0.061896
-0.222248
-0.189618
-0.138988
0.015985
0.192219
0.038777
-0.066441
-0.091471
-0.015350
-0.167089
-0.028668
0.058014
0.008084
-0.076758
0.002257
0.035547
0.065737
-0.146264
-0.300992
-0.097202
-0.112968
-0.121011
-0.108350
-0.024013
-0.005862
-0.076641
0.047907
-0.190158
-0.142882
-0.166295
0.021951
0.091118
-0.386056
-0.206166
-0.020675
0.166946
0.064292
-0.043919
-0.059748
0.008642
0.073351
0.150530
0.029864
-0.124453
0.019912
-0.003471
0.011411
-0.104361
0.028984
-0.029612
0.020129
0.064668
-0.130658
-0.004869
-0.016688
0.055690
-0.128389
0.013977
0.010678
-0.038069
-0.030707
-0.068926
-0.039776
0.150197
-0.100890
-0.026225
-0.024053
0.018112
0.030714
-0.048974
-0.069159
-0.042084
0.012697
0.050488
0.031862
0.083089
0.003380
-0.025994
0.143958
0.000074
0.034374
-0.037442
-0.112842
-0.056186
-0.065920
-0.086682
0.015239
0.203783
0.149572
0.009550
-0.120785
-0.015951
0.046968
0.073770
-0.040051
0.029721
0.023444
-0.043085
-0.054728
0.065684
0.089911
-0.001602
0.040573
0.069731
0.100282
0.023518
-0.178606
-0.010210
-0.022444
0.033186
-0.042386
0.144951
0.173174
0.107799
-0.034757
0.010383
-0.215985
0.034232
-0.065149
-0.119169
-0.065052
-0.086099
-0.074003
0.060792
0.030736
-0.049873
-0.041596
0.167945
-0.052296
-0.058610
-0.113845
-0.009052
-0.051676
0.059229
-0.043756
-0.033485
0.019954
0.034411
0.078478
-0.056750
0.056002
0.063571
0.060449
0.004509
0.030437
-0.027921
0.069661
0.021875
-0.011267
0.000678
-0.037269
0.046722
0.226493
0.112486
0.105276
-0.096260
0.116488
0.097473
-0.074379
0.082942
-0.098389
-0.059564
-0.047614
0.001036
-0.143696
0.006191
0.074445
0.131495
-0.143394
-0.055558
0.077780
-0.064181
-0.088953
-0.081498
0.020953
0.099226
-0.131297
-0.089173
-0.004296
-0.067229
0.002607
0.109039
0.090666
-0.017789
0.020345
-0.048044
-0.105898
0.133434
-0.037689
0.000139
-0.013802
0.063831
-0.074741
0.059462
-0.101903
-0.090632
0.006561
0.009282
-0.084441
-0.021406
-0.015908
0.036935
-0.002247
0.113649
0.042584
0.076153
-0.036537
0.008037
0.046614
0.012743
-0.086585
-0.046267
-0.015069
-0.018351
0.077853
0.077116
-0.050645
0.026075
-0.049862
-0.052486
0.134955
-0.017340
-0.056986
-0.014096
-0.014373
0.007404
-0.064502
-0.006708
0.030509
-0.084182
-0.088258
-0.038363
-0.073514
-0.021869
-0.051691
0.073091
0.058300
0.014495
0.016492
0.058431
0.001646
0.011058
0.004710
0.024670
-0.078990
-0.035028
0.000869
-0.019134
-0.211839
-0.179859
0.062051
-0.018150
0.074850
0.116994
0.058578
-0.116669
0.020701
-0.022109
-0.109825
-0.045441
0.031035
-0.034318
0.008977
-0.087881
0.011254
-0.053926
-0.088998
-0.218858
0.068608
-0.005167
-0.040266
-0.103646
0.092158
0.069765
-0.055230
-0.077481
-0.229723
-0.113806
-0.114997
-0.106215
0.055166
0.058002
-0.078913
-0.041470
0.131398
-0.060326
0.001642
0.044279
-0.027158
-0.039866
-0.050285
0.101317
0.010861
0.065433
-0.012747
0.031929
0.180862
0.137456
0.004939
-0.044081
-0.027678
0.038005
0.026885
-0.031217
-0.004144
-0.050021
-0.054427
0.018340
-0.261279
0.006728
0.100920
0.139512
0.018139
0.108696
0.093929
0.103648
0.069428
0.008378
-0.070466
0.015315
-0.047527
0.007523
-0.035138
-0.160242
0.076725
0.071653
0.005461
-0.033864
-0.080928
0.001722
0.071769
0.040218
-0.073247
-0.041528
0.045774
-0.019524
0.037604
0.005909
-0.021346
0.006543
0.056172
-0.059986
-0.122231
0.037426
0.132802
0.068989
0.006766
0.070121
0.001740
0.039231
0.083732
-0.026883
0.004056
-0.117352
-0.102002
-0.036569
0.076748
0.065260
-0.026417
0.041661
0.021108
0.035753
0.053159
-0.125265
-0.081667
0.001545
0.094891
-0.040921
0.099613
-0.054191
-0.030044
0.045929
-0.152867
0.089803
0.142657
0.141753
-0.024679
-0.021519
-0.002411
0.183939
-0.001560
-0.045921
0.029510
0.039921
-0.064774
0.009691
-0.088989
-0.070764
-0.108122
0.029929
-0.001479
0.088443
-0.032927
0.122442
0.050445
-0.089780
0.151509
0.102851
-0.014937
-0.127434
-0.002737
0.063456
-0.037487
-0.067152
-0.101418
-0.058669
0.111789
-0.014826
0.245290
0.046925
0.034229
0.030671
0.123446
0.005472
-0.097613
-0.047640
0.009986
0.078353
-0.027777
-0.050179
-0.146570
-0.014262
0.144043
0.235163
-0.046708
0.053827
0.132895
0.179305
-0.044276
-0.048715
0.013578
-0.094771
0.020482
-0.027131
-0.017945
-0.207071
0.057922
0.104503
0.084255
-0.022262
0.041898
-0.011844
-0.125223
-0.162648
0.025875
0.098991
-0.025104
-0.111763
-0.022016
-0.011220
0.041612
-0.048873
0.009954
0.005530
0.004462
-0.107253
0.011250
0.015021
-0.073506
-0.086871
0.039216
-0.004721
0.044558
-0.035171
0.098702
0.049631
0.072871
-0.054246
-0.054928
-0.011821
-0.015039
0.017014
-0.034964
-0.077814
0.010205
-0.061065
-0.057438
0.020353
0.026467
0.016681
-0.057172
0.014428
-0.054187
-0.073156
0.015438
0.020765
-0.139314
-0.228392
-0.130994
-0.040964
0.004842
0.016790
-0.092222
0.028112
-0.035754
0.218243
-0.038730
-0.012504
-0.058229
-0.049926
-0.130963
0.053555
-0.011574
0.033302
0.016261
0.092588
0.133495
0.189825
-0.117678
0.005853
-0.061743
0.081837
0.197093
0.119777
0.035547
0.028698
-0.091763
-0.012031
0.020247
0.254141
0.088487
0.066788
0.002161
-0.073097
0.017380
0.090991
-0.042207
-0.127178
-0.128018
0.095663
0.116221
-0.051136
0.113696
0.106542
-0.039595
-0.163577
0.044396
0.147848
0.106237
0.144836
0.302710
0.122315
0.153786
0.026386
-0.009208
0.016875
0.097808
0.067303
0.004179
0.082765
0.015505
-0.113002
0.059981
0.146642
-0.071241
-0.120848
-0.096909
0.081534
0.018610
0.051576
-0.185405
0.035192
0.055844
-0.056162
0.017394
0.021558
0.106102
0.122982
-0.142307
-0.036495
0.110357
0.193945
0.035848
0.020240
-0.043912
-0.108541
0.072068
0.062008
0.063010
0.017139
-0.044701
0.080344
0.059743
-0.160701
-0.024676
0.093476
-0.112468
-0.148274
-0.065871
-0.046159
-0.094370
-0.025591
-0.217535
0.033940
0.118112
0.011617
-0.043639
-0.076238
-0.133425
-0.159567
-0.026577
-0.048541
-0.028341
0.142172
-0.084654
-0.017318
-0.054773
0.091297
-0.077710
-0.031160
0.037114
-0.026083
0.016416
0.008182
-0.086566
0.036380
-0.003688
0.058564
0.107179
0.089701
0.021968
-0.036031
-0.113583
0.000018
-0.025084
-0.014528
-0.011302
-0.060076
-0.105142
0.013821
0.210915
0.238390
-0.091483
-0.014436
0.070405
0.118131
0.098484
0.117278
0.033478
-0.042897
0.088186
-0.027597
0.050955
0.004067
-0.071210
-0.046454
0.069829
-0.028725
0.037631
-0.055798
0.007463
-0.003826
-0.102923
-0.065679
0.010461
0.071832
0.081624
-0.016591
-0.041530
-0.024160
-0.005737
-0.076710
0.069271
-0.036672
-0.214168
-0.057057
0.005620
0.188595
0.013596
-0.033264
0.116724
0.029642
-0.080190
-0.017417
-0.078617
0.065885
-0.022760
-0.025693
-0.073364
0.085695
-0.161546
-0.022917
0.033656
0.253138
0.081401
0.050154
0.072617
-0.063787
0.066055
0.070512
0.124944
-0.074595
0.032420
0.027434
-0.045268
-0.086896
0.094004
0.017897
-0.051697
-0.235875
0.000398
-0.002494
-0.005251
-0.175002
0.015918
0.063144
0.090235
0.025871
0.017962
0.031370
-0.053360
0.006876
0.061170
0.067378
-0.062302
-0.202335
0.068844
-0.020131
-0.022091
-0.005675
-0.110935
-0.010963
0.087649
0.020990
-0.019281
-0.006041
0.041989
0.038332
-0.030622
0.042219
0.018244
-0.009898
0.030141
-0.050028
0.058389
0.076188
0.005293
-0.030112
0.076906
0.053021
-0.092998
-0.037516
-0.123331
-0.121707
-0.098795
-0.032415
-0.087034
0.081830
0.018649
0.097280
0.121877
0.027851
0.085086
-0.043196
-0.077156
-0.213125
-0.036889
0.031450
0.083807
0.066859
-0.029328
-0.034009
0.084733
-0.100067
-0.002342
-0.050382
-0.024500
0.018584
0.049051
-0.165145
-0.086488
-0.058096
0.021389
0.027636
0.016165
0.048819
-0.032896
0.037949
0.000029
-0.188081
0.051018
0.071475
-0.088376
-0.029047
0.001402
-0.034247
-0.114696
-0.073836
0.006828
0.104254
0.125965
-0.086433
-0.028680
-0.090972
0.112771
-0.066304
0.098524
-0.002396
0.134765
0.051774
0.056254
-0.051014
0.031341
0.103120
-0.068878
0.039269
0.104041
-0.057931
0.087957
0.081644
0.039105
-0.202060
0.061359
-0.026365
0.078585
-0.060099
-0.062623
-0.059457
0.131576
-0.017407
-0.333207
-0.144648
0.023695
0.089067
-0.244615
-0.173419
-0.025163
-0.007015
-0.069743
-0.136235
-0.069613
-0.017413
-0.073956
-0.085732
-0.098820
-0.171924
-0.035032
-0.060709
0.122535
-0.022802
-0.002891
-0.078672
0.192542
0.039058
-0.088489
0.031953
0.038999
0.011730
-0.045393
-0.004447
0.014632
0.023448
-0.060962
0.019137
-0.031320
0.061102
-0.064966
0.034885
-0.052473
0.075102
0.054048
0.038831
-0.031195
-0.122801
-0.019814
-0.015192
-0.039216
-0.145229
0.010028
0.130988
-0.080966
0.130494
0.013310
0.074768
0.041507
0.044383
0.019264
0.140468
-0.062214
-0.091245
0.059503
-0.017918
-0.047876
-0.080383
-0.084169
-0.038289
-0.006425
0.051757
-0.001139
-0.007636
0.048493
0.163847
0.089668
0.047156
0.052745
0.103023
0.081446
0.029253
-0.043126
-0.109613
0.002668
-0.060434
0.049040
0.061630
-0.069861
0.052781
0.037013
-0.046246
0.092064
-0.110809
-0.113059
-0.021005
0.016873
-0.022596
0.020193
0.039158
-0.161696
-0.018331
0.076682
0.043261
0.038783
-0.122360
-0.043468
-0.063043
0.086507
0.025431
-0.095714
-0.059536
-0.037178
-0.093720
-0.229844
-0.020150
-0.212960
-0.124466
-0.027885
0.071983
-0.136965
-0.091792
0.043719
0.269884
-0.055459
-0.041099
-0.146969
0.050007
-0.048112
-0.099497
-0.047312
-0.210103
-0.135504
-0.027884
0.004872
0.036326
-0.064339
0.023679
-0.006481
-0.023926
-0.037419
0.091607
-0.045672
-0.228574
-0.016040
0.043797
0.040724
-0.165269
-0.011134
0.001279
0.091329
-0.045518
-0.062868
0.059209
0.094110
-0.051454
-0.072668
0.022224
0.008148
-0.129147
0.014297
0.095564
0.022861
-0.085538
0.124156
-0.005562
0.052541
0.049872
0.085198
0.015566
0.027495
0.006586
-0.046529
-0.021405
-0.008848
0.074019
-0.196413
-0.175788
-0.147817
-0.014086
0.056174
0.040039
0.018545
-0.036468
0.138118
-0.022004
0.061376
-0.033962
0.106248
0.010019
-0.050010
-0.076811
0.117773
0.087607
0.080357
-0.043426
0.103385
0.052940
0.101342
0.032735
-0.087134
-0.061720
0.021311
0.007824
0.010945
-0.016367
0.168048
0.001034
0.013360
-0.186325
-0.166831
-0.216853
-0.014558
-0.095428
0.085924
0.068431
-0.012498
-0.026144
-0.016770
0.027653
-0.165167
0.118234
0.183112
0.061801
0.077115
0.045193
0.052749
0.144396
0.061024
0.045858
-0.025233
-0.036608
0.008134
0.040510
0.056243
-0.085237
-0.103440
-0.006098
-0.024230
-0.080744
-0.565152
-0.181148
-0.337509
-0.162402
0.130377
-0.062706
-0.071751
-0.004297
0.002994
-0.000167
0.059719
0.058560
0.047188
0.027685
0.007199
-0.035456
-0.154168
-0.101104
0.120144
0.077946
0.032433
0.041386
-0.047171
0.079683
0.008832
-0.000078
-0.015765
0.097144
-0.007067
0.076684
-0.076262
0.009479
-0.074634
-0.074432
0.044000
0.156510
0.071190
0.033983
0.012651
0.074018
0.148747
0.040620
-0.023055
0.049783
-0.003606
0.008172
0.099777
0.062186
0.038567
0.107266
0.152373
-0.080835
0.043618
-0.038751
0.104489
0.121013
0.038549
0.101975
0.155107
0.045174
0.011900
0.026015
-0.044973
-0.102080
-0.058811
0.046619
-0.041050
-0.090739
0.015604
-0.065179
0.123915
0.042031
0.012680
0.030678
0.006358
-0.089190
-0.035526
0.051705
0.080716
-0.098846
-0.149250
0.072262
-0.045909
-0.114055
0.079442
0.023170
0.020052
0.093717
0.004454
0.098147
0.046183
-0.004178
0.076040
-0.010015
0.147629
0.099676
-0.074075
-0.211956
-0.064142
0.117813
0.063772
0.003573
0.038931
0.074331
0.043841
0.050976
-0.018463
-0.084850
0.073096
0.081485
0.084394
-0.027614
-0.295669
-0.305779
-0.213118
-0.037152
0.055432
-0.002844
-0.098884
0.015866
0.087568
0.126500
-0.060713
-0.074972
0.003637
-0.042475
-0.162377
-0.119372
-0.113093
-0.289694
-0.283280
-0.162695
0.038641
0.115280
0.023734
0.001354
-0.054764
0.053736
0.060852
0.050321
0.131086
-0.013765
0.050420
0.212493
0.014376
-0.158795
-0.010020
0.116663
0.039097
0.020333
-0.002034
0.015035
0.025471
0.018229
-0.019797
0.000781
0.106430
-0.043181
-0.009049
-0.046105
-0.070256
-0.002645
0.074093
-0.040808
0.041513
-0.070894
0.100423
0.043026
0.033712
0.012662
0.070059
0.013830
-0.094234
-0.018867
0.055025
0.036134
0.024983
0.021158
0.018899
-0.104737
0.113716
-0.019958
0.105761
0.107465
0.014880
0.019194
0.028766
0.076216
-0.009398
0.029630
-0.047824
0.028903
0.012452
-0.012512
-0.131604
0.033996
-0.133525
0.038044
0.225611
0.144774
-0.059656
0.066315
0.063152
0.078561
0.038331
-0.034967
0.152710
-0.048239
0.082421
0.091429
0.046058
-0.026691
0.114590
0.093164
0.029022
0.090133
-0.047191
-0.097375
-0.058756
-0.052707
-0.129625
-0.071329
0.037293
0.000572
0.080777
0.044706
0.013292
-0.139685
0.043694
-0.020920
-0.007697
-0.099987
0.007671
-0.058910
-0.131983
-0.054461
-0.063429
-0.044021
0.030776
0.124113
0.034133
-0.004167
-0.058678
0.182027
0.040328
-0.011255
0.138032
0.149093
-0.129094
-0.008383
0.030568
-0.069753
-0.091134
0.016575
-0.095904
0.074439
-0.006434
-0.086515
-0.157170
-0.106687
-0.054492
0.008737
0.017273
-0.022361
-0.006549
-0.000509
0.048814
0.010521
0.082171
0.020884
-0.014507
0.019064
-0.089478
-0.083952
-0.054654
0.055845
0.111848
0.103666
-0.037001
-0.038968
0.087456
0.002081
-0.014971
-0.022082
0.041406
0.099867
-0.030925
0.061217
0.165816
0.041131
-0.040657
-0.027231
0.040567
0.063640
-0.020468
0.002737
-0.010010
0.001695
0.091635
0.078330
-0.079543
-0.101125
0.012667
0.067862
0.070608
0.107544
0.091239
-0.056276
0.012917
0.089594
0.133069
0.123801
-0.004426
0.105411
0.029792
0.072496
0.011099
-0.008616
0.084176
0.010443
-0.002977
-0.058636
0.000134
0.083886
0.075649
0.027378
-0.005629
-0.002594
0.057316
-0.020463
0.014377
-0.104383
0.027393
-0.008512
0.043369
0.068934
-0.065111
-0.112594
0.090033
-0.031806
0.106661
0.084824
0.001134
-0.089876
-0.007645
0.062426
0.001753
0.029601
0.012807
-0.031581
0.003961
-0.091396
0.007223
-0.000030
-0.012620
0.006816
-0.002628
0.024243
0.041900
0.015590
-0.023537
0.017321
0.069356
-0.073531
0.045915
0.105013
-0.010216
0.031888
-0.005839
-0.136316
-0.169250
-0.128783
-0.020300
0.086684
-0.028407
-0.001764
0.084737
0.002806
0.030895
-0.098555
0.014374
-0.001648
-0.174003
-0.181323
0.006337
-0.113933
-0.170886
-0.224761
0.025356
0.105220
0.038296
0.053797
-0.072475
-0.064331
0.000983
-0.010558
-0.004622
-0.008101
0.026872
-0.145897
0.118173
0.017613
-0.111195
0.011927
-0.019884
0.111937
0.063139
-0.028436
-0.086973
0.015908
-0.110356
-0.018734
0.050100
0.024272
-0.023348
0.010204
-0.018007
-0.038595
0.128247
0.078030
0.024172
0.020013
0.003364
0.012167
0.050186
0.051006
-0.056676
-0.030852
0.017969
-0.041210
0.003562
0.059596
0.011013
-0.072092
0.043882
0.065473
0.029756
0.040316
-0.036174
0.065940
-0.074010
0.126820
0.006253
-0.031243
-0.072476
-0.061399
-0.023559
0.002847
-0.038943
-0.040828
0.105347
0.039234
0.036120
-0.027864
-0.070975
-0.083994
0.110238
-0.029502
-0.061621
-0.052316
0.041531
0.127271
0.028299
0.121155
-0.087660
0.008213
0.062309
0.048958
-0.162295
-0.060218
-0.069550
0.006990
-0.047416
-0.026204
0.180182
0.036679
0.199514
0.039975
0.003678
0.085247
0.223569
0.024668
0.072506
0.034211
-0.097750
0.029348
-0.026494
0.090495
0.002576
-0.109842
0.030910
0.077445
0.031936
-0.043978
-0.023677
0.011063
0.007284
-0.088892
-0.018233
-0.051334
-0.081261
-0.118599
-0.193551
-0.075275
0.144650
-0.047500
-0.033856
-0.083453
0.079135
0.025206
0.019367
0.115361
-0.081601
0.082487
0.126879
0.070564
0.022589
-0.042709
0.042309
0.044648
-0.020621
0.118851
0.099366
-0.117850
-0.093067
0.006990
0.061080
-0.058192
-0.026791
0.087513
0.067531
-0.039552
0.075296
0.076955
0.129622
0.094265
-0.019760
-0.057214
-0.013113
0.039041
0.082326
0.018147
0.056620
-0.007801
-0.056815
-0.031627
0.084115
-0.025043
-0.128380
-0.018630
0.031969
0.061462
-0.248104
0.001685
0.002586
0.040938
-0.150217
0.046415
0.118227
-0.033882
0.129246
0.157739
-0.065328
0.033111
0.098576
-0.015423
-0.070181
-0.096775
0.059353
0.099005
-0.004406
-0.012508
-0.017350
0.087628
0.097739
0.005665
0.027291
-0.011070
0.029302
-0.021508
0.115590
0.041925
-0.093700
-0.081586
0.007616
0.024011
-0.047655
0.027745
-0.043929
0.085028
0.052024
-0.006308
0.097728
0.030203
-0.026043
0.041055
-0.015763
-0.076588
-0.054386
0.179552
0.174392
-0.001340
-0.027179
0.107000
0.069544
0.027196
0.196733
0.148130
-0.097058
-0.065529
0.032483
-0.009328
-0.018077
-0.034732
0.049960
0.010855
0.138418
0.183268
0.126519
0.034683
0.187565
0.045163
-0.048596
0.068877
0.108426
-0.068066
0.084822
0.028290
-0.048605
0.003529
-0.046472
-0.040544
0.197901
0.059580
-0.033364
0.042149
0.208940
0.047056
-0.081885
0.008531
0.139945
0.027712
-0.007256
0.060729
-0.010550
0.083322
0.025610
0.053269
0.131043
0.074405
0.139988
0.101915
0.127270
-0.079689
0.050672
0.081008
-0.043133
0.028142
0.133627
0.023431
-0.067446
-0.126408
-0.029626
0.045352
-0.122764
0.005738
0.029376
0.125740
-0.137897
0.080698
-0.021048
-0.029551
-0.038332
0.065959
-0.080861
-0.016189
0.028220
-0.067673
0.055782
-0.063138
-0.033811
0.061194
0.118256
-0.048614
-0.025054
0.041969
0.018556
-0.108390
0.053630
0.131340
-0.034656
-0.023264
-0.092010
0.029035
-0.010268
0.058140
0.082634
0.078841
-0.031775
0.011620
0.105214
0.031600
0.034184
0.021334
-0.030300
0.032566
0.081693
0.025109
0.116033
0.066623
0.029260
-0.004398
0.030609
0.052069
-0.106771
-0.134100
0.044479
0.066853
0.027437
-0.112380
-0.073972
0.053287
0.129600
0.076067
-0.048383
-0.076110
-0.063217
-0.042513
0.148916
-0.094826
-0.047439
-0.031867
0.139573
-0.076246
-0.125753
0.076729
-0.118135
0.023158
0.044364
0.131834
-0.042655
-0.007956
-0.075622
-0.043693
0.031120
-0.060926
0.031031
0.104586
0.092731
-0.004547
-0.062133
0.136964
0.045935
0.032541
-0.026365
-0.120101
-0.051820
0.030461
0.030237
0.009561
0.182936
-0.057408
0.066449
-0.046185
-0.054785
-0.175715
0.030473
0.025651
-0.004732
-0.050585
0.046442
0.276204
-0.092926
0.023353
0.081523
0.046451
-0.041940
0.103049
0.024411
0.057716
0.021006
-0.038693
0.038442
-0.032377
0.105316
-0.063027
0.048014
0.065648
-0.079360
-0.124626
-0.132007
-0.095196
0.009682
-0.098911
-0.006474
-0.042227
-0.011131
-0.048827
0.000146
0.134526
-0.012500
0.117184
0.033895
-0.007518
-0.040211
-0.083283
-0.079731
0.024085
-0.027414
-0.069459
0.067841
0.098624
0.184223
0.106139
0.011521
-0.098573
0.107037
-0.020450
-0.090812
0.007973
0.018991
0.045205
0.028533
-0.121051
0.049574
0.100013
-0.009509
-0.170372
-0.017139
0.051598
-0.020956
0.052896
-0.039984
-0.017007
0.119127
0.237164
-0.027935
0.024449
-0.044895
-0.161052
-0.073899
0.075544
-0.077210
0.046401
0.003629
0.083573
0.038936
0.122258
0.078472
0.043842
0.040745
0.193083
0.040460
0.048666
-0.223150
-0.127269
0.108636
0.018408
-0.050571
0.001321
-0.030347
0.040587
-0.081083
-0.081743
0.009510
0.084573
0.017679
-0.013838
-0.006238
-0.119204
-0.119964
-0.011407
-0.044110
0.048072
-0.007981
0.049466
-0.019241
-0.108685
-0.000271
0.137760
0.122128
0.084512
0.027213
0.194658
0.036002
0.051177
0.056527
0.051285
-0.019296
0.064988
-0.064194
0.004888
0.043019
-0.026104
0.066817
0.109722
-0.002455
0.123626
-0.040438
0.172960
0.068501
-0.023291
-0.126579
-0.274340
0.095263
-0.079554
-0.114550
-0.110342
0.003737
0.029672
0.063250
0.078257
-0.061867
-0.037201
0.062943
0.132712
0.043473
-0.016414
-0.092904
-0.043710
-0.037019
0.054726
0.049002
0.191323
-0.055638
0.139468
0.095219
0.044621
-0.038800
-0.025205
0.021315
0.042375
-0.007484
-0.035864
-0.040199
-0.035496
-0.059504
0.002136
0.072022
0.060564
0.084694
0.044029
-0.030181
-0.093846
0.096050
0.063505
-0.031282
0.113524
0.005774
0.020870
0.046239
0.054558
0.009221
0.026481
-0.011603
0.092723
0.034190
0.043935
0.004558
-0.117977
0.154373
0.120403
0.029912
-0.038868
-0.243570
0.029333
0.184168
0.308889
-0.136512
-0.002327
0.068793
0.080550
0.001752
-0.013268
0.083449
-0.056015
-0.049561
-0.001005
-0.087237
-0.174209
0.073880
0.042926
0.026934
0.027731
0.073625
0.032781
-0.016496
-0.112180
-0.213681
0.002935
0.013792
-0.125214
-0.144589
-0.018766
-0.025325
0.033903
0.056202
0.019338
-0.052911
-0.283672
0.024147
-0.113601
-0.193770
-0.120250
0.037026
-0.178416
-0.060231
0.191802
0.098997
-0.102729
0.031133
0.050619
0.053068
-0.052401
-0.024356
0.180485
-0.258821
-0.027972
-0.060359
-0.086307
-0.041475
0.103349
0.012238
-0.205889
0.084445
0.055002
-0.003728
-0.007797
-0.132361
-0.212316
-0.028892
0.068227
-0.133283
-0.087054
0.024155
0.104548
0.149432
0.010209
-0.049424
-0.040429
0.078700
0.059102
-0.029158
-0.101863
-0.061084
0.003195
0.003908
-0.141581
-0.051933
0.036163
-0.001977
-0.175683
0.003649
0.042125
0.073116
0.097351
0.068780
0.068298
-0.107071
0.027514
0.013902
0.008778
-0.023115
-0.018913
0.149135
0.008950
0.006710
0.006782
0.024853
-0.077122
-0.033676
0.048684
0.052153
-0.121806
-0.034459
-0.032163
-0.111057
0.017620
0.142409
0.297827
0.020542
0.116156
-0.076211
0.093365
0.070062
-0.093940
-0.094836
0.068223
0.116163
0.015272
-0.120049
-0.069840
0.018960
0.092524
0.011714
0.127309
0.068643
0.095763
-0.063125
0.022620
0.099558
0.045209
-0.098118
-0.041131
0.086278
0.005029
-0.036629
0.045038
-0.093874
0.045288
0.079839
-0.152785
-0.174471
0.074132
0.010782
-0.118626
-0.212675
0.009567
-0.061989
0.079080
-0.090460
0.093135
-0.011948
0.034994
-0.008716
0.001505
-0.070521
0.076340
-0.164632
0.041251
0.058973
-0.012564
-0.018920
0.105599
-0.062599
-0.201579
-0.063276
0.137769
0.066194
-0.054197
-0.030071
0.032794
0.027771
0.154609
-0.032293
0.082830
0.044584
-0.122989
-0.113020
0.078460
0.023489
-0.245384
0.009715
0.047399
0.040549
-0.163179
-0.106602
0.127294
0.160930
-0.055437
-0.110981
0.015225
-0.038321
-0.117291
-0.122602
0.000361
-0.062633
-0.100980
-0.023587
0.049181
-0.007623
0.059316
-0.056855
0.041854
0.103437
-0.115935
-0.038850
-0.096455
-0.102664
0.033106
-0.021402
-0.019299
-0.076680
0.147172
0.007551
-0.000185
0.019016
-0.004654
-0.009135
-0.015543
0.020973
-0.152401
-0.038768
-0.046643
-0.016517
0.104410
0.024764
-0.012950
0.049468
0.123638
-0.020090
0.028090
-0.044708
0.069560
0.036568
0.018592
0.035875
0.055476
-0.128932
0.033876
0.011154
0.048138
-0.179353
-0.071965
0.015198
0.013151
0.000560
-0.079315
-0.047639
-0.115592
0.010039
0.045930
-0.042617
-0.035245
0.065593
0.043890
0.112804
0.078472
0.000336
-0.039477
0.011879
0.092400
-0.026985
-0.023202
0.066881
-0.004005
0.056557
0.018503
0.110265
-0.013957
-0.179396
-0.061209
0.062126
-0.094911
-0.011571
-0.088409
-0.122099
0.035949
0.206367
-0.011311
0.094793
0.062558
-0.093893
-0.056584
-0.036758
0.094312
-0.136587
-0.004657
0.001784
-0.037293
-0.113609
0.008518
-0.113481
-0.003409
-0.044638
-0.012572
0.077084
-0.034787
0.050732
-0.101108
-0.074379
0.012430
-0.122456
-0.208681
-0.036608
-0.047211
0.243006
0.039758
0.032677
0.112347
0.244190
0.039713
0.075129
0.015383
-0.006668
0.043252
0.039612
0.047140
-0.099583
-0.081951
0.061284
-0.038503
-0.108360
-0.062964
0.063306
-0.030525
-0.171074
-0.166973
-0.005907
0.072902
0.081363
0.060101
0.124026
0.044900
0.045592
-0.072938
-0.029693
0.127578
0.038577
-0.064903
0.059415
-0.002094
0.190079
0.012492
-0.017129
-0.089382
-0.056715
-0.094461
0.078356
0.050733
-0.111397
0.008548
0.074111
0.010204
-0.227254
-0.017728
-0.042887
-0.048907
-0.112462
-0.032217
0.056011
0.080225
0.052733
0.069734
0.111653
-0.054589
0.086489
0.044301
0.068773
-0.051620
0.071617
0.067535
0.106480
0.019899
-0.090111
-0.020075
-0.045592
-0.141686
-0.032800
0.144939
-0.049773
-0.033881
0.076699
-0.000983
0.021333
-0.110718
0.012433
0.014551
0.016503
-0.134073
-0.009605
-0.107099
-0.083373
-0.122022
0.032836
0.017385
0.012544
0.036397
0.064945
0.051203
0.052879
0.133264
0.035597
0.060741
0.112461
0.048524
-0.141467
-0.022049
-0.053063
-0.096594
0.106845
0.103703
0.017362
0.093606
-0.001022
-0.032447
0.011932
0.080485
0.012070
0.017280
-0.066159
0.048349
0.127915
-0.095346
-0.014594
-0.075966
-0.031007
0.011186
-0.090096
-0.045504
-0.058551
-0.065382
0.028762
0.017851
0.102385
-0.061430
0.053052
0.116474
0.199802
0.048533
0.055144
-0.055184
0.145658
0.120913
0.040803
0.072610
0.141712
-0.008242
0.064695
0.062456
0.143343
0.104788
-0.038262
-0.018641
0.097936
0.070014
-0.025621
-0.110765
-0.036207
0.019422
-0.057440
0.046639
-0.129553
-0.008157
0.043250
-0.001703
-0.164204
-0.088130
-0.012990
-0.133735
-0.061735
0.069273
0.041203
0.057950
-0.026506
-0.032986
0.049552
0.085073
-0.070787
0.094124
0.082041
-0.030989
-0.152320
-0.002891
-0.049925
-0.064185
-0.048444
0.030692
-0.016242
0.056146
0.000969
0.016749
0.009139
-0.034128
-0.107531
-0.043095
0.078907
-0.027892
-0.010514
0.031118
-0.104088
0.011144
-0.023634
-0.054635
-0.193514
0.074208
-0.072653
0.033938
0.025285
0.025954
-0.118928
-0.082745
-0.099632
-0.044524
-0.039847
-0.015388
0.027497
-0.160789
0.097475
0.162134
0.232009
0.111483
0.062071
0.022482
-0.018247
-0.030285
0.032580
-0.033980
-0.031071
0.029554
-0.148578
-0.093805
-0.019514
-0.002018
-0.203629
-0.167700
-0.214976
-0.182864
0.054017
0.102102
-0.012705
-0.154018
0.125602
0.081388
0.035890
-0.030469
0.020613
-0.054622
0.000670
-0.025801
-0.007273
-0.114833
-0.133783
0.066554
-0.108912
-0.049800
-0.069698
0.068030
0.143788
-0.029032
0.074614
0.153969
-0.237221
0.025213
-0.147569
-0.114096
0.003529
-0.177178
-0.173568
-0.052836
0.084825
-0.076894
-0.058530
0.068432
-0.061102
-0.041659
0.084011
0.098614
0.085694
-0.040630
-0.058492
0.021659
-0.088518
-0.089177
-0.105349
0.037745
0.024820
-0.026219
-0.009889
-0.019543
0.026994
-0.006827
-0.026695
0.000405
-0.008736
0.098185
-0.100946
0.058780
0.207743
0.014646
-0.053666
-0.015624
-0.169136
-0.084218
0.046214
-0.002395
-0.084228
-0.128310
-0.003284
0.033497
0.123322
0.011508
0.057965
0.106125
-0.170321
0.055274
0.032248
-0.162300
-0.107007
-0.085367
0.030392
-0.055631
0.022344
0.036972
0.016810
-0.104963
-0.040084
0.083856
0.058653
0.088341
-0.049476
0.055050
0.126503
0.200751
-0.065185
-0.088058
0.014267
-0.065265
0.063703
-0.065083
-0.031038
-0.049193
0.039542
0.083307
0.098491
0.035261
-0.092428
-0.073062
-0.020511
0.008866
-0.044399
-0.076231
-0.059215
0.090220
-0.119161
-0.053596
-0.060214
-0.208677
0.078355
0.101384
0.078010
0.012863
0.076902
0.130095
0.085810
0.006574
-0.058963
0.045436
-0.091997
-0.045531
-0.028030
0.047595
0.127654
0.111454
0.040495
-0.033318
0.004636
0.003926
-0.071308
-0.273924
-0.350787
-0.079005
0.060047
-0.041876
-0.118694
-0.010325
0.041241
0.160204
0.100204
-0.051051
0.091058
0.083776
-0.153584
-0.095013
0.007353
-0.089334
-0.260498
0.016355
-0.046831
0.045439
0.035977
0.092533
-0.030650
0.045120
-0.045468
-0.056765
-0.127900
0.051983
-0.105486
0.020349
0.061805
-0.006173
-0.112453
-0.045955
-0.075099
-0.086771
0.028531
-0.026412
0.033953
0.018605
-0.027562
-0.031608
0.059668
0.058136
-0.054671
0.007975
-0.002444
-0.023150
0.054152
-0.079740
-0.160123
-0.044258
-0.007456
-0.066866
0.029182
0.009915
0.061899
-0.013054
0.062994
0.078913
0.026435
0.060961
0.008095
-0.011540
-0.030407
-0.160158
-0.051581
-0.036320
-0.045349
-0.016322
0.022995
0.015287
0.032023
-0.037648
0.011743
-0.104771
0.088300
-0.024308
0.084034
0.104829
0.033212
-0.040311
0.073098
-0.010343
0.049077
-0.070446
0.112266
0.030062
-0.093813
-0.055640
0.021307
0.006983
0.021449
0.094609
-0.049855
-0.039729
0.103577
0.062576
-0.039842
-0.021211
0.018654
-0.058986
-0.021645
-0.073933
-0.109499
-0.057140
0.015308
-0.054289
-0.186590
0.090433
0.124028
0.131563
-0.020116
0.026117
-0.078052
-0.120225
-0.056877
0.012775
-0.055043
-0.042619
0.157900
0.115434
0.010034
-0.017029
-0.155666
-0.122349
-0.023826
0.096968
0.073514
-0.143802
0.003871
-0.019651
-0.052191
-0.067462
0.075552
-0.021141
-0.058145
-0.055556
0.163727
-0.050602
0.027706
0.156405
0.251963
0.042347
-0.020419
0.061467
-0.035961
0.034576
0.075727
0.041008
-0.087500
-0.041414
0.037437
0.056168
0.003168
-0.135895
0.122272
0.063752
-0.000316
-0.123659
-0.079023
0.083675
0.046213
0.066661
-0.007189
0.070572
-0.075058
-0.119054
-0.032629
0.055925
0.072269
0.004354
0.038386
0.007721
0.097269
0.059097
-0.045337
-0.240341
-0.155555
-0.132208
0.021674
0.080344
-0.123682
-0.062733
0.055023
0.053692
0.017566
-0.108946
-0.030195
-0.009094
-0.049859
-0.123117
0.040627
0.165912
0.046705
0.045153
0.050071
-0.067394
-0.000971
0.006976
-0.095372
-0.079699
0.054568
0.120367
0.095058
0.056298
-0.074583
-0.051492
0.019046
-0.149939
-0.010625
0.061342
-0.041110
-0.158831
0.046279
0.112372
0.054653
0.111293
0.003255
0.074498
-0.004427
-0.028632
0.066027
-0.103473
-0.069382
0.035637
-0.083515
-0.129592
-0.165809
-0.056488
0.083860
-0.040598
-0.082635
0.125612
0.004979
0.057546
-0.124173
-0.111448
-0.042329
0.000047
-0.064385
-0.135131
0.088187
-0.044767
-0.093546
-0.060019
-0.097442
0.009873
-0.006711
0.055788
0.057953
-0.066547
0.065582
0.071956
0.192561
0.073601
-0.056114
-0.030839
-0.028878
-0.013293
-0.067260
-0.038960
-0.152492
-0.041395
-0.027397
0.136545
0.088755
-0.046830
0.290269
0.193328
0.165651
0.118246
-0.086070
-0.114629
0.093110
0.092648
-0.107521
-0.116853
0.163318
-0.030650
-0.040259
0.035818
0.127300
0.069324
0.057691
-0.041564
0.016060
0.081504
0.068743
-0.247083
-0.107546
-0.106720
-0.090181
0.021192
-0.077075
0.021981
0.169221
0.219225
-0.038168
0.067947
0.030269
-0.142891
-0.002101
0.026624
0.069275
0.118354
-0.101607
-0.055699
0.076007
0.065578
-0.042294
0.037268
0.013496
-0.015086
-0.037638
0.088480
0.004556
-0.043945
0.053165
0.059384
0.031155
0.155690
-0.147442
-0.077490
-0.019610
-0.026678
0.002638
-0.062117
-0.066321
-0.014356
-0.025877
0.072591
0.111895
0.038849
0.117209
0.175459
0.050661
-0.003955
0.053843
-0.004869
-0.048966
-0.032733
-0.009921
-0.064744
-0.052010
-0.034416
-0.077651
-0.044575
0.002449
0.225468
-0.044650
-0.056286
-0.089556
-0.121609
-0.069502
-0.049790
-0.044408
-0.092033
0.048593
0.160905
-0.010892
0.048005
0.018628
0.101547
0.065302
0.127798
0.081052
0.076694
0.064982
-0.038683
-0.070760
0.034599
-0.016598
0.206096
0.009717
0.123699
-0.045424
-0.017970
0.040576
-0.010243
-0.061774
-0.128964
-0.063149
0.141181
0.024821
-0.068887
-0.052531
0.022390
-0.177779
-0.259809
0.108007
0.056790
0.026133
0.169665
0.293676
0.082196
0.154415
0.208653
-0.075162
0.033664
0.021888
-0.010053
-0.054800
0.047069
-0.017992
-0.065594
0.082324
-0.008013
0.032529
-0.051656
-0.010313
0.007048
0.034844
0.030860
0.008594
0.006926
0.018485
-0.027071
0.203986
0.171601
0.098810
0.056830
-0.040001
-0.026410
0.057262
0.123032
0.114444
0.038709
0.018959
-0.170696
-0.025884
-0.062889
-0.021628
-0.181596
-0.118172
-0.070923
0.008748
-0.054165
-0.055499
-0.079105
-0.026766
-0.025365
-0.266955
-0.168831
-0.117892
-0.016527
-0.204470
0.105423
0.069712
0.158108
-0.046597
-0.007555
-0.080073
-0.158018
0.050747
-0.019253
-0.070490
0.001583
0.043013
-0.067391
-0.068844
0.138555
0.070201
0.017620
-0.112846
-0.029112
0.055987
-0.033602
-0.035969
-0.057237
0.052670
-0.044563
0.089628
0.031037
0.006719
-0.052370
-0.091133
-0.063130
0.118791
0.013674
-0.006711
0.037890
-0.136913
-0.024847
0.111415
0.156562
-0.024250
-0.005129
0.159711
0.143906
0.001731
-0.003289
-0.030128
-0.099667
-0.019379
-0.029248
0.050208
0.029219
-0.042063
-0.059634
-0.103951
-0.098562
0.021307
-0.090723
0.020129
0.115961
0.096412
0.039733
0.052574
0.010970
0.147565
0.022540
0.075260
-0.141141
-0.096374
0.017447
-0.125463
-0.165112
0.022634
-0.106128
0.012995
0.141804
0.064812
0.054679
0.159943
0.120417
-0.026662
0.010056
-0.141284
-0.133333
0.193002
-0.029068
0.005226
0.111126
-0.012927
0.088373
0.110324
0.209856
0.168496
0.125835
0.056815
-0.062694
0.022169
-0.039088
0.004937
-0.090646
-0.137584
-0.094710
-0.025047
0.114602
-0.084900
0.014729
0.046582
-0.189078
0.009757
-0.078777
-0.125338
-0.137527
-0.095634
0.026648
0.096637
-0.000259
-0.114462
0.010541
0.021785
0.033424
0.011787
0.016381
-0.084259
-0.208093
-0.024294
0.019419
0.001800
-0.033128
0.001640
0.112389
0.124008
0.049322
-0.023421
-0.077388
-0.065800
0.030533
0.034207
-0.064437
-0.002970
-0.005034
0.037751
0.002926
-0.054890
-0.055965
-0.006085
0.027341
-0.028500
-0.058071
-0.058321
-0.018701
0.000237
-0.034648
-0.028417
0.029692
-0.045157
-0.036260
-0.000371
0.032867
-0.051038
-0.029948
-0.042510
-0.051740
-0.071467
-0.023019
-0.043112
-0.014183
-0.094133
-0.043712
-0.046734
-0.000381
0.022964
-0.022833
-0.045347
-0.074610
0.010792
-0.056769
-0.033403
0.046713
-0.050993
-0.040406
-0.068230
0.039006
-0.027717
-0.049177
-0.010953
-0.015232
-0.037095
-0.044967
-0.046779
-0.071085
-0.027260
0.022731
-0.049309
-0.056960
0.049591
-0.051210
-0.013979
0.016237
-0.031216
-0.043276
-0.008223
0.031962
-0.026376
0.003152
-0.010095
-0.027720
-0.034582
-0.070985
0.043223
-0.004854
-0.073816
-0.031100
-0.072049
-0.065601
-0.020933
0.034410
0.042139
-0.015604
-0.012932
-0.069271
0.053479
-0.045037
-0.010983
0.024868
0.023277
0.049317
-0.016951
0.055402
-0.043372
0.014545
0.008922
0.072355
-0.041242
0.036201
-0.021796
0.008238
0.005182
0.022927
0.048268
0.041918
-0.074136
0.025735
-0.042535
-0.027995
-0.012396
-0.048924
-0.007368
-0.054107
-0.056859
-0.069876
-0.001464
0.001220
0.028574
-0.053768
-0.041262
-0.074268
-0.059340
-0.080515
0.010776
0.001889
-0.043522
-0.082379
-0.073413
-0.051961
-0.069804
0.022249
0.005877
-0.062511
-0.070654
-0.064783
-0.059035
-0.023818
-0.052870
0.006092
0.031488
0.049255
-0.011123
-0.046787
-0.029630
-0.059255
-0.010824
0.009072
0.008681
-0.019218
-0.015890
-0.083808
-0.034130
0.031560
-0.027027
-0.052601
0.049113
-0.005910
0.009057
-0.067278
-0.000069
-0.013664
-0.040900
-0.009157
-0.033313
-0.049311
-0.054776
0.064278
-0.034896
-0.030188
0.029994
-0.056464
-0.078846
-0.059070
-0.049427
-0.051338
-0.001387
-0.056637
-0.043517
-0.062419
0.021795
-0.017360
-0.019861
0.008957
0.021466
-0.009422
0.022829
-0.017992
0.037093
0.032260
-0.003393
-0.003367
-0.087814
-0.047153
-0.038196
0.002003
-0.070189
-0.012316
0.030256
-0.032199
-0.024050
-0.066928
0.006809
-0.059558
-0.028295
-0.004485
0.007378
-0.003782
0.036548
-0.016849
-0.058613
0.015843
-0.060985
0.027463
-0.001620
0.068644
0.028019
-0.052875
0.043055
0.008234
0.016034
-0.056379
0.023936
0.037849
0.039349
0.024108
-0.046661
-0.022566
0.021066
0.036749
-0.041932
-0.080363
0.015780
-0.002450
-0.022301
-0.013335
-0.003627
-0.024999
-0.025338
-0.078134
-0.020589
-0.009163
-0.046230
-0.013442
-0.022623
-0.054436
-0.049972
-0.008081
-0.010019
0.048417
-0.051886
-0.053587
-0.080208
0.035199
-0.024678
-0.056449
-0.039855
0.006324
0.049338
-0.028817
0.021528
0.056637
0.058023
0.013061
-0.062718
-0.052944
0.131409
0.068167
-0.009111
0.015243
-0.122071
0.102906
0.171219
0.240014
-0.067151
-0.008014
0.016540
0.019112
0.024834
-0.023314
0.021611
-0.071082
-0.119197
-0.034730
-0.053609
-0.013080
0.096300
0.021259
0.017633
0.004777
0.165173
0.085288
0.034920
-0.105999
0.126387
0.002869
-0.079908
0.011110
-0.073097
-0.024568
-0.051035
0.126408
-0.023763
-0.038786
-0.145744
-0.225221
-0.066798
-0.077244
-0.104037
0.019850
0.026037
-0.009411
-0.000548
0.213065
0.130569
-0.090304
0.054114
0.061049
0.119679
0.065765
-0.007492
0.090376
0.146508
-0.083579
0.032321
-0.136032
-0.016505
0.008090
0.017808
-0.099168
-0.035746
-0.060617
-0.044825
0.069358
-0.124056
-0.108604
-0.027419
0.113958
-0.189059
-0.097603
0.012504
-0.060670
0.001247
-0.025697
0.052074
-0.081573
0.173641
0.009138
-0.097706
-0.098082
0.017205
0.000633
0.043559
-0.007688
0.052649
-0.054534
0.027597
-0.140687
-0.063110
-0.058324
0.069796
0.115971
-0.065360
0.068663
0.040948
0.049795
-0.051479
-0.106265
-0.024277
-0.023974
-0.021980
-0.081213
0.075891
0.095370
0.049238
0.076483
0.037556
-0.033944
0.142225
0.010816
-0.062395
-0.091309
-0.104908
0.107169
0.103378
0.153318
-0.020970
0.098871
0.023324
0.008394
0.027384
-0.033005
-0.037807
0.039590
0.041709
-0.101975
-0.041788
0.066365
-0.008121
0.034106
0.025909
0.057792
-0.008007
0.020040
-0.115764
0.033790
-0.052944
0.031591
-0.001240
0.027929
0.154250
-0.028895
-0.001868
0.048290
0.039391
-0.083815
-0.145914
-0.151641
-0.088684
-0.082430
-0.013188
0.019105
-0.006357
0.065322
0.072101
0.031296
-0.053146
0.109183
0.075242
0.084655
0.013662
0.066158
-0.001175
0.037017
0.103717
-0.038447
0.036161
-0.083517
-0.046200
-0.021967
-0.017557
0.005335
0.064874
0.033675
0.079139
0.112908
0.040382
0.182122
0.007210
0.042473
0.131529
0.130449
-0.024820
-0.152985
-0.015519
0.019163
-0.034762
0.020909
0.014920
0.059933
0.066463
0.007214
0.082517
0.131109
0.082218
-0.121323
0.039693
-0.071568
0.011267
-0.067625
-0.071341
0.006257
-0.023288
0.023588
-0.125800
0.041813
0.033615
0.004150
0.025156
0.034599
-0.023484
-0.085933
-0.041410
0.003984
0.031415
0.124380
-0.027188
0.068203
0.109693
0.170750
-0.084590
-0.023813
-0.092757
-0.022937
0.042669
-0.038690
-0.012493
0.006131
-0.060194
-0.092950
0.035601
0.101800
-0.025002
0.045914
-0.016520
-0.021831
0.111282
0.077882
-0.069969
0.025294
0.135087
-0.023769
0.049510
0.037522
-0.033933
0.002319
-0.000497
0.049335
0.010268
-0.052957
0.045400
0.058118
0.003237
-0.060805
0.092044
-0.039895
-0.041934
-0.006271
0.023958
0.030563
-0.021988
0.076088
0.106597
0.088562
0.042804
-0.072010
-0.053965
-0.075381
-0.003497
-0.061052
-0.047387
-0.163648
0.084593
0.024206
0.065045
0.003971
-0.080641
-0.049185
0.001525
-0.113544
-0.019359
-0.020942
-0.073642
-0.107720
0.053023
-0.043524
-0.078593
-0.077293
0.078905
0.122088
0.082527
-0.106254
0.076256
0.028000
0.021529
-0.133305
-0.055328
0.050312
0.110208
0.027416
-0.006574
0.064444
-0.003529
-0.031352
0.055453
-0.085833
-0.074134
0.117174
-0.242840
-0.127284
-0.037313
-0.044091
-0.078942
-0.144733
0.015697
0.063232
-0.005631
-0.010647
-0.047480
0.151243
-0.082322
-0.014215
0.024139
0.033390
-0.033138
-0.107531
-0.015814
0.054269
0.009665
-0.044509
0.142759
0.043552
-0.089569
0.044856
0.095586
0.074906
-0.029523
0.053777
0.117426
-0.034392
0.030620
0.006940
0.017501
-0.081176
-0.210599
-0.120687
-0.083683
-0.085865
-0.063874
0.037576
-0.047158
-0.080016
0.079480
0.024063
0.027077
0.081136
-0.051830
0.101022
0.134737
0.024180
-0.085794
0.057176
0.090692
0.075013
0.093145
0.048447
-0.014179
0.003367
-0.101758
0.099672
0.144386
-0.027857
-0.020809
0.043559
0.047262
-0.059213
-0.022493
0.048320
-0.018555
-0.053636
-0.034122
-0.009373
-0.026180
-0.113195
-0.059263
0.040608
0.019742
-0.053098
-0.022740
0.070158
-0.035020
-0.028582
0.033051
0.092749
0.032323
0.031597
-0.036825
0.070388
-0.043516
-0.108408
0.042139
0.027330
0.077813
0.057391
-0.032776
-0.046243
-0.064156
-0.040419
-0.091800
-0.005097
0.032664
-0.073663
-0.125971
-0.041108
-0.132853
-0.119387
0.068987
0.083091
0.069614
0.080853
0.013139
-0.126171
-0.065542
-0.098585
-0.077587
-0.040701
-0.143444
0.000469
-0.065896
-0.108263
0.037219
-0.034437
0.043415
-0.048897
0.020494
0.080498
0.067229
-0.070100
-0.030342
-0.178906
-0.214676
-0.249285
-0.182597
0.045413
0.002042
-0.087885
-0.159008
-0.063287
-0.048562
0.187901
0.119276
0.007506
-0.011354
0.007146
0.014893
-0.018097
0.020347
-0.016043
-0.023509
-0.059154
-0.003327
-0.062524
-0.044213
-0.031248
0.006795
0.075698
0.102928
-0.031525
-0.141434
-0.011230
-0.071835
0.132025
-0.068995
-0.072774
0.048618
-0.086833
0.074206
0.084435
0.059101
-0.039506
0.047708
0.040788
-0.020087
0.025613
0.077641
0.075217
0.119860
0.024047
-0.013540
-0.024465
0.073267
0.000110
0.011394
0.070893
0.080046
0.073616
-0.040699
-0.039949
-0.004648
0.056346
0.020711
-0.063962
-0.030816
0.024742
0.033680
0.027658
0.025221
0.044910
0.106223
0.103213
0.028754
-0.071778
-0.008171
0.078123
-0.034921
-0.010167
-0.060752
0.015863
-0.050667
-0.053981
-0.188273
-0.074247
0.046100
-0.025407
-0.071767
-0.073967
-0.020386
-0.008687
-0.025768
0.012392
-0.035439
-0.035838
0.042011
0.119704
0.066856
0.164924
0.003360
0.020633
-0.084332
0.100524
0.006383
0.025343
0.046407
0.010596
-0.041481
0.021456
-0.045347
0.120135
0.007834
0.121670
0.146638
0.192850
-0.063278
-0.030907
-0.048591
-0.005842
-0.109354
0.002349
-0.069289
-0.091244
-0.066053
0.015187
0.010576
0.026546
0.014356
-0.124580
0.068686
0.177815
0.201113
0.039413
-0.077779
-0.059595
0.124193
0.064145
0.111716
-0.076060
-0.159895
-0.089567
-0.028180
0.004133
-0.073461
-0.067570
-0.044090
0.038605
0.110314
0.034968
0.034984
-0.049060
0.109890
0.069926
0.114342
-0.085201
0.130659
0.079119
0.098929
0.062135
-0.030587
0.025309
0.087485
0.026469
0.020752
0.021152
0.042774
-0.088731
-0.121397
-0.111011
-0.011015
-0.065425
-0.052189
-0.032794
0.055486
-0.060061
0.084662
-0.094318
-0.004479
0.010012
-0.047535
-0.109716
0.007150
0.024572
-0.168654
-0.088026
0.035268
0.039686
0.044787
0.053615
-0.020792
-0.024273
-0.114177
-0.047665
-0.032013
-0.119224
-0.020271
-0.034656
-0.010982
0.031902
-0.007127
0.000424
-0.025186
0.033417
-0.077499
0.022979
-0.010647
-0.084683
-0.072569
-0.066086
0.032993
0.061972
0.072736
0.049213
-0.041580
-0.039504
-0.019751
0.034345
0.048464
-0.041458
-0.042837
-0.040799
-0.029392
-0.025812
0.028135
-0.032997
-0.038246
-0.128545
-0.027203
-0.086529
-0.111955
0.038116
0.028292
0.039097
0.101095
0.101392
0.088030
0.017470
-0.009390
-0.070931
-0.144407
-0.062004
0.066543
0.123734
-0.081709
-0.056825
-0.039312
-0.016660
0.069918
0.085320
0.000472
-0.018305
0.007116
-0.078735
-0.072843
0.033828
-0.190396
-0.080142
-0.011724
0.114920
0.025444
-0.049421
0.079534
0.003648
0.015401
-0.020031
0.022229
-0.064335
0.183655
0.108629
0.064619
-0.070676
0.016293
0.152203
0.052979
-0.061377
-0.090107
0.038408
0.071263
-0.069680
0.019331
0.017986
0.006344
-0.075382
-0.027946
-0.045530
0.008855
0.022916
-0.069908
-0.048070
0.042249
0.046558
-0.182242
-0.120452
-0.050475
0.038322
-0.012121
0.077283
0.020673
0.098990
-0.107061
-0.005299
0.029317
0.008082
-0.063206
0.022841
-0.014165
-0.029552
-0.066688
0.024041
-0.027580
0.108619
-0.084067
0.059765
0.008141
0.013523
0.011733
-0.017229
-0.032395
-0.024221
-0.080415
-0.067677
-0.007807
-0.025910
-0.013750
0.000847
-0.002688
0.055792
-0.010173
-0.049685
-0.060164
0.092621
-0.081414
0.014545
0.054215
0.101916
-0.113010
-0.017406
0.134583
-0.008716
-0.039955
-0.062519
0.005527
-0.085783
-0.085805
0.057515
0.072567
0.019572
0.007630
0.065222
-0.047172
-0.073032
-0.040427
-0.043842
-0.078722
0.116338
0.004427
0.036983
0.030706
0.166280
0.167037
0.091490
0.020527
0.082786
0.042997
-0.012678
-0.054183
-0.191764
-0.073633
0.006925
0.091698
-0.054149
-0.035660
-0.006846
-0.073702
0.164067
-0.064721
0.174840
-0.009500
0.134498
-0.227640
-0.065501
0.098719
-0.033945
-0.077902
-0.064938
-0.008818
0.110194
0.153630
0.050643
-0.076938
0.047497
0.249855
0.013066
-0.019050
-0.024011
-0.097060
-0.051701
-0.047079
-0.057127
-0.078020
-0.063383
-0.035970
0.016724
-0.102567
-0.085434
-0.044812
0.026106
-0.152383
-0.064751
-0.056372
0.139438
0.101382
0.094470
0.060919
0.043609
0.146104
0.118247
0.026337
0.002168
0.097794
-0.003122
-0.051898
-0.041317
0.081124
-0.014510
-0.061140
-0.087165
0.002389
0.004079
-0.043655
-0.058172
-0.075625
-0.027022
-0.022135
-0.003205
-0.198949
-0.130975
-0.113318
-0.003826
-0.064988
-0.069841
-0.005323
-0.015354
-0.031705
0.043564
0.048934
0.028086
-0.035624
-0.021622
-0.091521
-0.110871
-0.068240
-0.085700
-0.013058
-0.010511
-0.025757
0.028883
-0.009389
0.259357
-0.000190
-0.072796
-0.052688
-0.054977
-0.013377
-0.112709
0.037079
-0.141732
0.023900
-0.053887
-0.008963
0.068685
-0.017451
-0.047210
0.075037
0.190776
-0.014597
0.095863
0.091011
0.027145
0.108492
0.035412
-0.014596
-0.020708
0.071132
-0.076898
-0.088097
-0.148625
0.152975
0.044487
0.038141
-0.088148
0.031219
-0.055394
0.039271
-0.016057
-0.124227
-0.001725
-0.010489
0.019331
0.082813
-0.066971
-0.046625
-0.059609
0.114904
0.043746
-0.045472
-0.066466
-0.061747
-0.054628
0.051374
0.031525
-0.009644
-0.037049
0.029252
0.049362
0.133224
-0.066592
0.084498
-0.017790
0.122667
0.098381
0.021437
0.055409
0.048554
0.163689
0.043604
0.081237
0.163413
0.176927
-0.007991
-0.096883
0.038573
0.069272
-0.026269
-0.139288
0.170839
0.140293
-0.133998
-0.083505
0.009602
0.113977
0.048542
-0.093254
-0.045752
-0.096596
-0.000742
-0.159815
0.037100
-0.081034
-0.031355
0.088543
0.009012
-0.085655
0.051507
0.111768
0.013819
0.030991
-0.037579
-0.076608
-0.012455
-0.017092
-0.043136
-0.080321
0.022840
0.011467
-0.027038
-0.031880
-0.051911
-0.025160
0.078602
-0.012932
-0.029049
-0.011814
-0.018953
0.007957
0.022663
0.032423
0.026539
-0.045053
-0.035258
-0.017226
-0.031267
0.027323
-0.032082
-0.067552
0.027279
0.005876
-0.045599
0.006753
0.007422
0.046841
0.017024
-0.043099
-0.050027
-0.052317
-0.018841
-0.002616
0.003684
0.053269
-0.062465
-0.065411
-0.055820
0.021618
-0.075072
-0.078611
-0.063117
-0.062365
-0.012350
-0.033234
0.027492
-0.013239
0.009228
-0.007782
-0.010042
-0.042898
-0.037488
-0.033697
0.014008
-0.003383
0.005586
-0.039241
-0.024544
-0.021261
-0.070060
0.012193
-0.049113
0.054506
0.038971
0.042184
-0.060401
-0.040707
-0.066365
-0.043400
-0.070722
-0.034974
0.017087
-0.025494
0.030560
-0.075667
-0.018675
-0.033124
-0.032777
0.045403
-0.061438
0.034443
-0.075051
-0.004646
0.001739
0.065877
-0.037709
-0.013842
0.025615
0.038297
0.039176
-0.037760
0.048140
-0.005978
-0.015420
0.007767
0.029527
-0.065413
0.002056
-0.016812
0.050235
-0.015020
-0.049567
-0.035682
0.039071
-0.037538
-0.039418
-0.004714
-0.012179
-0.004834
0.021351
-0.046298
-0.014476
-0.014654
-0.009745
0.037470
-0.019653
-0.023949
-0.026037
-0.040414
0.016891
0.041737
-0.073468
-0.070553
0.000943
-0.071279
0.033148
-0.022314
-0.020807
-0.040886
-0.060068
-0.062860
-0.016815
0.008991
0.013062
-0.052979
0.035552
-0.011110
-0.018624
-0.027715
0.006598
-0.021402
0.024159
-0.022692
0.027119
-0.012049
0.029374
0.059073
0.008313
-0.070875
-0.075237
0.047999
0.034148
-0.014542
-0.022682
0.039946
-0.012781
-0.063215
0.043324
0.062482
0.012260
0.030705
-0.021772
-0.011416
0.027125
0.036782
0.036896
-0.028333
0.007317
0.014114
-0.070782
0.025583
0.021947
-0.074493
-0.049740
-0.013704
0.036043
-0.041050
-0.066623
-0.000096
-0.006667
-0.051645
-0.056195
-0.007392
0.019874
0.010029
-0.038059
-0.004033
0.023611
-0.027862
-0.046463
-0.065160
0.052532
0.043202
-0.016576
-0.014142
0.054433
-0.068738
-0.034473
0.039855
0.013546
-0.021109
0.020548
-0.029595
0.012542
-0.076956
-0.005455
0.033160
0.025018
0.028347
0.020005
0.016795
0.003789
0.058708
0.049637
-0.020599
-0.049868
0.036776
-0.050431
-0.072254
-0.005875
-0.055080
-0.033110
-0.069072
0.024624
-0.055226
-0.054684
0.062878
-0.056290
0.006360
0.048038
-0.066117
-0.014065
0.033154
-0.020421
0.058128
-0.002309
-0.008388
0.047480
0.035384
0.041440
0.028906
-0.062572
0.046295
0.014606
0.005634
-0.060407
-0.005816
-0.024797
-0.065955
-0.050818
0.034836
0.010873
-0.002650
-0.061216
-0.043598
-0.064081
0.009392
-0.016671
0.030317
-0.051310
0.041023
-0.020587
0.002323
-0.045067
-0.002262
-0.077571
-0.088742
-0.012015
-0.053074
-0.053490
-0.034406
-0.020111
0.029435
-0.057848
0.004936
-0.015565
-0.059743
-0.033347
0.012601
0.006127
-0.023502
-0.074747
-0.035311
-0.042708
-0.025896
-0.017505
0.026115
-0.044383
-0.082542
0.003704
-0.020833
-0.077351
0.044196
0.047021
0.006312
0.026880
0.039370
-0.034783
-0.077490
-0.006178
0.050167
-0.061867
-0.021964
0.032690
-0.036712
-0.054616
0.017591
-0.027241
0.006103
-0.001241
0.027082
0.031624
-0.001834
-0.040753
-0.028301
-0.017952
0.011787
0.030095
0.006155
0.015746
-0.024163
-0.060603
-0.012059
-0.074378
-0.003921
-0.008535
0.023092
-0.016129
-0.053222
-0.014000
-0.030048
0.025199
0.007019
-0.025463
0.017692
-0.015717
-0.004180
-0.062591
-0.034694
0.010159
0.013592
-0.066808
-0.053815
-0.029035
-0.000006
-0.045879
-0.014754
-0.026760
-0.067365
-0.009406
-0.054298
-0.031993
0.022988
-0.001382
-0.032988
-0.042862
-0.048940
0.018398
-0.063426
-0.012883
-0.016056
0.000691
-0.014680
0.042550
-0.021449
-0.064579
-0.064673
-0.004582
-0.067234
-0.059459
-0.026218
-0.009740
-0.066804
-0.004841
-0.053268
0.010520
0.014702
0.002700
0.005591
-0.000974
-0.064488
0.003422
-0.019605
0.021850
-0.019993
-0.061534
-0.068461
0.032609
0.029607
-0.038611
-0.018166
0.023281
0.017978
-0.035480
0.027874
0.019048
-0.060079
-0.003725
0.037639
-0.022964
-0.008319
0.025329
-0.065983
-0.045532
0.000459
-0.020909
-0.037501
-0.002985
0.022283
0.003954
-0.042918
0.032068
0.044185
-0.059921
-0.042539
0.017037
0.036513
-0.021591
-0.049757
-0.060933
0.030298
0.015861
-0.010222
-0.008060
-0.023981
-0.029210
0.027862
0.043425
-0.087830
-0.010745
-0.003868
-0.008948
0.022337
-0.037384
-0.052066
0.031623
-0.054093
-0.065713
-0.060685
0.018100
-0.014642
-0.077485
-0.022268
0.011905
-0.023308
-0.066691
-0.056666
-0.002033
0.000696
-0.049059
-0.053701
-0.063647
-0.055045
0.016694
-0.052179
-0.021925
0.041207
-0.071434
-0.014635
-0.010779
-0.064198
-0.055285
0.030440
-0.001088
-0.078357
-0.012639
-0.046822
-0.020771
0.017761
-0.055890
-0.058504
-0.027481
-0.066357
-0.039068
0.035339
-0.025493
-0.002557
-0.042393
-0.024756
0.049791
-0.038567
-0.018256
0.027241
-0.045764
0.003711
-0.041443
-0.018640
-0.064235
-0.004137
-0.002452
-0.056570
-0.041152
-0.018472
-0.043206
-0.084050
-0.014917
-0.025625
-0.012497
-0.009929
-0.057067
-0.033075
0.002128
-0.008020
-0.078976
-0.076978
-0.072389
-0.031865
-0.060151
-0.001405
-0.039963
-0.041168
-0.074035
-0.031026
-0.006886
-0.081883
-0.065632
0.020332
-0.047922
-0.010583
0.070140
-0.024726
0.038579
-0.006390
-0.022848
0.007427
0.099437
0.092894
-0.173411
0.051451
0.010859
0.058362
-0.098753
-0.274965
-0.198915
-0.103032
0.131036
0.021383
-0.063495
-0.209373
0.081634
-0.061562
0.028285
-0.001324
-0.050912
-0.045406
0.069644
-0.093193
0.004796
0.134665
0.117789
0.063367
-0.107963
0.064266
0.030845
0.047445
-0.056061
-0.056083
0.048986
-0.018133
0.067159
0.001900
0.055337
-0.008879
0.007695
-0.158001
-0.132417
-0.186418
-0.055713
-0.058239
-0.014186
0.073779
0.031231
0.142726
-0.056297
0.105615
-0.078296
0.017365
0.067196
-0.121877
0.055940
0.021624
0.028843
0.124981
0.102026
0.019767
0.032136
0.081505
0.093339
0.055608
-0.046045
0.063604
-0.259096
-0.115966
-0.130978
-0.112989
-0.219252
0.080593
-0.282707
-0.218958
0.045761
0.006058
0.084707
-0.018588
0.051208
-0.094897
0.098763
0.121173
-0.096823
-0.111038
0.012454
0.031232
-0.262086
-0.036650
-0.027796
-0.029946
0.101935
0.003722
-0.139984
0.027908
-0.007400
0.007869
-0.060628
0.049579
-0.047941
0.027189
-0.031858
0.024777
0.108511
-0.022027
0.149458
0.205518
-0.093484
-0.081772
0.125330
0.184866
-0.013493
-0.043359
0.028191
0.069606
-0.017672
0.082296
0.070844
0.005538
0.056926
0.162753
0.069690
-0.102512
0.079437
-0.005401
0.053974
-0.050179
-0.015481
0.020400
0.130083
0.007569
0.055423
0.140643
0.015971
-0.090527
-0.168145
0.092595
0.048743
-0.193038
0.024777
0.067851
0.086277
-0.083474
0.036890
0.054245
0.035919
-0.051468
-0.002958
0.044280
0.063410
-0.188004
-0.129818
0.006872
-0.054290
-0.263616
0.062522
-0.066403
-0.118420
0.139978
-0.051043
0.071383
0.048130
-0.053375
0.031656
-0.040624
0.184132
0.090306
-0.182250
-0.205104
-0.008641
0.129340
-0.067783
0.083155
0.062437
-0.006443
0.043065
-0.032456
0.007641
-0.041843
0.038748
0.020291
0.027052
-0.010699
-0.235350
-0.336967
-0.209353
-0.051966
0.046854
-0.080752
0.033189
0.067300
-0.006723
-0.010662
-0.065681
-0.003310
-0.079088
-0.139669
-0.242419
-0.191648
-0.015164
-0.186912
-0.197185
-0.062342
-0.036622
-0.025380
-0.023077
0.068368
0.032914
0.001010
-0.095519
0.003988
0.198524
-0.013653
-0.050879
0.158802
0.056386
-0.049987
-0.027178
0.111965
-0.065889
-0.079967
0.035792
0.105531
-0.052590
0.054300
0.054118
-0.004562
0.020641
0.053357
0.001549
-0.026652
-0.022927
0.042123
0.065336
-0.121171
-0.073787
0.060519
0.085360
0.066856
0.007572
0.133221
0.116853
0.031502
-0.119090
-0.076443
0.074137
-0.070960
-0.022305
-0.020266
-0.010975
-0.207130
-0.105509
-0.051560
-0.001170
-0.010144
0.018414
-0.008159
-0.074231
-0.062121
0.066459
0.018157
-0.044079
-0.027187
0.085962
0.113989
0.114376
-0.021446
-0.043862
-0.031597
-0.052683
0.092785
-0.137331
-0.066807
0.058736
0.124854
0.064049
-0.039021
0.018814
0.037767
-0.042847
-0.059117
-0.024557
0.039875
-0.034837
-0.011331
0.024295
-0.038076
-0.025362
0.069735
0.083989
0.011233
0.102036
0.042524
-0.051708
-0.025016
-0.102636
0.014640
-0.012196
0.035171
0.069082
0.011339
0.073485
0.002110
0.042661
-0.022366
-0.074010
-0.088186
0.108701
-0.002242
-0.091874
-0.145364
-0.044004
0.014740
-0.055432
-0.124153
-0.201057
-0.052923
-0.110626
-0.110200
0.013786
0.080726
0.014828
-0.019907
-0.007375
-0.139713
0.163254
0.178769
-0.010045
-0.034767
0.068798
0.205331
0.068868
0.068600
-0.030758
-0.010120
0.155510
0.089797
-0.019397
-0.038485
-0.133423
-0.062025
0.024394
0.032996
0.088351
0.103606
-0.044456
-0.003187
-0.157990
0.036844
0.074899
0.085528
-0.087043
0.048938
0.100442
0.069863
0.015388
-0.111449
-0.070970
0.006665
-0.061431
0.038996
-0.094528
-0.106895
0.070050
0.081760
0.016614
-0.183181
-0.174440
0.009223
-0.049133
-0.045499
-0.006427
0.041753
0.017174
0.003727
0.010914
-0.053405
-0.084127
-0.000498
0.023062
-0.016918
-0.131039
0.039860
0.022031
-0.004719
-0.058532
0.036692
-0.000485
-0.023752
-0.022117
0.007952
0.114672
-0.038465
-0.099537
-0.019296
0.016328
-0.000539
-0.018390
0.126449
0.021717
-0.065026
-0.073842
-0.010114
-0.015785
0.023352
-0.041118
0.066063
0.062912
0.017351
-0.021077
0.063998
-0.051345
0.061222
0.196213
0.109401
-0.046599
-0.038627
0.084830
0.100073
-0.144682
-0.057142
-0.097643
-0.027012
-0.002727
0.008914
-0.092302
-0.092420
-0.150820
-0.051287
-0.022996
0.102221
0.104352
0.051880
-0.015011
0.069118
-0.020080
-0.051417
0.034366
0.037012
0.073911
0.172677
0.019397
0.054789
-0.125583
-0.054219
0.061069
-0.012998
0.191009
0.037686
0.155867
0.102041
-0.063154
-0.016564
0.130699
0.170561
-0.065071
0.091003
0.046295
0.023196
-0.179317
-0.042495
0.183311
0.321689
-0.032799
-0.044859
-0.004348
0.085912
0.010267
-0.059175
-0.105618
-0.068095
-0.148184
-0.087570
-0.076051
-0.091994
0.090970
0.009873
0.114945
0.003917
-0.025007
-0.094619
-0.134422
-0.198440
0.020465
0.083582
0.070116
0.047075
0.082034
-0.085509
-0.061190
0.035055
0.110349
0.085596
0.019961
-0.179340
0.048653
0.020626
-0.057466
-0.103425
0.090118
0.093023
0.029389
0.030804
0.031761
0.052404
-0.010178
0.000395
0.061843
0.025360
0.015393
0.075231
-0.096956
-0.107795
-0.026229
0.096697
0.033881
-0.036243
0.116875
-0.034003
0.103377
0.075529
0.016857
0.044388
-0.041796
0.008898
0.038594
0.069174
0.084114
0.072698
0.011990
-0.011029
-0.083839
0.004829
-0.017675
-0.023620
-0.047507
-0.007076
-0.025271
0.021388
0.051089
0.000002
-0.070229
-0.032484
0.002097
-0.094691
-0.195527
-0.050051
-0.023289
0.006888
-0.023600
0.102991
0.113462
0.118173
0.076493
0.093064
0.011802
-0.064970
-0.096235
-0.172250
-0.061080
-0.120044
0.104180
0.090545
-0.029627
-0.076032
-0.131952
0.123477
-0.051052
0.071598
0.054284
0.005103
-0.016070
-0.063940
0.047909
0.054411
0.005295
-0.186050
0.028601
0.072310
0.182477
0.017920
0.007962
0.011143
0.208199
0.040106
0.206690
0.090888
-0.180168
0.009931
0.054856
0.020394
-0.302725
-0.061052
-0.022422
-0.047221
-0.089873
-0.022672
0.085502
-0.031930
0.059668
-0.004037
0.016128
0.025930
0.039888
-0.109105
-0.123985
-0.092833
0.000219
-0.039012
0.086164
0.043067
0.074955
0.072183
0.094052
0.007280
0.090454
-0.012780
0.050698
-0.083924
-0.046018
-0.156627
0.019148
0.022619
0.032819
-0.074489
-0.003374
-0.017529
-0.082227
-0.183616
-0.031405
-0.009078
-0.120437
-0.113433
-0.008769
0.060971
-0.054958
0.067847
0.073785
0.030739
-0.026719
-0.018972
0.039783
-0.077032
0.022090
0.013390
-0.025724
0.036057
-0.078979
0.028630
-0.045284
0.139249
-0.080665
0.124232
-0.022374
-0.008730
0.009668
0.076282
0.031036
0.019217
-0.000490
-0.049842
0.030152
-0.001334
-0.005647
-0.019440
-0.062391
0.116842
0.039505
-0.002054
-0.097446
-0.118705
-0.018785
-0.008008
-0.003810
0.027508
0.032663
-0.019363
-0.048715
-0.006760
-0.025826
0.076499
-0.017713
-0.011006
0.137044
-0.044998
-0.059631
0.054001
-0.057625
-0.088284
-0.052563
0.064484
-0.004333
-0.043443
0.051572
0.031872
0.176064
0.053884
0.024174
0.006435
0.002964
0.024335
-0.068253
0.004020
-0.147422
-0.129129
-0.068981
0.047911
0.107072
0.127879
0.261439
0.046512
0.173456
0.127290
0.149529
0.030452
0.162428
0.012688
-0.078111
-0.165974
0.188923
0.017338
0.026958
-0.159603
-0.071890
0.039567
0.046321
-0.070604
-0.027165
-0.010259
0.023609
0.038103
-0.032707
0.076026
-0.064341
-0.166853
-0.033744
0.070640
-0.034492
0.006466
-0.192610
-0.068787
-0.084796
0.102163
-0.139546
-0.024203
0.008557
0.090318
-0.037272
0.043979
0.055442
0.045883
0.035540
-0.034402
0.002977
0.112014
0.001308
0.035436
-0.003146
0.085018
0.038167
0.022058
-0.061232
0.135397
-0.044970
-0.025333
-0.114768
-0.062002
-0.042080
-0.035678
-0.103904
-0.053799
0.139260
0.072182
0.028211
-0.032239
0.141748
0.123041
0.012122
-0.054717
-0.044701
-0.096391
-0.048333
0.026666
-0.127866
-0.060821
-0.018111
0.061230
-0.059521
-0.083520
0.021246
-0.032163
-0.010259
-0.042215
-0.027419
0.081826
0.019929
0.054757
0.055257
-0.034877
0.195367
0.006795
-0.096332
-0.025846
0.036278
0.098683
-0.005513
-0.002351
0.059369
0.059917
0.095995
0.106972
0.000795
0.107456
-0.052690
-0.055001
0.076897
-0.015787
-0.104298
-0.160770
0.148319
-0.030450
-0.098280
-0.065594
-0.168074
0.019018
0.028273
-0.024899
-0.140040
0.025732
0.025914
-0.081374
0.048440
0.181211
0.049493
0.023192
0.012268
-0.003135
0.138061
0.011105
0.152892
0.062071
0.086678
0.096980
-0.032143
0.005447
-0.066773
-0.075439
0.023504
-0.006920
-0.116298
-0.064952
-0.030979
0.026897
-0.008238
0.001636
-0.017833
0.006122
-0.055637
-0.072455
-0.067849
0.041201
0.030628
-0.006187
0.034653
0.027409
0.123753
0.073306
0.133516
0.023210
-0.026897
0.011134
0.170335
0.142940
0.013137
0.041117
-0.042650
-0.004889
-0.006878
-0.099694
-0.087456
-0.090013
-0.056872
-0.052159
0.071065
0.035221
0.018502
-0.082958
-0.010095
0.053226
0.012063
-0.076495
0.015582
-0.011614
-0.006979
0.058882
-0.039397
-0.073174
-0.065276
0.120200
-0.101281
-0.036397
-0.033130
0.018659
-0.052578
-0.025508
0.020152
0.212965
-0.018131
-0.098585
0.069637
0.006721
-0.022284
-0.028601
0.088299
-0.052896
0.031185
-0.082912
0.044012
0.031462
-0.035605
-0.048723
0.008259
0.084121
-0.086013
0.024033
0.032462
-0.022900
-0.028863
-0.040426
0.017758
-0.030157
0.006150
0.083857
-0.046949
0.036317
0.180837
0.132824
0.085581
-0.073503
-0.050596
0.004509
0.049108
0.010572
0.086307
-0.067781
0.028491
-0.043188
0.028998
-0.025467
0.046546
0.076904
0.096742
0.086682
0.008587
-0.040640
0.005659
-0.037934
-0.060934
-0.065119
-0.058314
0.038385
0.048072
0.064823
0.014257
0.011902
0.078101
0.061399
0.022763
0.098654
-0.018951
0.068603
-0.121299
-0.096366
0.053653
0.089698
0.013994
0.112584
0.022845
0.070713
0.081393
0.129579
0.015892
-0.022352
0.160714
0.149755
0.055800
0.078736
-0.048214
-0.052143
0.018248
-0.001494
0.021656
-0.004566
-0.071711
-0.267377
-0.001570
0.059142
0.012104
-0.008368
0.053099
-0.036040
-0.056233
-0.065727
-0.043958
0.029718
0.022803
-0.090894
0.041778
0.014286
-0.073417
-0.109706
0.084619
-0.010727
-0.031821
-0.011746
0.023756
-0.005501
0.029134
-0.097925
0.093119
-0.040360
-0.012815
-0.038156
0.008129
0.057645
0.026679
0.007390
0.023484
-0.015493
-0.077780
-0.090308
-0.102762
-0.063823
-0.060921
0.088774
-0.035133
-0.029856
-0.067241
-0.011399
-0.077550
0.006895
0.141908
-0.047004
0.090883
0.047004
0.179881
0.042001
-0.032273
-0.043608
-0.073112
-0.075122
0.066817
0.059200
0.074046
-0.013700
-0.076459
-0.059851
0.034564
0.050614
0.208847
0.101272
-0.115580
-0.043368
0.184098
0.033308
0.041320
0.102770
0.087984
0.008853
-0.045802
-0.169409
0.092798
0.051228
-0.124355
-0.204837
-0.086493
-0.009906
0.031671
0.149397
-0.020767
0.251327
0.147220
0.206678
-0.049220
0.021293
0.108935
-0.016445
-0.139383
-0.179905
0.038681
0.009399
0.105851
-0.005227
-0.277520
-0.088927
-0.086585
0.110733
-0.033008
-0.001130
-0.011077
0.059130
-0.009402
-0.054136
0.129985
-0.057600
-0.048310
-0.015927
-0.020545
-0.094642
-0.000947
0.035940
-0.185769
-0.150406
-0.001689
0.045984
-0.007389
0.168704
0.162466
0.188520
0.089685
0.054951
-0.074941
-0.050294
0.119454
0.091704
-0.023505
-0.084871
0.104487
0.011204
-0.072019
0.028199
0.127123
0.061340
-0.048587
-0.028603
0.061387
0.043171
0.022174
0.021151
-0.066599
-0.048946
-0.017794
0.022346
0.094816
0.075770
0.004157
-0.033711
-0.136774
-0.103014
-0.043310
-0.037980
-0.043449
-0.004101
0.029493
-0.023722
-0.124309
0.032969
-0.003505
-0.078396
-0.125047
-0.040738
-0.023613
0.061260
0.000831
0.032856
-0.022782
-0.012955
0.017456
-0.090147
0.082851
-0.169682
-0.051370
0.059549
0.072843
-0.016954
-0.108207
-0.075163
0.022549
0.033635
0.071577
0.037890
0.035582
0.100052
0.088290
0.185971
0.032513
-0.072622
0.098182
0.011890
0.056217
-0.093616
0.135450
-0.013282
0.036618
-0.085053
-0.009846
0.129709
0.068225
0.013904
-0.018662
0.038856
0.026723
0.059392
0.054141
-0.028909
-0.259349
-0.187546
-0.065116
-0.059006
-0.033987
-0.095597
0.014761
-0.003717
0.111780
0.100649
0.052786
-0.022394
-0.018852
0.073080
-0.014225
-0.141662
-0.268536
-0.347479
-0.023849
-0.091401
0.011935
0.008918
-0.126536
0.104128
0.121874
0.262201
0.024470
0.061764
0.058797
-0.112620
-0.003303
0.022574
-0.033536
-0.138638
0.096605
-0.014444
-0.083157
-0.161668
0.055502
0.111245
0.034767
-0.114417
-0.056824
-0.017613
-0.067520
-0.098973
0.089310
0.058722
-0.013225
-0.058593
0.083393
0.009797
0.119362
0.065398
0.084722
0.054046
-0.001281
-0.154117
0.078274
-0.032184
-0.035481
-0.085732
0.017695
-0.014776
0.002937
0.029855
0.079274
-0.131323
0.089472
-0.055610
0.024076
-0.015360
0.017663
-0.037325
0.063153
0.082488
0.016431
-0.021632
0.076550
0.059344
0.008866
-0.057998
0.017700
0.076439
0.064658
0.001698
0.016050
-0.185923
-0.274890
-0.139389
-0.106695
-0.185732
-0.091929
-0.071090
-0.038990
-0.082595
-0.113471
0.057556
0.013809
0.065698
-0.010584
-0.010371
0.033568
-0.070115
-0.042256
-0.013261
-0.056387
0.034095
-0.065949
0.079546
-0.124901
0.016938
-0.048999
0.036272
-0.052784
-0.030009
-0.019068
-0.052085
0.060274
0.094543
0.117522
0.136902
0.020130
0.079364
0.135526
0.040227
0.081151
0.095110
-0.049980
-0.116778
-0.042600
-0.088587
-0.140422
0.031997
-0.151369
-0.097734
0.028647
-0.026895
-0.110880
0.006744
-0.063674
0.058064
-0.022424
-0.079517
-0.032352
-0.039216
0.014918
0.004337
-0.017680
-0.015086
0.091124
-0.092214
-0.091766
0.024612
0.093455
0.108200
-0.014806
0.040712
0.118733
0.106196
-0.022654
-0.128179
0.178153
0.014355
-0.002504
-0.043004
-0.203536
-0.124812
-0.033955
0.031616
-0.126848
0.108988
0.151616
0.051639
-0.039058
-0.008936
0.001577
0.043034
-0.046966
-0.048779
-0.089345
-0.028334
0.026310
0.092140
0.067913
-0.028206
0.104224
0.028743
0.037157
0.046656
0.090040
0.065743
0.165132
0.060195
-0.020958
0.029995
0.018914
-0.101640
0.018069
-0.192000
-0.161170
-0.107146
-0.031442
-0.028560
-0.067882
-0.048117
-0.001777
0.017002
-0.066128
-0.038718
0.110652
-0.036493
0.072095
-0.024764
-0.023451
-0.003393
-0.054678
-0.012173
0.083818
-0.002483
-0.073548
0.039577
-0.019068
-0.009239
-0.027578
0.054652
0.014522
0.043503
-0.047250
-0.010200
-0.086140
-0.136873
0.071362
0.089010
-0.082315
-0.047773
0.101747
0.050320
-0.103125
-0.039960
0.054000
0.178724
-0.020261
0.066215
0.069351
0.087912
-0.142485
-0.095261
-0.083154
-0.083700
-0.137730
0.049964
0.056273
0.024354
0.043391
0.116309
0.086756
-0.054996
0.000226
0.128785
-0.048500
-0.072236
-0.157717
-0.093940
0.019018
0.026478
-0.078482
0.106569
0.045156
-0.018968
0.077592
0.045129
-0.022551
-0.008402
-0.044731
-0.001875
-0.102298
-0.042162
-0.344002
-0.187586
-0.000693
0.083121
-0.203928
-0.046905
0.075496
-0.024231
-0.027203
-0.048791
0.126893
-0.031192
0.010296
0.027608
0.017036
-0.018653
0.008960
0.026151
0.022447
0.159652
0.070254
0.052214
0.081348
0.110134
0.092291
-0.029916
-0.023703
0.088415
0.009417
0.040097
-0.079965
-0.119188
0.023416
-0.019445
