0.136294
0.194828
0.258002
0.007527
0.119773
-0.012456
0.070100
-0.024817
-0.187260
-0.122426
-0.113407
-0.189181
0.219530
-0.058824
-0.038641
-0.168187
-0.060683
0.278634
0.266887
-0.072108
-0.013199
0.148693
0.297834
0.224384
-0.105621
-0.051728
0.029945
0.168244
0.356896
0.305869
-0.351768
-0.227902
0.234546
0.409856
0.074327
-0.364632
0.159542
0.197838
0.201506
0.100720
-0.253974
0.290458
0.063402
0.253270
0.058929
0.082431
0.126195
0.116432
-0.080616
-0.288163
-0.027788
-0.036292
-0.302789
-0.114287
-0.250199
0.026342
0.095703
0.044724
0.079367
-0.089092
0.014367
0.244509
0.112872
0.402183
0.323124
-0.031984
-0.014162
0.107894
0.291914
0.375820
0.235712
0.044358
-0.230014
-0.149447
0.054815
-0.102146
-0.091335
0.240568
-0.020295
-0.107660
0.082446
0.273746
0.233599
-0.086217
-0.074446
0.089289
0.017944
0.087870
0.083710
-0.143304
0.172664
0.355655
0.058811
0.015051
0.155765
0.276808
0.274534
-0.000786
-0.027702
0.306444
-0.069510
0.119470
0.299142
-0.015060
0.090267
0.273889
0.343734
0.336214
0.413486
0.403858
0.149832
0.037929
0.349012
0.278305
0.169468
-0.024714
-0.331163
-0.404256
-0.131843
0.099121
-0.495102
-0.448723
-0.570666
-0.335351
-0.141218
0.110605
0.221522
-0.188830
-0.367474
-0.431296
0.146728
0.446968
0.438149
0.020321
-0.355536
-0.241400
0.164313
0.345053
0.458716
0.025636
-0.149118
-0.026468
0.183235
0.342545
0.169080
-0.402676
-0.159825
-0.331605
-0.056339
0.031691
