0.004238
-0.092878
-0.015798
-0.077700
0.009725
0.072583
0.014564
0.012774
0.143278
0.039108
0.002500
0.062377
0.035678
0.003063
0.038718
0.045559
-0.007092
-0.032644
-0.011577
0.052491
0.101154
0.028620
-0.003093
-0.071896
0.036104
0.071660
0.004386
-0.039350
-0.031727
0.002656
0.041066
0.021924
-0.020306
-0.062090
0.050889
0.055505
0.006201
0.039804
0.004242
0.057944
0.055732
0.044540
-0.029082
0.005744
0.043579
0.081585
-0.058590
-0.002066
-0.058085
-0.002822
-0.016354
-0.070557
0.075604
0.008251
0.015494
-0.006735
0.036716
0.012983
-0.073931
-0.039716
-0.056369
0.006107
0.023938
0.070173
0.018858
-0.022045
0.012645
0.004478
0.064972
-0.040568
-0.069782
0.012014
0.039673
0.070407
0.093130
0.021512
0.065752
-0.042801
-0.048237
-0.041275
-0.000908
-0.031234
-0.010132
-0.016956
0.042752
0.040578
-0.012127
-0.078131
0.022987
-0.082403
0.085086
-0.034241
0.058172
-0.031942
-0.026569
0.014964
0.011564
-0.093282
0.001367
0.045803
0.005308
-0.007844
-0.001859
-0.081941
0.051573
0.077608
0.106832
0.006530
0.013213
-0.067267
-0.021181
-0.051607
0.136184
0.019083
-0.001653
0.034713
0.014672
-0.000712
-0.068531
0.069398
