0.166787
-0.015141
-0.097508
0.141565
0.094839
-0.073937
0.031361
-0.143318
0.138211
0.035378
0.030037
-0.118118
0.041754
0.108815
-0.014408
0.026644
0.062955
0.057612
-0.149223
0.101470
0.053852
-0.000490
0.039205
0.076272
0.000076
-0.111694
0.099991
-0.118399
0.108712
0.114781
0.117279
0.007332
0.089077
0.063968
0.101623
0.112326
-0.097931
-0.239666
-0.052778
0.120910
-0.018403
-0.059299
-0.229286
0.053325
-0.109815
-0.145693
-0.077858
-0.072871
-0.264903
-0.067242
-0.080713
0.026770
0.046458
-0.086951
0.002922
-0.051047
0.059031
0.050973
-0.009206
-0.141433
-0.042708
-0.043464
-0.062896
-0.037844
-0.042814
-0.103098
-0.000016
-0.022406
0.000600
-0.022140
0.007977
0.166660
0.008667
0.037139
0.064494
-0.183744
-0.166163
-0.227545
0.010952
-0.236643
0.004421
0.051996
-0.094026
-0.215310
0.063396
0.061086
0.077443
-0.041446
-0.090946
-0.216794
0.014069
0.181496
-0.070044
-0.154874
0.064291
-0.223231
-0.020686
0.161542
0.022821
-0.055716
-0.047001
-0.062531
0.044068
0.253137
0.054097
-0.147841
-0.096085
-0.228745
0.025617
0.140555
0.030662
0.091287
-0.055318
0.056443
-0.279772
-0.262421
-0.079813
0.128910
0.106475
0.100044
-0.184656
-0.095513
0.061610
0.218100
-0.066123
0.011470
0.023470
-0.127813
-0.121483
-0.088596
0.063981
0.114204
0.176704
0.078982
-0.096045
-0.151697
-0.005811
-0.035482
-0.170927
0.079016
0.021580
-0.037251
-0.163313
-0.156896
0.040835
0.017118
0.085699
-0.013203
0.057883
-0.199459
-0.085418
0.139006
0.026044
0.054187
0.048121
-0.095205
-0.056494
0.050775
-0.122128
0.017412
0.084887
0.080124
0.002839
0.136719
0.117403
0.158539
-0.077250
0.157926
-0.210088
0.110039
0.027987
0.151266
-0.039766
-0.014979
0.017605
0.098340
0.040149
0.092919
0.011108
-0.102572
0.005630
0.054930
-0.013129
0.060143
-0.091962
0.030298
0.005971
-0.170780
-0.007383
0.036142
-0.103262
-0.076107
-0.114765
-0.463341
-0.077948
0.040412
-0.077118
-0.226132
0.112816
0.121741
-0.109079
0.077995
-0.054524
0.040601
0.128697
-0.038818
-0.084811
-0.062205
-0.011527
-0.096446
0.089427
-0.074744
0.162961
-0.021888
-0.120494
0.043982
0.110670
0.200477
0.051718
0.051452
0.068819
-0.084659
0.096630
-0.063558
0.058749
-0.052712
-0.046606
-0.068452
0.057719
-0.030356
0.027525
-0.105275
-0.291373
-0.125525
-0.030540
0.196746
-0.033944
-0.109882
0.056152
0.042577
-0.087578
-0.061699
-0.193541
-0.108877
-0.244242
-0.134223
-0.084489
-0.028911
-0.035713
-0.153926
0.040803
-0.239337
-0.075526
0.021163
-0.229060
-0.015783
0.084202
-0.151671
0.024529
-0.261101
0.009998
-0.023598
-0.138507
-0.057190
-0.149259
-0.192699
0.074527
0.004841
-0.024900
0.020103
-0.135953
-0.279105
-0.174068
0.095184
-0.029092
-0.143786
0.116058
-0.054868
-0.038879
-0.200361
-0.202816
0.027495
0.113776
-0.137897
-0.156934
0.111727
0.089808
-0.012814
-0.093806
0.004212
-0.058160
-0.026468
-0.039268
-0.105436
0.099880
-0.122646
-0.001833
-0.146074
0.136945
-0.017597
0.098655
-0.030383
0.084546
0.024714
0.090611
0.032928
0.106990
0.057530
0.153051
-0.071090
-0.019504
-0.068888
-0.144218
-0.091036
0.028943
0.015914
-0.107539
0.082170
0.109247
-0.152397
0.007530
0.046490
-0.105710
-0.185631
0.003602
-0.064458
0.134319
-0.012241
-0.226679
-0.257777
0.008228
0.141323
-0.134025
0.078436
-0.012787
0.180979
0.037148
-0.013976
0.139504
0.093884
-0.165230
0.085491
-0.053415
-0.023296
-0.255302
0.166902
-0.036606
0.070405
0.008251
0.187553
-0.086192
0.054411
0.074167
0.067080
-0.047136
-0.090203
-0.123927
-0.138639
-0.085422
0.009218
-0.225749
-0.160060
-0.260021
0.154877
0.214889
-0.074052
-0.145243
-0.046640
0.066523
-0.037919
-0.248654
-0.117394
-0.002505
0.035496
-0.060443
0.130184
-0.074048
0.143034
0.088692
-0.032657
-0.082184
-0.026217
-0.007247
-0.121132
-0.146882
-0.048699
-0.032887
0.038117
-0.163611
0.061365
0.091542
0.017299
-0.022317
-0.096952
0.019364
-0.007833
0.114784
-0.072038
0.160068
-0.020922
-0.241329
-0.034761
0.073088
-0.003725
-0.053182
0.075865
0.107564
0.007452
-0.102919
0.106336
0.137884
0.079621
0.064936
-0.003024
0.082847
0.080426
0.137546
-0.145640
0.041172
0.038076
0.042007
-0.088046
-0.072259
-0.054758
0.075106
0.047115
0.178599
-0.061753
-0.037546
0.119921
-0.147579
0.023894
-0.070824
-0.066170
0.002624
0.076534
-0.012190
-0.024186
0.023247
0.040269
-0.006818
0.108077
-0.118970
0.102676
0.032199
0.156634
0.063143
-0.274990
-0.107909
-0.062682
-0.036467
-0.122778
0.132034
-0.059642
-0.078112
0.036436
0.019293
-0.011042
0.028778
-0.173473
-0.062016
-0.212176
0.049751
0.031543
-0.087763
-0.033062
0.138822
-0.240908
0.109055
-0.049375
0.065660
-0.165089
0.091262
0.014398
0.079044
0.049585
-0.056171
0.001647
0.079119
0.163620
0.035116
-0.060045
-0.132052
0.001660
0.139446
0.084259
-0.061896
0.057586
0.059594
-0.036791
-0.074042
-0.104296
0.007781
0.079314
-0.120351
-0.042181
-0.261888
0.109393
0.049767
-0.265560
-0.182683
0.099410
0.047426
-0.143563
0.004168
0.026163
0.140431
0.099502
0.002832
0.158468
0.051846
-0.098179
-0.157573
-0.109283
0.074336
-0.093487
0.136221
-0.092513
0.055343
-0.110636
-0.244086
-0.074997
-0.018666
0.009759
0.081286
0.150386
0.008156
-0.044497
-0.003277
0.041617
-0.182366
-0.104080
-0.131105
0.113453
-0.162967
0.116587
0.101163
0.035679
-0.186822
0.031282
-0.181513
-0.099962
0.012330
0.176993
-0.032706
-0.038520
-0.251663
-0.028430
-0.059373
-0.170056
-0.113264
-0.201735
-0.168639
-0.025430
-0.034695
-0.059648
-0.106704
0.062043
0.039823
0.048613
0.081750
0.033129
0.171354
-0.138550
0.141659
-0.007651
0.106480
-0.017996
0.215506
-0.264288
0.065978
-0.048764
-0.043837
-0.055860
-0.001333
-0.122717
0.005706
0.053573
-0.127098
-0.256140
-0.125518
0.088046
-0.040864
-0.155505
0.051126
-0.093556
0.004593
-0.003938
0.104635
-0.125222
0.049374
-0.175033
0.038986
-0.107521
0.087039
0.085126
0.151315
0.104053
0.148115
-0.210581
0.015930
-0.208856
-0.175198
-0.166069
0.062543
-0.024501
-0.008614
0.109667
-0.201674
-0.035932
-0.073026
-0.031439
-0.142779
-0.181334
0.050265
-0.070454
-0.054430
0.238019
-0.048161
0.027825
-0.059508
-0.143608
-0.009599
-0.121947
0.095158
0.068505
-0.053743
-0.132999
-0.033228
-0.133521
0.020963
-0.057501
0.172723
0.103686
-0.092304
-0.025019
0.089697
0.168876
-0.096669
0.043756
-0.104133
0.106514
-0.203593
0.007903
0.085317
0.063699
-0.217445
0.003484
-0.136564
-0.074988
0.028289
-0.082191
0.057417
0.022395
0.053477
-0.053598
-0.008209
-0.087941
-0.132158
0.024894
0.121395
0.013196
0.147802
0.131212
0.054653
0.132104
-0.099676
0.119663
-0.137912
0.076139
-0.086762
0.136934
-0.063370
-0.082316
-0.002862
-0.182306
0.059482
-0.042429
-0.191057
-0.153756
-0.051182
-0.166909
-0.205948
0.059420
-0.112007
0.050514
0.181770
-0.010541
0.191401
-0.083141
-0.065612
-0.070479
0.028103
0.109346
-0.052848
-0.111579
0.002142
-0.105453
0.073606
0.141357
-0.115359
-0.220025
0.089906
0.035840
-0.126063
0.121896
-0.109116
0.026343
-0.007581
0.077813
-0.104850
-0.023381
0.038557
0.042324
0.080397
-0.041394
-0.131355
-0.136359
-0.107116
0.119722
-0.100050
0.042406
0.028046
-0.123192
0.017628
0.054083
0.130039
0.080493
0.104508
-0.044397
0.124330
0.081349
-0.208254
-0.004858
-0.125554
0.013119
0.124462
-0.087078
-0.129791
-0.194521
0.021026
-0.108706
-0.008167
0.082144
0.145085
-0.037146
-0.002781
0.084954
0.078207
0.091404
-0.042526
-0.176495
-0.211866
-0.075001
-0.050118
-0.047943
0.094447
0.058009
0.075119
0.063449
0.124246
-0.092550
-0.141475
0.002450
-0.125807
0.026629
0.079771
0.024844
-0.023430
0.031915
-0.110319
-0.069312
-0.220376
0.022139
-0.011089
-0.197430
-0.056316
-0.130361
0.000052
0.126431
-0.116470
0.092534
0.059692
0.136338
0.186110
0.025645
0.010339
-0.019158
0.007791
-0.199519
0.082106
-0.234593
0.174094
0.041964
0.007656
-0.028405
0.062984
0.131390
0.166074
-0.050276
-0.108975
0.161730
0.162587
0.112061
-0.178833
-0.275482
-0.002802
-0.018983
0.066868
0.091566
0.062353
-0.012907
-0.232896
-0.105908
0.047835
0.007139
-0.115603
-0.007558
-0.271042
-0.006753
-0.069978
-0.001070
-0.343047
0.053656
0.062320
0.057580
0.088714
-0.083290
0.011681
-0.169913
0.062538
0.022471
0.017114
-0.048872
0.003754
0.006784
0.125706
-0.101895
-0.126645
0.009992
