0.055084
0.064913
0.091348
-0.071496
-0.130972
-0.018049
0.082676
-0.034026
-0.044706
0.052528
0.092647
0.104666
0.089361
0.121772
0.085959
0.089842
0.062267
0.079683
0.015218
0.038291
-0.067107
-0.058397
0.044730
-0.056407
0.005335
0.003191
0.051619
-0.032359
0.054754
-0.030038
0.056619
0.066731
0.029642
0.010096
0.004342
-0.029405
-0.059473
-0.109473
-0.007088
0.102236
0.014852
0.066690
-0.071018
0.074893
-0.006599
0.008012
-0.040963
0.057454
-0.093486
-0.194286
0.000871
-0.052915
0.096334
-0.052000
-0.120527
0.045520
0.042692
-0.014036
-0.078772
-0.071147
-0.050255
0.059908
-0.028997
-0.042772
0.036724
0.009605
0.124699
0.013688
0.107160
-0.004300
0.095240
0.129353
0.062714
-0.026725
-0.025307
-0.093323
0.005800
-0.005556
0.052098
0.001300
-0.058081
0.095878
0.113282
-0.036131
-0.070744
0.031715
0.018272
-0.020253
0.015674
0.089091
0.021491
0.037153
-0.016685
0.088892
0.007813
-0.122403
-0.088243
0.021057
0.033410
-0.166878
-0.116726
-0.172863
0.001205
0.011894
0.039570
-0.148425
-0.197283
-0.038629
-0.093455
-0.255834
-0.153919
-0.079328
-0.055913
-0.123793
0.017966
0.026481
-0.100209
-0.004746
0.084747
0.056359
0.000868
0.091302
0.103119
0.039265
0.068576
-0.035409
-0.088849
-0.087428
-0.072896
-0.007847
-0.114318
0.003437
-0.064312
0.052941
0.107195
-0.003784
-0.011901
-0.023386
-0.055375
-0.045188
0.116782
0.139435
0.004380
-0.114852
0.024046
0.133241
0.172144
0.044166
0.051562
0.070941
0.114222
0.084429
0.099589
-0.015224
-0.019086
0.112437
-0.012446
0.177829
0.196153
0.061820
-0.080431
-0.019688
-0.022029
0.005381
0.026368
-0.024562
-0.025132
-0.071989
-0.003313
-0.027570
-0.058819
-0.078082
-0.099488
0.041772
-0.029625
-0.021602
-0.014106
-0.205496
-0.194741
-0.269147
0.126814
0.086965
0.009842
0.077721
0.029347
-0.002165
-0.061779
0.122478
0.171096
0.011902
-0.020005
-0.033814
0.056826
0.106191
0.015850
0.095548
-0.070932
-0.097525
-0.015678
-0.040260
0.229935
0.197168
0.144177
0.176647
0.044379
-0.054766
-0.070974
0.087974
0.036115
0.037405
-0.069554
-0.067445
-0.033120
0.012888
-0.042594
-0.069731
-0.110653
-0.152054
-0.062243
0.000139
-0.039951
-0.084184
-0.050086
0.015528
0.030859
0.096138
-0.042674
0.052409
0.044839
0.076417
-0.051709
-0.111809
-0.043213
-0.033383
-0.047598
-0.027504
-0.083708
-0.000168
0.048102
-0.047666
-0.007608
-0.035213
-0.003309
-0.019332
-0.024899
-0.011938
0.044763
-0.061226
-0.058710
-0.017689
0.070282
0.179205
0.142299
0.127135
-0.085997
-0.014109
0.192604
0.152216
0.103912
-0.139290
-0.067395
-0.060595
-0.101409
-0.036574
-0.146407
0.100332
0.027869
0.016348
-0.012657
-0.075387
-0.038445
0.071064
-0.002495
0.009599
-0.033463
0.237977
0.271400
0.221955
0.131065
-0.022284
-0.106335
0.067399
0.177535
0.170466
0.001782
-0.057468
-0.113644
-0.063642
0.075043
0.006713
-0.059490
-0.159299
-0.057272
0.014981
-0.034817
-0.074863
-0.022363
-0.008978
-0.050911
-0.058183
-0.085505
-0.100165
-0.164989
-0.218085
-0.263873
-0.086666
-0.136911
-0.078840
-0.107936
0.082619
-0.016736
-0.069309
-0.076953
0.043606
0.075672
0.107545
0.182173
0.166114
0.048870
-0.011484
0.138759
0.160675
0.122598
0.029928
-0.009001
-0.131406
-0.064703
0.049272
-0.017627
-0.109621
-0.323309
-0.134417
-0.096774
-0.145627
-0.114896
-0.203500
-0.175083
-0.050205
-0.163645
-0.192898
-0.115341
0.113563
0.079271
0.065179
0.005750
0.052946
0.042239
0.034600
0.022765
-0.075961
-0.122389
-0.187754
-0.152968
-0.164960
-0.157580
-0.094688
-0.140971
-0.178162
-0.191917
-0.136354
0.064076
0.028440
0.196788
0.166425
0.144856
0.048161
0.090044
0.120612
0.097215
-0.010510
0.197303
0.059449
0.025985
0.002798
0.036438
-0.162556
-0.289483
-0.321027
-0.149051
-0.143972
-0.131860
-0.185427
-0.087202
-0.054961
-0.112428
0.032997
-0.001483
0.108987
0.130506
0.131331
0.070374
0.127543
0.051104
0.089019
0.095064
0.039890
0.086580
0.135272
0.023524
-0.079542
0.166509
0.050907
0.190093
0.103327
0.080884
-0.103998
-0.099589
-0.134221
-0.070409
-0.034659
0.009257
-0.132133
-0.088964
0.049551
0.052686
-0.057710
-0.011389
-0.023083
0.198975
0.238082
0.030422
0.027952
0.028664
-0.044615
-0.001449
-0.071177
0.163349
-0.006544
0.041848
0.042055
-0.159343
-0.195835
-0.164791
-0.075087
-0.107120
-0.058905
-0.072928
0.076268
0.058871
0.053616
0.021756
0.043459
0.042981
0.078015
0.113156
0.070529
0.004304
-0.001658
0.034247
-0.041857
0.197968
-0.021000
-0.308953
-0.137334
0.049511
-0.063127
-0.143459
-0.248202
-0.036857
0.083536
-0.019387
-0.052463
0.020767
0.088172
0.008307
0.052091
0.067915
0.083594
0.103733
0.084473
0.077229
-0.006563
0.073817
0.006922
0.042301
0.239225
0.091748
-0.120851
-0.038783
0.058011
0.171191
0.031048
-0.184895
0.067691
0.233584
-0.048793
-0.236022
0.015402
0.218204
0.223200
-0.143581
-0.101653
0.070067
0.257230
0.026375
-0.040046
0.017497
0.171031
-0.003536
-0.271886
0.104138
0.024662
-0.143104
-0.131725
-0.120841
-0.067609
-0.257513
-0.129193
-0.004953
0.011485
-0.198337
-0.134116
0.055533
0.073932
0.070855
0.058575
0.062447
0.013024
0.101017
-0.046478
0.070614
0.002494
0.059224
0.015068
-0.000552
0.133086
0.084914
-0.082197
-0.235242
-0.059095
0.127652
0.038291
-0.179641
-0.097369
0.106972
0.027088
-0.013038
-0.087986
0.106865
0.130426
0.084092
0.000661
-0.017480
0.121073
0.163721
-0.025778
0.022303
0.069713
0.156486
0.094789
0.022360
-0.068755
-0.153209
-0.175162
-0.138605
0.149435
-0.060537
-0.119521
-0.327699
-0.177636
-0.019698
-0.301693
-0.435539
-0.111464
-0.048210
-0.168026
-0.070982
-0.071727
-0.038794
-0.031503
-0.059504
0.068318
0.061950
0.046198
-0.100766
0.174840
0.126394
-0.045293
-0.163913
-0.097200
0.111404
0.054957
-0.247658
-0.257633
-0.149501
0.004148
-0.199643
-0.277321
-0.246892
-0.094482
-0.139831
-0.036453
-0.144282
-0.033605
0.112878
-0.024760
0.002481
0.044611
0.124773
0.132584
-0.144640
-0.108139
-0.081890
-0.050636
-0.005385
0.006700
-0.023880
-0.124907
-0.264264
0.091955
0.073620
0.084105
-0.010205
-0.155301
-0.083714
0.007030
0.038566
0.014326
-0.094343
-0.042019
0.144910
0.097828
0.040653
-0.056012
0.123876
-0.113164
-0.073473
0.017149
-0.039365
0.302800
-0.176817
-0.252308
-0.180170
0.068314
0.236249
-0.049563
-0.128239
-0.248087
-0.112311
0.116191
0.188727
0.112604
-0.084040
-0.360227
-0.175462
0.155343
0.120153
0.013468
-0.087067
-0.048903
-0.113754
-0.237457
-0.128542
-0.119460
0.148292
0.010310
-0.047964
-0.162486
-0.192986
-0.008000
0.147266
0.163203
-0.113432
-0.272130
-0.077170
0.098748
0.036518
0.149030
0.054082
-0.096425
0.065119
0.068111
0.076213
0.141508
0.195015
-0.065020
-0.206367
-0.247529
-0.072163
-0.038281
0.081150
0.039761
-0.182769
-0.084555
-0.142407
0.138616
0.176626
0.083250
-0.039319
-0.149424
0.161638
0.127885
0.067489
0.119529
0.105414
0.085447
0.104616
0.070776
0.075951
-0.004150
-0.024266
-0.006323
0.015406
-0.054824
-0.001749
0.076765
-0.148569
-0.169569
-0.017377
0.178951
0.154382
-0.180847
-0.486263
-0.205002
0.085981
-0.037597
-0.017798
-0.190578
-0.356685
-0.434812
0.093047
0.001956
0.083203
0.025047
0.050500
0.033238
-0.125257
-0.007260
-0.071099
-0.044384
0.224715
0.028020
-0.215979
0.026991
0.081060
0.253969
0.164781
-0.024168
-0.282555
-0.049144
-0.045715
0.064537
0.167368
0.061071
-0.144104
-0.078669
0.029464
0.075735
0.210034
0.235256
-0.071463
0.120930
0.104164
-0.101643
-0.118724
-0.112337
0.163623
0.127476
-0.055915
0.048502
-0.166547
0.142445
-0.000169
0.040595
0.036847
-0.128486
0.036991
0.107265
0.054184
-0.088865
-0.108773
0.023381
0.014028
0.041619
-0.050418
0.026665
0.096663
0.161502
-0.033990
0.009016
-0.111913
0.191659
-0.011782
0.029357
-0.036573
0.058841
0.127142
-0.142658
-0.194202
-0.027725
0.049933
0.037890
-0.140755
-0.110460
-0.054874
-0.065871
0.112102
-0.032116
-0.079488
-0.219960
0.045646
0.092480
0.021828
-0.011652
-0.064302
0.090285
0.059421
-0.014100
-0.005121
-0.142879
0.030310
0.010400
-0.042971
0.039385
0.046527
-0.051336
0.109860
0.180453
0.051008
-0.044984
-0.004010
-0.034793
0.094990
0.063423
-0.123828
-0.089245
0.059654
0.246387
-0.016094
-0.123604
-0.173546
0.043665
0.233993
-0.061583
-0.163477
-0.237511
0.101944
0.122774
-0.083606
0.024511
-0.082941
0.072820
0.040999
-0.060106
0.071491
-0.229506
-0.013835
0.061121
-0.023240
-0.149060
0.017954
-0.139809
-0.231596
-0.065853
-0.017561
-0.017671
-0.225219
-0.348409
-0.079180
0.086335
-0.052142
-0.038083
-0.358365
-0.165761
-0.024925
-0.074785
-0.000423
0.086325
0.085337
0.106487
0.042351
0.090553
0.140951
0.065432
0.030883
-0.154082
0.006438
-0.015995
0.014404
0.005413
-0.053176
-0.004093
0.060172
-0.084258
-0.001353
-0.070431
0.241011
0.183448
-0.126674
-0.036707
-0.244830
0.047536
0.243435
0.063804
-0.079782
-0.147374
0.114682
0.234073
0.133980
-0.047805
0.031208
0.134409
0.099647
0.165310
0.042829
-0.087025
-0.149160
-0.147507
-0.020033
-0.040075
0.053417
0.096932
0.000292
-0.060764
0.011175
0.028795
-0.014828
-0.053565
-0.040876
0.009821
0.099911
0.059573
0.005865
0.025573
-0.014002
-0.094153
0.083348
0.003656
-0.048836
-0.020166
0.002020
0.006190
-0.098085
-0.017439
-0.077793
0.030864
-0.095531
-0.171815
-0.050329
-0.027533
0.043646
-0.228008
-0.275075
-0.010397
-0.112770
-0.072268
0.000954
0.010662
0.099111
-0.118609
0.131967
0.104615
0.054888
0.160157
0.142257
0.049721
0.015749
0.044972
0.018983
-0.112029
-0.105007
-0.333074
-0.291389
-0.202485
-0.211836
0.080131
0.013549
0.114246
0.100710
0.060850
-0.041473
0.060647
0.149768
0.107832
0.029150
-0.027638
0.085332
0.055450
0.148840
0.084024
-0.049414
0.039517
-0.059357
-0.175573
-0.092961
-0.077770
0.010342
-0.085923
-0.272601
-0.237731
0.060830
-0.017422
-0.012678
0.077910
0.040606
0.013959
0.102893
0.044782
0.154405
0.104775
-0.058260
-0.135459
-0.178514
-0.076927
0.151351
0.190009
0.251929
0.299920
0.244337
0.258771
-0.129527
-0.087406
0.160916
0.104167
-0.031571
-0.117605
-0.253003
-0.182255
-0.249837
-0.319956
0.073553
-0.094992
-0.025064
0.043856
0.067253
0.090571
-0.054969
0.015423
0.021947
-0.006656
0.052142
0.206137
0.244200
0.156633
0.020966
-0.206800
-0.089799
-0.116622
-0.114256
-0.120532
-0.014559
-0.038123
-0.124416
-0.109285
-0.107258
-0.019794
0.026279
-0.095568
0.120617
-0.003014
0.007801
-0.036666
-0.005945
-0.039093
-0.003238
0.008189
0.129640
0.040558
-0.021187
0.008069
0.054997
0.078600
-0.024497
-0.078333
0.007488
0.021934
0.131773
0.092686
-0.207773
-0.136121
0.008945
0.077586
-0.008523
0.003350
-0.126277
-0.108263
-0.014549
-0.007180
-0.020144
-0.088299
-0.083030
0.209709
0.227047
0.046550
-0.090788
-0.020030
0.248588
0.178988
-0.119659
-0.149652
0.153422
0.220536
-0.219194
-0.240722
0.040247
0.020603
0.007604
-0.148816
-0.197054
-0.061220
-0.020208
-0.002763
-0.025744
0.027131
0.119284
0.086439
0.055620
0.038538
0.017431
-0.026519
0.099894
0.095120
-0.050992
0.003779
-0.115929
0.108438
0.058456
-0.125761
-0.180320
-0.035529
-0.021210
-0.065433
0.035316
-0.065471
-0.122873
-0.109640
0.027070
0.116518
0.020319
0.032656
-0.111953
0.067757
0.105796
0.161684
-0.021678
-0.184757
0.064129
0.232405
0.020665
-0.116350
-0.033397
0.178836
0.109824
-0.092434
-0.267687
0.024808
0.131171
0.015642
-0.113160
-0.140862
-0.014351
-0.102198
-0.244025
-0.130272
0.045221
-0.120683
-0.184725
-0.201469
0.135200
0.209885
-0.135886
-0.209575
-0.066174
0.017675
0.046621
-0.077062
-0.063488
-0.020830
-0.053073
0.155611
0.094513
-0.047602
-0.109092
0.000540
0.135772
-0.050696
-0.002437
0.011760
0.014672
-0.082600
0.010674
0.024950
-0.043800
-0.022170
0.016332
-0.115825
-0.097138
0.072911
0.029201
0.082380
-0.222075
0.076326
0.166642
-0.033485
0.024802
-0.095510
0.157055
0.109720
0.045489
-0.180662
-0.101369
0.058740
-0.041082
0.117292
0.065816
0.042868
0.080457
-0.015169
0.126393
0.128812
-0.027625
-0.057699
0.036898
-0.011481
0.129885
-0.120945
-0.073048
0.023006
0.011927
0.168894
-0.019779
-0.047741
-0.060089
0.038526
-0.054022
-0.112486
-0.036289
-0.235819
-0.070180
0.003296
-0.005051
0.033401
-0.055515
-0.115625
-0.066258
0.091052
-0.003511
-0.015997
0.050615
-0.101931
-0.005440
-0.147707
-0.028850
0.066789
0.160204
-0.084144
-0.096877
-0.069274
0.090078
0.091030
-0.050435
0.047742
-0.048248
0.084548
-0.083874
0.068539
0.069499
0.055528
0.166138
0.107162
-0.101283
-0.034013
0.105775
0.200127
0.087462
-0.074539
-0.140600
-0.043803
0.097104
0.018483
-0.127858
-0.037161
-0.035186
-0.094286
-0.026901
-0.081458
-0.049829
0.122528
0.111996
0.065062
-0.108289
-0.036957
-0.020838
0.058534
0.138704
0.037099
-0.052876
-0.054521
-0.016142
0.095543
-0.073639
-0.146145
-0.139718
-0.078187
0.058719
-0.093682
-0.115904
-0.029915
-0.009779
0.053417
0.147942
0.050971
0.008358
-0.006406
-0.243018
-0.060602
0.026089
0.186940
0.176048
-0.174332
-0.037411
0.142418
0.132518
0.156208
0.076818
-0.020429
0.015472
0.047042
0.200181
0.043748
-0.001242
-0.204678
-0.160299
-0.069356
0.052270
-0.040511
0.062923
-0.046881
-0.102159
-0.148060
0.008038
0.043227
0.082916
0.071115
0.023048
-0.140251
0.085623
0.061732
0.069025
0.122484
-0.076763
-0.056302
-0.114091
-0.004487
0.220078
-0.071697
-0.169731
-0.166956
-0.179196
-0.038973
-0.101681
-0.016548
0.035076
0.061805
0.079612
-0.012578
0.059627
0.011795
0.032512
0.095741
0.086109
0.036065
-0.066064
0.134286
0.066179
0.032184
-0.088540
-0.010648
0.107338
0.095500
0.065789
-0.108309
-0.137242
0.006622
0.043692
-0.081291
-0.039828
-0.041726
-0.068957
-0.014795
0.020405
0.125605
0.018429
0.098933
0.072087
-0.087242
0.005524
-0.108747
0.031089
-0.077928
0.102138
-0.025761
-0.147163
0.051478
-0.066780
0.048881
-0.165699
-0.072113
0.060869
-0.083207
0.061619
-0.074257
-0.033661
0.022780
0.055062
0.028913
0.003164
0.023788
0.024624
0.105880
0.020281
0.036159
0.030737
0.019013
0.043085
0.045136
-0.128773
0.066943
0.160516
0.015757
-0.136394
-0.190632
-0.217176
-0.032187
0.025328
-0.007661
-0.064663
0.085953
0.017516
0.087228
-0.076981
-0.013038
-0.006124
0.009082
0.175714
0.048374
-0.021491
-0.005159
0.017361
0.167045
-0.003805
-0.041911
-0.131514
-0.101665
0.088371
-0.060385
-0.214639
-0.231000
-0.132642
-0.018800
-0.009055
-0.087488
-0.037056
0.020607
-0.147533
-0.049507
-0.052349
-0.165807
-0.083428
-0.023833
-0.116175
0.047839
0.005500
0.081940
-0.156567
0.024971
0.096311
0.113627
0.037598
-0.116721
-0.003354
-0.094194
-0.027292
0.046205
0.123180
0.066836
-0.019747
0.003170
0.064430
-0.046226
-0.068343
-0.064803
0.000133
0.005576
0.082106
-0.093253
-0.083727
-0.060142
0.013674
0.003936
-0.015686
0.076118
0.048293
0.170657
0.196724
0.069444
0.008307
-0.097515
0.093440
0.241451
0.003515
0.141870
0.009239
0.103778
-0.038546
0.058856
0.004970
0.092601
0.112291
0.061057
-0.031214
-0.016798
-0.023681
-0.096375
-0.014695
0.064711
0.006117
-0.162800
-0.150423
-0.116557
0.035019
0.058785
-0.142293
-0.091638
-0.155292
-0.070904
0.092084
0.044293
-0.015565
-0.038814
-0.022935
0.094333
0.075637
0.108439
0.003457
-0.076740
0.077982
-0.013769
0.053086
-0.176875
-0.146477
-0.219842
-0.044750
-0.037740
-0.172854
-0.018798
-0.209334
-0.365273
-0.263715
-0.233607
0.057169
0.005250
0.105958
0.090216
-0.001442
0.146119
0.179296
0.169116
0.083376
-0.056993
-0.045417
0.018983
0.045004
-0.014121
-0.123365
-0.014223
-0.132626
-0.158487
-0.237766
-0.273485
0.016909
-0.001804
0.016080
-0.089650
-0.236591
0.069541
0.041142
0.127922
0.036217
-0.031695
0.019745
0.101442
0.072533
0.035185
-0.028413
-0.051650
-0.029904
-0.215290
-0.160035
-0.218396
0.025214
-0.107373
-0.210265
-0.268098
-0.291227
-0.030010
0.005411
-0.078968
-0.082886
-0.062190
-0.072867
-0.000183
0.044977
0.119662
0.237303
0.046713
0.103772
0.145281
0.095378
-0.012598
0.142458
0.215509
0.319988
0.215466
0.189620
-0.092997
-0.139017
0.075025
0.112639
-0.014950
-0.167404
-0.280599
-0.134173
-0.232949
-0.236108
0.044032
0.078681
0.028506
0.127491
0.132901
0.032498
0.170836
0.057555
0.097458
-0.015045
0.104489
0.132102
0.155986
0.032588
0.005251
-0.010987
-0.037620
-0.179326
0.010321
-0.140237
0.059930
0.039284
-0.167014
-0.099767
-0.168766
0.019810
0.045449
-0.125635
-0.139508
-0.140231
-0.036505
0.053033
-0.080383
-0.040021
0.087955
-0.060660
0.104316
0.082486
0.118667
-0.064430
-0.026422
0.011794
0.034103
0.026456
-0.011652
0.013238
-0.099290
0.098824
0.146191
0.007203
0.027938
-0.028982
0.036895
0.051484
-0.063855
-0.123617
-0.062591
-0.021276
0.006332
-0.028105
-0.027613
-0.145766
-0.238693
-0.145543
-0.029460
0.013045
0.008989
-0.064836
-0.016508
-0.100577
-0.033774
0.062064
-0.012182
0.025966
-0.058735
-0.082185
-0.001742
-0.087620
-0.026144
-0.154947
0.062054
-0.140144
-0.139265
-0.147680
-0.077641
0.062715
0.072311
0.106491
0.127849
0.101149
0.081206
0.040776
0.092520
0.112607
0.076254
-0.055044
-0.024444
0.050777
0.032848
-0.001337
-0.011611
-0.024593
-0.071696
-0.132564
-0.145176
0.033908
0.005044
-0.006411
-0.039519
-0.098778
0.018818
0.114199
0.133919
0.073144
0.146222
-0.099611
0.085227
-0.005083
0.090064
0.022570
-0.141816
-0.186715
-0.171639
-0.078571
-0.126873
-0.108440
-0.012311
0.127340
0.206690
0.088276
-0.082907
-0.050106
-0.033298
0.047251
-0.010325
0.083174
-0.106802
-0.126563
-0.144097
0.038215
0.087967
0.274235
0.208543
0.355815
0.189901
0.022557
0.167421
0.128601
0.184138
-0.022034
-0.042773
-0.026365
-0.033706
0.103530
0.093607
-0.018781
-0.063777
-0.128717
0.028794
-0.038078
0.119006
0.143118
0.074195
-0.061069
-0.036663
0.027959
0.110803
0.177219
0.081830
0.095077
0.012382
-0.022747
0.097919
0.044288
-0.075411
-0.038541
-0.152164
-0.143089
-0.041812
0.059629
0.046845
-0.050694
-0.091299
-0.080476
0.024985
-0.065750
0.060799
0.020146
-0.103835
-0.024116
0.035481
0.005987
0.082082
0.068036
-0.106984
0.097264
-0.002345
-0.021833
0.118352
-0.026758
-0.071292
-0.075278
-0.020228
-0.080000
-0.037398
-0.118257
-0.170052
-0.067455
-0.010508
0.058160
-0.021465
-0.146169
-0.217472
-0.263122
-0.017027
0.023081
0.029658
-0.040903
-0.104708
-0.062900
-0.014936
0.115910
0.017253
0.084048
-0.122691
-0.049824
-0.109889
0.037488
0.103661
-0.049780
0.132648
-0.088190
-0.182754
0.030602
0.002241
0.149643
0.058388
-0.082337
-0.114628
-0.036543
-0.053545
0.163022
0.088858
0.178277
-0.037583
-0.011561
-0.008911
0.100595
0.140274
-0.045266
-0.060217
-0.140511
-0.050930
0.027364
0.018513
0.008302
0.021447
-0.101455
-0.186501
-0.151086
0.040205
0.095792
0.002572
-0.039693
-0.062939
-0.067096
0.015270
0.081959
0.102667
-0.017816
0.021884
0.038342
0.028153
0.086096
0.026280
-0.115309
-0.032146
0.128007
0.253765
0.155746
0.049146
-0.088414
0.022864
0.327383
0.269400
0.146603
0.161260
-0.161198
-0.222506
-0.035991
0.033855
0.109839
0.075063
-0.135421
-0.098346
-0.180037
-0.025975
0.158442
0.161199
0.123328
-0.087660
-0.066978
-0.025119
0.005667
0.128366
-0.038658
-0.035789
-0.088397
0.015898
0.202343
0.224795
0.159832
0.145988
-0.229192
-0.099552
-0.090213
0.105668
0.235482
0.204921
-0.157259
-0.111964
-0.012785
0.068328
0.203015
0.032926
-0.064192
0.047515
0.076698
0.044064
0.007355
-0.026248
0.044170
0.107747
-0.012111
-0.069020
-0.009752
-0.142254
-0.117261
-0.060032
0.072266
0.011928
0.096055
0.011636
0.043976
0.080306
0.022443
-0.063829
0.036286
-0.057370
-0.121080
0.014768
-0.135726
-0.239662
-0.129372
-0.032218
-0.039095
-0.179047
-0.048527
0.044478
-0.031904
-0.055390
-0.025361
0.112587
0.017980
-0.038443
-0.074088
-0.075773
-0.130152
-0.133258
0.028734
-0.060090
-0.141943
-0.114671
0.019643
0.012632
-0.184422
-0.172635
-0.071333
0.019532
0.079760
0.030629
0.088639
0.243902
0.161946
0.096429
-0.055220
0.064219
0.014299
-0.091747
-0.175918
-0.018395
-0.265015
-0.139603
-0.066670
0.096072
0.060567
0.096262
0.092985
0.127097
0.113051
0.013734
-0.018535
-0.042194
0.044533
0.117125
0.102994
0.138614
0.049111
0.134808
0.000394
-0.074926
-0.075258
-0.138419
-0.213861
-0.111579
-0.056887
-0.077509
-0.048993
-0.159536
0.002989
-0.012282
-0.045551
0.072656
0.106957
0.048499
-0.237423
-0.027909
-0.089600
-0.179736
-0.100838
-0.040126
-0.063961
-0.035064
0.225365
0.323840
0.064110
0.377931
0.497383
0.397429
0.182709
-0.154342
-0.116870
-0.037658
-0.202640
-0.350814
-0.038240
-0.227016
-0.263440
0.016247
0.127110
-0.118690
-0.102948
-0.271517
-0.175746
-0.191720
-0.005258
0.156628
-0.027381
-0.030948
0.035801
0.015699
0.231784
0.183620
0.196047
0.097968
0.096758
-0.060100
-0.147569
-0.067640
-0.201219
-0.032414
0.066689
-0.036272
-0.046021
-0.051278
-0.199731
-0.123308
0.098481
0.100255
-0.169693
0.003204
0.187124
0.011065
0.022328
-0.101577
-0.027626
0.056379
-0.028589
0.096179
-0.053389
-0.015127
-0.030171
0.085700
0.069471
0.021058
0.025453
0.043956
-0.017358
-0.059272
-0.075841
-0.138854
-0.007594
0.158120
0.141606
-0.124465
-0.143973
0.140937
0.183553
-0.062714
-0.250048
0.001696
0.204143
0.027245
-0.240579
-0.207271
0.219413
0.075172
-0.133024
-0.123074
-0.056252
0.075708
-0.099891
-0.093516
-0.127489
-0.166460
-0.098742
-0.147646
-0.060714
0.052005
-0.119137
-0.159352
-0.012481
0.148009
0.064398
-0.181545
0.111429
0.005440
0.124692
-0.019030
0.009929
0.100091
0.075073
-0.001190
0.051432
-0.034134
-0.053568
-0.014390
0.105513
-0.105936
-0.060955
-0.070850
-0.223122
0.085088
0.094312
-0.033650
-0.189418
-0.126773
0.140679
0.036705
-0.049547
-0.070764
0.042622
0.118777
-0.123796
-0.119355
0.076353
0.195162
0.049090
-0.126038
-0.020381
0.142931
0.002194
-0.138768
-0.074389
-0.033196
0.056407
0.140625
0.013527
-0.082079
-0.185928
0.013218
-0.220483
0.052215
-0.014450
-0.031657
-0.155285
-0.144211
0.098809
0.160282
0.053841
-0.033555
0.078564
0.097341
0.009945
0.142380
-0.120881
-0.067836
-0.040973
0.116588
0.004620
0.079888
-0.096351
0.028706
0.198436
0.004073
-0.121412
-0.244214
0.048032
0.151664
-0.090290
-0.084761
-0.144742
0.001181
0.203478
0.054367
-0.223443
0.091906
0.072553
-0.039248
0.117983
-0.084333
0.163796
0.002212
-0.044226
0.096014
-0.047217
-0.149227
0.042101
0.062515
0.098258
-0.045125
0.046989
0.090442
0.168443
-0.037290
-0.097249
0.064989
0.016912
0.092051
0.063604
0.042820
0.015596
0.103554
0.008680
-0.041461
0.043477
0.048518
0.047468
0.018348
-0.077118
-0.006639
-0.130018
0.048025
0.005092
-0.017381
-0.048948
-0.023094
0.182631
0.113401
-0.061561
-0.103267
0.002379
0.130844
-0.003858
-0.027675
-0.064519
0.101511
0.108262
-0.132356
-0.066981
-0.077344
-0.076662
-0.147186
-0.231076
-0.098840
-0.128329
-0.008702
-0.015107
0.051734
0.075238
-0.044593
-0.031287
0.022053
0.066469
0.084305
0.013075
0.106316
0.074110
0.091458
-0.050578
-0.013756
0.077087
-0.022442
0.017154
-0.009252
-0.093018
0.020834
-0.051303
-0.048739
-0.138760
0.068313
-0.030028
-0.071181
0.001008
0.136902
0.031255
-0.110847
0.095950
0.039874
0.123295
-0.012046
-0.126505
-0.000811
0.149973
-0.045200
0.035372
0.043749
0.136635
0.033287
-0.100027
-0.017405
0.022749
0.006799
0.030474
-0.091797
-0.000314
0.028366
0.077030
-0.208704
-0.168757
-0.093968
-0.054215
-0.189406
-0.207617
0.025508
-0.085643
-0.092359
-0.185694
-0.022417
-0.128482
0.082871
-0.033173
-0.067002
-0.010161
-0.000863
0.023717
0.017365
0.057523
0.070656
0.110842
0.085845
-0.055102
0.055778
0.071216
0.115542
0.041250
-0.103099
0.035544
-0.017553
-0.044732
0.040419
-0.191648
-0.034765
0.018858
0.007945
-0.059726
-0.087040
-0.017102
0.064897
-0.051550
-0.041962
-0.061286
0.066733
0.092373
-0.012480
