-0.014272
0.049406
0.039306
-0.089558
-0.001341
-0.096455
-0.000556
0.110445
0.077936
0.052190
0.118556
-0.093008
-0.104082
0.139035
-0.043760
0.047323
-0.161727
-0.004138
0.050180
0.075290
0.064403
-0.069760
-0.074915
0.039195
-0.036617
0.074025
-0.072773
-0.089108
-0.064010
-0.079825
-0.070985
-0.039449
0.059293
-0.085203
0.085870
-0.037188
0.119061
-0.049080
-0.005420
-0.030360
0.116931
0.053827
0.038791
0.015667
0.001450
0.108009
-0.157150
-0.076798
0.031180
0.051026
0.011884
0.005255
0.102497
0.012291
0.034586
-0.093807
-0.048574
-0.000696
-0.010582
0.034741
0.019025
-0.144110
-0.025722
0.023700
-0.053804
-0.091192
-0.215135
0.119660
0.071972
-0.058510
0.075225
0.064088
-0.029184
-0.037735
0.024922
-0.162280
0.017375
-0.045381
0.064367
-0.066427
0.072299
0.062679
-0.116621
-0.006624
-0.078097
0.057300
0.100924
0.070955
0.082710
-0.023178
0.144978
-0.073784
0.088414
0.017942
-0.120195
-0.042093
0.063055
-0.001420
0.088376
0.049434
0.071291
0.069844
-0.015615
0.073422
0.008055
0.032300
-0.107779
0.011664
0.177373
0.008620
0.026781
-0.088082
-0.047662
0.216620
0.013020
-0.040304
0.050480
-0.050134
0.030661
0.087474
0.012818
0.021945
0.107848
-0.074453
0.064497
0.062078
0.010094
-0.044345
-0.032231
-0.104587
0.025839
0.003752
0.106670
0.146473
-0.106637
0.123438
0.017244
-0.130067
0.008947
-0.051961
-0.008253
0.067620
0.073853
-0.008026
0.019023
-0.098629
-0.079364
0.092173
0.021697
0.035965
0.052378
0.099782
-0.021881
0.064984
0.073117
-0.178795
0.121670
-0.040902
0.065394
0.064404
-0.078456
-0.089166
0.056812
-0.035652
0.001810
0.022030
-0.012349
-0.072806
0.033000
-0.073240
-0.051572
-0.141280
-0.037569
-0.015492
-0.020420
0.097896
0.015531
-0.012306
0.035193
0.098337
0.031188
0.099676
0.031474
0.049654
-0.088097
0.047165
0.104037
0.052760
-0.015191
-0.061451
-0.099213
-0.010755
-0.028541
0.123239
0.159740
-0.043273
-0.103394
0.057828
0.051385
0.058843
-0.028258
-0.035919
0.054299
-0.103073
0.043122
-0.042473
-0.066119
-0.035155
-0.076706
0.045577
0.008300
0.000820
0.043237
-0.004637
-0.073761
-0.074669
0.059649
-0.050416
-0.184711
0.058599
0.050955
0.019014
-0.008447
0.094867
-0.058443
-0.105888
-0.008638
0.005660
-0.011689
0.059517
-0.016810
-0.077675
0.114127
-0.154661
-0.089971
-0.002468
0.050016
0.076953
0.120405
-0.002799
-0.084704
0.031569
-0.008902
-0.065150
0.001507
-0.121159
0.095785
-0.009361
0.099399
0.254773
0.036269
0.132229
-0.025639
-0.045450
-0.050187
0.190401
-0.073193
-0.193289
-0.073386
-0.063927
-0.052234
0.031282
0.106744
0.022484
0.070865
0.152132
-0.021511
0.026407
-0.090019
0.040910
0.086655
0.044545
-0.087937
0.056044
0.011791
0.042511
0.163229
0.094204
0.129489
0.019275
-0.004404
0.087003
0.062138
0.002306
0.040996
0.030955
-0.017734
-0.047134
-0.106049
-0.057818
-0.007194
-0.032506
0.129998
0.056360
0.012657
-0.129192
0.051584
0.029403
0.241837
0.058230
0.052897
-0.026260
0.137528
-0.082421
0.091090
-0.012236
-0.000495
0.103676
-0.010251
-0.036811
0.080919
-0.050039
0.036972
0.067576
0.179759
0.190406
-0.035508
0.010957
-0.006737
-0.029087
0.068412
-0.153535
-0.015648
-0.058713
-0.001167
-0.041226
0.133951
0.036982
0.122797
-0.096917
0.195619
-0.053978
0.056232
-0.038585
-0.021235
0.004063
0.038959
-0.175872
-0.028679
0.058962
-0.091073
-0.019851
0.069017
-0.128816
0.046383
0.023872
0.001597
-0.098852
-0.091671
0.061597
-0.077787
-0.050262
0.205669
-0.122800
0.047612
-0.041989
-0.005338
-0.011369
0.010747
0.020133
-0.207651
-0.045899
-0.054689
-0.043194
-0.091931
-0.062059
-0.063278
-0.069557
-0.106464
-0.119507
-0.032758
-0.160377
0.085752
0.103125
-0.213985
0.217573
-0.136642
-0.128944
0.036706
0.088301
-0.017575
0.063360
0.118627
0.009170
-0.030816
-0.006806
0.086764
-0.036585
0.177809
-0.065469
-0.054648
-0.082930
0.058740
-0.019653
0.085847
0.070985
0.184360
0.002028
-0.090130
0.051977
0.102437
-0.056372
0.060148
0.030387
0.038441
0.029352
0.134438
-0.029044
-0.028176
-0.115038
-0.119125
-0.079333
0.068091
-0.028450
-0.097422
0.149714
0.005005
-0.042851
0.093503
-0.014117
-0.038824
-0.063413
0.048697
0.132369
-0.065748
-0.061063
-0.023406
0.071352
-0.032139
0.064796
-0.025279
0.015350
0.012352
0.101547
0.018844
0.024612
-0.228885
0.043468
-0.034805
0.067867
0.055166
0.058080
0.134174
-0.043846
-0.021847
0.020235
0.170292
-0.024147
-0.066797
0.063635
0.194993
0.023039
-0.075708
0.206895
0.109500
-0.013605
0.019603
0.130241
0.007281
0.137074
-0.017180
-0.063156
-0.031687
0.056236
-0.101046
-0.057396
-0.005613
0.101958
0.060846
0.077625
-0.048597
0.026633
-0.127688
-0.176625
-0.043166
-0.020585
0.092788
0.027383
0.087056
0.079511
0.129410
-0.027108
-0.017155
-0.062769
0.043400
-0.027897
-0.082216
0.005584
0.101879
-0.071050
0.098311
-0.028105
-0.133953
0.145597
0.069816
0.081890
0.094152
0.059616
-0.047248
0.052541
0.044897
0.065242
-0.057948
-0.065483
0.108911
-0.027039
0.090319
0.061207
0.001868
0.088275
0.028970
-0.075909
0.029459
-0.039707
-0.078619
-0.079881
-0.006146
0.077927
0.045230
0.069290
-0.066689
-0.090774
0.070149
-0.037970
-0.076898
-0.113743
0.026276
-0.027768
0.063155
0.060634
-0.007360
0.051689
-0.155966
0.065724
0.054743
-0.034694
0.017186
0.013698
-0.166072
0.013469
0.068372
0.113875
0.110308
-0.131764
0.050256
0.005594
-0.044984
0.136021
-0.178688
-0.050428
-0.003282
0.030152
0.047103
-0.161592
-0.035256
-0.104523
-0.002167
-0.045344
0.100224
-0.060116
-0.003735
0.107469
0.034942
0.034804
0.128623
0.082565
-0.140930
-0.064388
-0.046257
-0.041641
-0.141219
-0.031617
0.044248
-0.073407
0.025295
-0.067225
-0.020611
0.067495
0.054860
-0.132225
0.069475
0.004076
-0.014193
0.102792
0.006889
0.011927
0.018794
0.104542
0.201281
-0.177303
0.114887
-0.017629
-0.028081
0.139863
-0.144952
-0.021052
0.028010
-0.048655
-0.044620
0.128589
-0.017528
0.129951
-0.041542
0.001761
0.059829
-0.055793
-0.018444
0.009888
-0.076269
0.003310
-0.100699
0.101788
0.051896
-0.183155
-0.129796
0.146242
-0.070327
0.054627
0.069246
-0.057936
-0.039812
-0.008026
-0.080631
0.072940
0.049862
-0.009012
0.039107
-0.188429
0.079670
-0.018393
0.155671
0.054129
0.026612
-0.075647
0.117489
0.090543
0.213668
0.059225
0.078108
0.048812
0.097850
-0.064911
-0.045497
0.081216
0.043450
-0.080944
0.006156
-0.004855
0.086209
-0.090068
-0.085647
-0.041660
0.085167
0.005957
0.075132
-0.044773
-0.141902
-0.034378
-0.058931
-0.076609
-0.053304
-0.024603
0.009814
0.061504
-0.065244
-0.068650
0.017142
0.004357
-0.130099
-0.095010
-0.078259
-0.017137
-0.043129
-0.079039
-0.034272
-0.000006
0.108718
0.067849
0.036888
-0.022433
0.079063
0.027055
0.071348
0.148876
-0.168843
0.074723
-0.062010
0.036365
-0.041180
0.004038
0.126574
-0.020916
-0.001608
0.105919
0.007531
-0.069568
-0.153009
-0.139403
0.088939
0.085775
0.019127
-0.038739
-0.034977
0.067849
-0.040139
0.158524
0.037578
0.018506
-0.131478
0.048306
-0.058312
0.023309
0.025603
-0.228633
0.087306
-0.029538
-0.094750
-0.030890
-0.080363
0.044399
0.070516
0.030391
-0.113884
-0.091225
-0.152543
-0.136029
0.028262
0.125509
0.097122
-0.128539
0.004888
0.013160
-0.117023
-0.091046
0.090977
-0.200413
-0.067312
0.175036
-0.025488
-0.098046
0.118993
0.053110
0.044340
0.051312
0.031812
0.111197
0.037830
-0.003416
-0.000180
0.158642
-0.084829
-0.010190
0.129292
0.053949
-0.119127
-0.020588
0.001599
-0.015350
-0.039472
-0.118324
-0.033102
0.099424
-0.010812
0.067759
0.007585
0.047627
-0.004688
0.044519
-0.053314
-0.011124
-0.009098
0.019165
-0.180596
-0.093306
-0.023616
0.091875
0.070032
-0.053789
0.057166
0.066646
0.067055
0.107264
-0.102117
0.100736
0.001200
0.040416
0.137482
-0.034476
0.099674
0.012466
-0.008085
0.139833
0.029801
-0.022207
0.044691
0.040390
-0.001450
-0.051088
0.102493
0.040626
0.101328
0.073405
-0.093208
0.107846
0.136410
-0.118741
0.132147
-0.091829
0.036518
-0.071085
-0.048127
-0.017944
-0.027864
-0.001376
-0.040286
0.038540
0.220593
0.147866
0.069862
-0.038006
-0.024474
-0.101601
0.049025
0.099871
-0.038329
-0.031267
0.032068
0.022582
-0.011979
-0.023834
0.068973
0.019431
-0.043946
0.065101
0.077342
0.004389
-0.146848
-0.027199
0.005376
-0.021267
-0.036847
-0.043467
0.019870
0.103316
-0.016443
-0.043293
0.045004
0.048813
0.055349
0.155947
-0.009054
0.130018
-0.066411
-0.126007
0.047023
0.153340
-0.065192
-0.091719
-0.006774
-0.027214
0.131786
0.086950
-0.023217
0.008300
-0.008971
0.132551
-0.017297
0.053146
0.037152
0.173864
-0.147842
-0.033274
-0.004911
-0.046468
-0.098763
0.039462
-0.035333
0.100131
0.035698
0.042682
-0.008756
0.073504
0.009713
0.015915
0.017047
0.075444
0.008905
0.020462
0.013170
-0.159832
-0.047361
0.072466
0.117650
-0.077485
-0.074487
-0.016426
-0.038589
0.033841
0.142014
0.076058
-0.018389
0.065325
0.109240
0.012846
-0.011934
0.042948
0.023728
0.070806
0.062153
0.034356
-0.015408
0.016556
0.012964
0.209602
0.204569
0.131657
-0.049961
0.012862
-0.072130
0.067748
0.060537
-0.019237
0.076954
0.054877
-0.033879
-0.286002
0.181763
0.038293
0.072002
0.077261
0.097404
-0.081704
-0.087306
-0.139350
-0.010894
0.037245
0.121033
-0.002586
-0.148017
-0.219699
0.017999
-0.087359
0.000682
-0.188745
-0.041675
-0.086044
0.073155
-0.188597
0.098828
0.041510
-0.010003
-0.071237
0.036515
0.149533
0.002407
-0.042736
0.053439
-0.074387
-0.034260
-0.024448
-0.071328
0.058274
0.071767
0.049346
-0.030122
-0.148704
-0.172144
0.140428
-0.133058
-0.044911
-0.027408
-0.027342
-0.089675
0.117980
0.098933
0.040797
0.020730
-0.045800
0.017543
0.151342
0.028726
-0.041996
-0.024110
-0.004293
0.026252
0.002128
-0.116381
-0.044709
0.079308
0.052074
-0.081345
-0.036636
0.035700
0.069597
-0.014234
0.114197
-0.057263
0.060020
-0.132386
0.034356
-0.136624
0.038298
-0.026938
-0.017595
0.077572
0.038100
0.131731
0.026310
0.068777
-0.018608
-0.090879
-0.082217
-0.126078
0.090606
0.100486
0.050126
0.068111
0.077575
-0.067096
0.011090
-0.017231
-0.022593
-0.102784
0.166852
-0.052562
-0.048467
0.181329
0.169188
0.068048
0.093711
0.008167
0.094001
0.057059
0.014463
0.062289
0.131787
-0.090660
-0.084629
0.065371
0.052817
0.106202
0.061556
0.004623
0.085075
0.051563
-0.104093
0.060256
0.104176
0.001700
0.124005
-0.128246
0.060020
0.016753
-0.006792
0.032922
0.018419
-0.064989
0.018106
0.110673
-0.000608
0.027228
-0.027500
-0.079224
-0.009381
-0.084070
-0.081242
-0.091387
-0.008116
0.116702
-0.043019
0.108758
0.026282
0.027265
0.272934
-0.146243
-0.077833
0.112826
-0.066820
0.118175
0.040965
-0.036562
-0.054946
-0.034202
0.012389
-0.024255
-0.010963
0.090566
0.150851
-0.021546
0.020367
0.103351
-0.060417
-0.063784
-0.066376
0.058318
0.101293
0.011960
-0.101583
0.064359
-0.090349
-0.145321
-0.026131
0.106489
0.027359
0.041317
0.148536
0.037821
0.012616
0.048398
0.188570
-0.010292
0.080663
0.057089
0.073480
0.091133
0.059144
0.105032
0.024846
-0.129912
0.165923
-0.048580
-0.068589
0.020456
0.079768
0.061235
-0.012717
-0.006279
-0.025774
-0.052264
0.078342
-0.048844
0.022703
-0.038037
0.005413
-0.039722
0.006957
-0.052559
0.085689
0.173935
-0.034954
-0.004428
0.031445
-0.177229
-0.045856
0.054869
-0.068989
0.092125
0.141807
0.115117
0.021007
0.050491
-0.018682
-0.069514
0.027077
0.078712
-0.074583
-0.002444
-0.085966
-0.017887
-0.072871
-0.027404
0.093007
-0.045298
0.153426
-0.005301
-0.131428
0.195614
0.133615
0.028133
0.122564
0.216238
-0.020148
0.043349
0.063157
0.113150
0.042806
0.049165
0.088304
0.060210
0.127872
0.074645
0.012004
0.001822
0.046141
0.076154
0.040944
-0.035960
-0.045894
-0.003954
0.073596
-0.087186
-0.082707
-0.085920
-0.205594
-0.076487
0.033890
-0.067842
-0.097261
-0.027976
-0.128729
0.016417
0.042165
-0.104930
0.010707
-0.041427
-0.140077
-0.052340
0.073595
-0.038061
0.100332
-0.036460
-0.029653
-0.148386
0.078476
0.020926
0.143223
-0.187415
-0.049892
0.006568
-0.077499
0.136997
0.012755
0.110661
-0.068858
-0.013487
0.257936
-0.066985
-0.034772
-0.012673
0.094794
-0.049208
-0.041185
0.042186
0.032546
0.130644
-0.044702
0.140493
0.044019
0.024703
-0.062510
-0.000740
-0.047321
-0.039736
-0.054919
0.035812
0.217552
-0.030779
-0.008070
0.078793
-0.047926
-0.011465
0.055588
0.007123
0.095745
-0.045409
-0.056517
0.067831
0.046615
0.058238
0.091261
0.002390
0.011228
-0.057953
0.045450
0.067277
0.034810
0.136090
0.088382
-0.071405
0.030306
0.061351
-0.054426
0.136138
0.086580
0.069973
0.117124
-0.006691
0.081820
0.075991
-0.020338
0.013587
0.029301
0.064663
0.093169
0.071651
0.047421
0.144729
0.067028
0.113833
-0.036175
-0.037090
0.103640
0.029992
0.049582
-0.129651
0.102617
0.117708
0.002706
0.065381
0.086130
-0.115769
0.013032
0.069658
0.002219
-0.073101
0.102493
-0.060502
-0.147220
0.054538
0.028826
0.068115
0.084988
-0.043565
0.014999
-0.166046
-0.007564
-0.005570
0.040525
-0.003695
0.165588
0.037079
-0.074387
-0.018241
-0.059519
-0.029730
0.129381
0.133246
-0.105884
0.050202
0.010825
0.081616
0.067402
0.090096
-0.049329
-0.036782
-0.078593
0.143445
0.097712
0.003873
0.020721
-0.011130
-0.148989
0.011958
-0.042895
0.067997
-0.114304
0.094434
-0.075032
0.037660
0.080380
-0.024651
0.126020
-0.052511
0.052725
-0.003574
0.010345
-0.019036
-0.008923
-0.012480
0.025954
0.058645
0.071403
0.028632
-0.027566
-0.066539
-0.276914
-0.151862
-0.085606
-0.072504
0.124350
0.052883
-0.006870
0.075065
-0.072384
0.038526
-0.074158
0.086206
-0.052393
0.020776
-0.087655
-0.052611
-0.034564
-0.084728
-0.155353
-0.001246
-0.027257
-0.222099
-0.003050
-0.039595
-0.012211
0.064575
-0.190525
-0.085523
-0.004347
-0.097000
-0.114017
0.147151
-0.090659
0.008528
0.079021
0.068293
0.026374
-0.066572
0.048444
-0.059202
-0.003694
-0.186260
-0.060062
-0.015523
-0.050635
0.166583
-0.052838
0.011449
-0.052330
-0.043174
-0.039711
-0.058894
0.053192
-0.008793
0.126166
0.004221
-0.004496
0.008781
-0.027189
0.097962
0.105518
0.017840
0.003968
-0.057215
-0.007657
0.011035
-0.047476
0.019096
-0.138436
0.146979
0.013562
0.016156
0.024834
-0.065172
0.007862
-0.043213
0.028290
0.020324
-0.065175
0.125656
0.093953
0.030044
-0.052821
-0.143935
-0.190917
0.045981
0.002372
0.038061
0.088684
-0.091018
-0.171202
-0.079508
-0.102031
-0.025546
0.026011
0.005874
-0.059922
0.049964
-0.075435
0.002611
-0.115115
0.145225
-0.025015
0.013656
0.012711
-0.023190
0.035325
-0.003048
-0.086561
0.041803
-0.132735
0.019399
0.090288
-0.049046
-0.112803
0.048627
0.079309
-0.007902
-0.040324
0.073190
-0.078624
0.066511
0.042652
0.007803
0.093357
0.071595
0.051595
-0.064153
-0.204781
0.019692
-0.007635
-0.010357
0.078178
0.056482
0.087816
-0.040361
0.095077
-0.034387
-0.049873
-0.036997
-0.069863
-0.088630
-0.239353
0.037773
0.014782
-0.019780
-0.086957
-0.028398
-0.067809
-0.148682
0.001100
-0.081665
0.056781
-0.071289
0.034306
0.112013
0.069783
0.002901
0.123990
0.040419
-0.002959
0.132825
-0.146064
-0.015537
-0.083891
0.005665
0.017974
-0.203814
-0.081291
0.103897
0.019201
0.169611
0.125488
0.063026
0.105747
0.010644
-0.045659
0.045902
0.075134
-0.136911
0.002506
-0.091078
0.020046
-0.005914
-0.039541
0.048500
0.059920
-0.051845
0.006871
-0.021271
0.064124
-0.012264
0.033818
-0.055321
0.011556
-0.008799
-0.037798
-0.070920
-0.051393
-0.116849
0.022947
-0.075826
-0.107869
-0.036409
0.063080
0.104466
-0.120443
0.143808
-0.035545
-0.111456
0.053369
0.074512
-0.154621
0.001842
0.101162
-0.073425
-0.015894
0.096022
-0.080137
-0.031113
0.045355
-0.060777
0.200034
0.180144
-0.143107
0.062960
0.216901
-0.087073
-0.027348
-0.008983
-0.085828
0.140995
0.009713
-0.064297
0.118962
-0.090223
-0.030925
0.083186
-0.055698
-0.092866
-0.184902
0.001078
0.018499
-0.021525
0.095218
0.050168
0.052397
-0.021532
-0.128277
0.058406
-0.003616
-0.069771
-0.072338
0.089085
-0.049508
0.020687
0.046237
-0.014079
0.113828
-0.025350
0.086742
0.004174
0.036538
0.005758
-0.027196
0.048266
-0.010882
-0.127456
0.134171
0.029675
-0.189340
-0.118395
-0.088100
0.018285
0.040958
-0.080828
0.023440
-0.089014
0.069093
-0.056689
-0.023839
0.072797
0.070445
0.014188
-0.021409
0.169966
0.021825
-0.036569
0.109479
0.100645
0.058662
0.049376
0.041489
-0.071314
0.067971
-0.023829
0.068433
-0.026137
-0.134980
-0.010345
0.143856
-0.028540
0.017070
-0.008613
0.065454
-0.047415
-0.035321
-0.079397
0.112681
0.107602
0.063839
0.084319
-0.026436
0.066351
0.011616
0.020849
0.051179
0.093264
-0.048316
0.099212
0.163829
-0.065049
-0.081631
-0.028770
-0.017951
-0.055087
0.071327
0.132099
0.077840
0.004887
-0.195733
0.201083
-0.043158
-0.060390
0.008278
0.063008
-0.086155
-0.122316
-0.010217
0.070797
-0.244833
0.076707
0.022716
0.131509
-0.130076
0.092564
-0.124310
-0.035990
0.061274
-0.021185
0.147585
-0.123923
0.009265
0.083915
0.042812
0.181426
-0.035364
-0.064016
-0.063655
-0.059612
0.134445
0.078850
0.057693
0.062684
-0.001487
0.043064
-0.005815
-0.047931
-0.055698
-0.043142
0.020746
0.093675
0.085760
-0.148859
0.077203
0.068498
-0.147651
0.125238
0.033126
0.030244
-0.060034
-0.039080
0.006462
0.081857
0.089837
-0.011981
-0.042393
0.003290
-0.023668
-0.018617
-0.011503
-0.097153
0.003064
0.077622
0.076092
0.063999
0.041800
0.091450
-0.064067
0.059960
0.025610
-0.183308
-0.090269
0.072853
-0.022709
-0.056895
0.071175
0.068708
-0.035435
0.021548
0.046026
-0.009993
0.132347
-0.007494
-0.177022
-0.030041
0.099959
-0.154121
0.072391
-0.014036
-0.110173
0.129741
0.177511
0.014957
-0.015551
0.103474
-0.007966
-0.090042
0.007697
0.127328
-0.017404
0.069404
-0.080767
0.004328
0.051551
0.114185
0.054382
-0.015654
-0.025318
0.050532
0.028286
-0.076991
-0.010587
0.003569
-0.100026
0.037560
-0.039031
0.092264
-0.012165
-0.056639
-0.002685
-0.005366
-0.084651
-0.028331
0.017764
-0.152667
-0.203887
-0.128422
-0.039947
0.042786
-0.039503
0.045267
-0.034627
0.139284
-0.085124
-0.043984
0.030406
-0.099183
0.017963
-0.046753
0.023841
0.159945
0.030880
-0.086513
0.165319
-0.060298
0.080465
-0.003169
-0.045390
0.022501
-0.020131
-0.111698
-0.077593
0.075775
-0.009150
0.045965
0.040568
0.143314
-0.093278
0.037330
0.074216
-0.054299
0.054752
-0.068801
-0.126035
-0.034171
-0.098520
-0.186745
-0.067550
-0.026979
0.002953
0.137820
-0.045124
0.153353
0.038940
-0.048738
-0.005269
-0.083331
0.026120
0.005229
0.047684
-0.009296
0.041000
-0.057893
-0.016224
-0.024915
-0.084499
-0.088374
0.030025
-0.034479
0.095445
0.001139
0.004314
0.030136
0.063868
0.160570
0.072853
-0.051938
0.034840
0.024404
-0.057778
0.036221
0.016479
0.031911
0.135122
0.035386
0.044895
-0.002438
-0.072969
0.101496
0.097044
-0.039560
0.139350
-0.096416
0.071589
-0.066755
0.031188
0.037433
0.012621
0.288641
-0.058137
-0.071086
-0.017991
0.014007
-0.003876
0.016558
0.086671
-0.001563
-0.000438
-0.048266
0.121545
0.061940
-0.207514
0.094141
0.048396
0.029798
-0.064474
0.117501
0.083327
0.046623
-0.247221
0.049162
-0.047180
-0.098088
-0.058886
0.073594
-0.140663
-0.120046
0.070803
0.107868
0.042469
0.033882
0.011424
-0.089907
-0.145587
0.022068
-0.122333
0.030667
-0.030143
-0.121360
0.217540
-0.084737
-0.053946
-0.109500
0.030504
0.024548
-0.077183
-0.007600
0.068605
0.023584
0.145150
-0.013368
-0.001636
-0.054332
0.124934
0.123789
-0.013469
0.123747
0.005011
0.051056
0.013902
-0.055816
0.002175
-0.059147
0.027878
0.003284
-0.282381
-0.063166
0.027102
0.009089
-0.024115
-0.219071
-0.096665
0.143273
0.050293
0.061791
0.024484
0.036385
-0.023125
-0.028500
-0.020622
-0.044905
0.030374
0.060539
0.059814
0.010821
-0.087511
0.066498
0.085226
-0.078322
-0.052798
-0.014703
0.064188
-0.099558
0.131820
-0.099151
0.046365
0.160477
0.047683
-0.059459
0.080913
-0.068672
0.062274
-0.040756
-0.035142
-0.035271
0.023230
-0.061649
-0.084921
0.018627
0.078903
0.066410
0.137368
0.003938
-0.050026
-0.024450
-0.018867
-0.106543
0.065846
-0.041443
-0.051891
0.077482
0.044481
0.009338
-0.104029
-0.020786
0.025653
0.000185
-0.028856
-0.026330
-0.037900
0.031175
-0.049924
0.010116
0.021759
0.004889
-0.020517
-0.110082
0.029013
-0.037369
-0.006051
-0.118402
-0.114278
-0.012639
-0.001275
-0.052786
-0.014005
0.055123
0.068556
0.026203
0.050632
0.015613
-0.015872
-0.005912
0.039153
0.053837
-0.008715
-0.004971
-0.014581
-0.103519
0.048113
0.035434
-0.042434
0.012550
0.022015
0.004160
-0.041688
-0.002042
-0.061997
0.025417
-0.099896
-0.040191
0.087665
0.062396
-0.107167
-0.046669
0.051203
-0.038876
-0.108181
-0.030580
0.025166
-0.072204
-0.071318
0.005958
-0.028355
0.065066
0.051500
0.028451
-0.014084
-0.063760
-0.058917
0.010350
-0.099582
0.009729
-0.058451
-0.013792
0.025814
0.010675
0.003814
-0.042791
-0.080975
0.064405
-0.065931
-0.090868
-0.090074
-0.077577
-0.058593
-0.073454
-0.024213
-0.085118
-0.025121
-0.124296
-0.007422
-0.021522
-0.073100
-0.015672
-0.088723
-0.098052
-0.057107
-0.052831
0.091266
0.073247
-0.028171
-0.045925
-0.080864
-0.011213
-0.042601
0.075885
-0.102206
0.007675
0.056943
0.020427
0.024182
0.059676
0.029787
-0.128411
0.056499
-0.072198
0.034242
-0.014794
0.054992
-0.005665
0.068691
-0.124791
-0.031745
-0.025827
-0.017812
-0.055664
0.009187
0.050133
-0.018975
0.004173
-0.108759
-0.015228
-0.037860
-0.018193
-0.000424
0.042431
-0.081653
-0.074976
-0.075595
-0.098413
-0.000468
-0.086817
0.033377
0.016533
-0.102898
-0.125374
0.034177
-0.043112
-0.102380
0.024409
-0.145944
-0.031509
-0.022574
-0.052722
0.046909
0.048955
-0.033471
0.028067
-0.046096
0.027684
0.035281
-0.072063
-0.096599
-0.101334
0.017102
-0.069266
-0.050397
0.085972
-0.063645
0.055961
-0.064632
0.078532
-0.038859
0.000986
0.014892
-0.085347
0.074256
0.081168
-0.095570
-0.092234
0.076999
0.026902
0.027501
-0.079801
-0.053094
-0.047305
-0.003415
0.001852
0.062071
-0.162543
-0.019182
-0.096407
0.040442
-0.014495
-0.015885
0.019770
-0.065951
-0.061240
0.041980
-0.005897
-0.021874
-0.020854
-0.085175
0.037383
0.047241
-0.017285
0.043728
-0.031398
0.041491
0.010449
-0.004496
0.000562
-0.093890
0.005125
-0.058584
0.065800
-0.062948
0.078883
-0.007131
0.001075
0.037215
0.059997
-0.063138
0.052421
-0.079358
-0.053217
0.038303
-0.051003
-0.039266
-0.118398
-0.010208
-0.041683
-0.073114
0.028267
-0.053147
0.054550
-0.094481
-0.090418
-0.033117
-0.089528
0.017088
-0.100157
-0.085073
-0.029986
0.149389
-0.080180
-0.025381
0.028344
-0.218471
-0.053413
0.035958
0.182512
0.059978
0.013052
-0.111568
-0.010099
0.102899
-0.092418
-0.268375
0.015845
-0.023560
-0.069657
0.089506
0.202951
-0.035522
-0.139487
0.021229
0.028058
0.021331
-0.056751
-0.154088
-0.091114
-0.003428
-0.004842
-0.217013
0.098151
0.067829
-0.155291
-0.028031
-0.023273
0.027275
-0.069033
-0.056790
0.167362
-0.040293
-0.076819
0.018265
0.001773
0.143153
-0.028205
0.078686
-0.001507
-0.114347
-0.064459
0.015950
0.099561
-0.074502
0.093849
-0.034091
0.072976
-0.094106
-0.283085
0.062491
-0.017904
-0.097749
0.044050
0.270425
0.087081
-0.060006
0.143121
0.077371
0.070631
-0.032400
-0.100903
-0.043067
0.132240
0.087617
0.176357
-0.030775
-0.024492
0.077845
-0.085928
-0.033045
0.125383
-0.101512
0.001995
-0.036482
0.019680
-0.190168
-0.057879
0.003957
-0.012354
-0.009982
-0.011104
0.045862
0.063696
-0.194811
-0.071137
0.008500
0.094867
-0.111757
-0.009142
0.043897
0.039817
0.083129
-0.036113
-0.134772
-0.009293
-0.071869
-0.107373
-0.065607
0.161209
-0.215226
-0.021906
0.067566
0.072206
0.285711
0.114410
0.047635
0.146448
-0.076665
0.000139
0.136407
-0.059292
0.031121
-0.074964
-0.004261
0.009900
0.003778
-0.037612
0.024516
0.158536
-0.042371
0.040268
-0.062203
0.069670
0.060775
0.027611
-0.030708
-0.022407
-0.019238
-0.074146
0.038388
0.054191
0.057645
-0.102851
0.001210
0.044082
-0.175296
0.086455
0.016422
0.086765
-0.117945
0.141814
-0.191609
0.093091
0.036846
-0.088063
-0.000881
0.103541
-0.007344
0.101420
-0.046941
0.177439
-0.025144
0.080941
-0.043138
0.103995
0.103022
0.080755
-0.009796
-0.045349
-0.101142
-0.017471
0.012691
0.038874
-0.064027
0.035361
0.084710
-0.003027
0.005982
-0.025169
0.007668
0.053320
0.162163
0.152791
0.163875
0.010700
0.063499
0.090624
-0.019708
0.117292
-0.080091
-0.019195
-0.068197
0.002298
0.151738
0.017945
0.024008
-0.141184
0.008239
0.064323
0.063964
0.077581
0.049185
0.213884
0.059808
-0.027484
-0.042711
-0.016326
-0.078105
-0.007482
-0.042906
0.062277
0.069711
-0.025816
0.006850
-0.126804
0.030075
-0.070919
0.010303
0.018311
-0.001664
-0.060764
0.003651
0.007178
-0.021477
-0.128321
-0.115420
-0.046313
0.029984
0.039768
-0.091861
0.060184
0.030915
0.095864
0.028160
0.012282
0.013772
0.176758
-0.008060
-0.007936
0.172114
0.043343
0.097589
0.018672
-0.091378
0.156395
0.121063
0.052937
0.091868
-0.059985
-0.110800
-0.101073
0.079588
-0.082599
-0.101190
-0.049524
-0.115836
0.146510
0.252530
0.000305
0.063976
0.023874
0.093106
-0.028924
-0.045899
0.069639
-0.085975
0.047881
-0.004959
-0.007065
-0.090178
0.070553
-0.035254
0.160755
0.046410
0.049847
0.189196
-0.040016
0.046957
0.048115
0.001075
0.186646
0.002155
-0.056526
-0.021623
0.063285
0.126338
0.177716
-0.047596
0.005671
0.156396
0.117440
0.001527
-0.072882
0.004836
0.036323
0.135807
0.017802
0.052666
-0.126809
-0.063921
-0.076150
-0.022425
0.032820
0.041138
0.020625
-0.051137
-0.072699
0.034634
0.150100
0.053269
-0.025039
0.021661
0.086027
-0.182670
0.001003
0.108472
-0.039292
-0.073063
-0.082812
0.075438
0.114186
0.185857
0.168687
-0.075732
-0.046475
0.075924
-0.132805
-0.063101
0.002033
-0.047318
-0.025692
0.010623
-0.011424
0.106638
0.073570
0.094489
-0.128570
0.086577
0.204273
0.003619
0.007081
0.112094
0.047873
0.099297
-0.064089
0.001151
0.104701
0.008199
-0.030009
0.046979
0.060748
0.071210
-0.002921
-0.034193
0.017044
-0.042609
-0.047825
0.039182
0.115561
0.036691
-0.078886
0.076970
0.018786
0.089643
-0.019156
-0.065527
-0.060151
-0.059674
0.063437
-0.000374
-0.030734
0.016916
-0.033317
-0.038822
-0.025988
0.046710
0.067602
0.031907
0.018114
0.036081
0.005044
-0.001962
-0.050354
-0.086560
0.075316
-0.043926
-0.036241
0.004225
-0.109902
-0.089431
-0.042871
-0.062020
-0.028330
0.043483
0.011200
-0.057622
-0.025906
-0.020514
0.009453
-0.046439
-0.008584
0.057524
0.000454
0.056195
0.019048
0.048561
-0.006925
-0.082290
0.008460
0.034306
0.069124
-0.010318
-0.114291
-0.099223
0.088878
-0.117798
0.026156
-0.026614
-0.000708
0.013060
0.002327
-0.060395
-0.018525
0.050325
-0.069433
0.013004
-0.023521
-0.095461
0.040299
-0.064698
0.058004
-0.010894
-0.099240
0.046764
-0.019516
-0.090177
0.014097
0.049782
-0.008045
0.051297
0.047825
-0.078033
-0.100656
-0.098889
-0.007611
-0.056790
-0.079321
-0.018453
-0.066277
0.051509
0.061020
0.029763
-0.031700
-0.048552
0.037423
0.073784
-0.066913
-0.058364
-0.084794
0.005312
-0.047750
0.009233
0.078793
0.002666
-0.054306
0.051056
-0.117826
0.020046
0.024492
0.054214
-0.069064
0.021613
0.048818
-0.053636
-0.054661
0.036901
-0.004149
-0.051414
-0.048077
-0.029674
0.036701
0.064143
-0.068156
0.013235
0.017570
-0.141621
0.037329
0.101092
0.077476
-0.000128
0.087549
0.057321
-0.038285
-0.035474
0.072310
0.155818
-0.014701
-0.035172
0.019770
-0.109892
-0.042200
-0.013073
0.045422
-0.098603
0.024777
0.047752
0.095237
0.033038
-0.068805
0.022526
0.091517
0.090874
0.030570
-0.027993
0.108393
-0.124073
0.132707
0.044369
0.044924
0.084869
-0.003026
-0.082847
-0.018503
0.090164
-0.069266
-0.133394
-0.207402
-0.029618
0.056870
-0.001300
-0.065666
0.010354
0.017441
0.104142
-0.083909
0.012003
0.026979
0.046660
0.102117
-0.084300
-0.061072
0.111414
-0.024053
-0.102289
0.080915
0.092730
-0.073658
0.043343
0.084343
-0.032186
-0.020831
0.087045
-0.047300
0.015465
-0.073936
-0.226581
-0.022966
0.004473
-0.024645
0.078819
0.107173
0.079195
-0.132194
0.154116
0.105679
-0.036257
-0.001913
0.029654
-0.056393
-0.119624
0.080066
0.020940
-0.083694
-0.020657
0.003834
-0.076250
0.122155
0.037584
0.097475
0.045186
0.062993
-0.055394
0.098919
-0.035901
0.129688
0.135853
-0.028913
0.067493
0.145907
-0.117771
0.011441
-0.039247
-0.020569
0.033505
0.032247
0.022164
-0.049609
0.064448
0.072739
0.133074
0.112675
-0.073288
-0.103407
0.027224
0.016071
-0.068930
-0.064296
0.079786
0.033408
-0.232170
-0.076305
-0.044702
0.034267
0.075100
0.140737
-0.074155
0.179263
0.143111
-0.113363
0.065025
0.080467
0.043212
0.043542
0.015441
0.024913
-0.156970
0.053913
0.025290
-0.077319
-0.047037
-0.017115
0.055038
0.050946
0.071690
-0.038030
0.087851
-0.094392
-0.069146
-0.098367
-0.105392
0.087783
0.023163
0.040028
0.083409
-0.002622
0.174682
-0.036701
0.075201
0.033096
0.049063
0.065319
0.004168
-0.105449
-0.045907
-0.037456
0.006990
0.020299
-0.057360
-0.157836
-0.011386
0.000208
-0.008907
0.037651
0.085819
0.014782
-0.012110
0.030145
-0.052548
-0.031057
-0.051947
-0.039778
0.111375
0.105226
-0.002871
-0.039940
0.061384
0.069448
0.025213
0.073962
0.051363
-0.013402
0.076740
0.060527
-0.116419
-0.011207
0.105278
-0.013745
-0.161550
-0.054786
-0.089898
-0.178269
0.063718
0.021603
-0.032873
-0.047445
0.081148
0.020152
-0.070737
0.085198
-0.116169
0.032470
-0.033691
-0.055845
-0.032940
0.075579
-0.128957
0.078569
0.129220
-0.031510
0.031440
0.030936
-0.006546
0.030394
0.119803
0.002050
-0.073246
-0.079575
-0.024314
-0.091029
0.052609
0.111568
0.044319
-0.179811
0.013114
0.007283
-0.018022
0.068329
0.211424
0.111393
-0.202141
-0.064699
0.057362
0.011295
-0.259254
0.077467
-0.075632
0.136295
0.189661
-0.062150
-0.209010
-0.052673
0.074449
0.130542
-0.030684
0.082836
-0.041866
0.122385
-0.037581
0.077247
-0.030361
0.082145
0.107464
0.049105
0.074722
0.075428
0.023723
-0.031454
0.013263
0.041397
-0.051736
-0.028318
-0.008295
-0.046050
0.072088
0.028773
-0.023197
0.005398
0.006554
0.064181
-0.124262
-0.010890
0.036545
0.031629
-0.010816
0.001499
0.128575
-0.009325
0.096539
0.070634
0.086982
-0.024843
0.216663
0.134070
-0.070983
0.077309
0.061019
0.110322
0.018768
0.072480
-0.028746
0.008875
0.032993
0.061977
0.021000
-0.098840
0.185690
0.038685
-0.003341
0.041084
-0.026153
0.074145
-0.026540
0.114373
0.072643
0.050174
0.032956
-0.099822
-0.188298
0.114934
-0.070263
-0.082200
0.077896
-0.010586
-0.135073
-0.044900
0.058977
0.170883
-0.040344
0.020869
0.013351
-0.032223
-0.018850
-0.006367
0.026867
-0.066014
0.100774
0.115388
-0.065426
-0.053530
0.074597
0.011103
0.015134
0.048200
-0.060734
0.073182
-0.049315
-0.186496
-0.080942
-0.022103
0.073519
0.044897
-0.000356
0.056168
0.112806
0.023549
-0.030745
0.042157
0.008474
0.167120
0.044271
0.094002
0.003426
-0.054303
0.238354
0.025767
-0.019460
-0.037939
-0.028923
0.057534
0.040743
0.104922
0.008447
-0.151684
-0.040709
0.052911
0.084930
-0.013247
0.070196
0.028797
0.097417
-0.038394
-0.019858
0.053657
0.022128
-0.028592
-0.082572
-0.032984
0.051755
-0.128197
-0.021845
-0.000326
0.013958
0.031526
0.047109
0.063267
0.052082
0.040358
-0.066417
0.023436
-0.053623
0.038366
0.051730
0.062214
-0.080260
-0.041489
0.103517
-0.002539
0.017431
-0.011296
0.132417
0.051816
0.052419
0.048979
0.145155
0.029345
0.054014
-0.206925
0.013276
-0.111697
0.077728
-0.001513
-0.042506
0.015950
0.000411
-0.053786
-0.222148
-0.059574
0.058580
0.012423
0.086467
0.005167
-0.013677
-0.092689
0.036873
-0.038123
-0.071570
-0.029197
0.071645
-0.020078
-0.069207
-0.116044
-0.048910
-0.063743
-0.034281
0.035808
0.021360
0.094650
-0.033914
-0.064968
0.046468
-0.047296
0.086768
-0.005246
-0.139619
0.014517
-0.002680
0.009120
0.168971
0.155794
-0.154771
0.035439
-0.003683
-0.060069
0.279715
0.048424
-0.048665
0.054525
-0.064902
-0.024697
0.089936
-0.067259
-0.023124
0.120222
-0.060719
-0.045500
0.255137
0.106416
-0.273412
0.126631
0.209060
0.008813
0.071381
0.172605
0.071228
-0.061691
-0.008509
-0.018384
-0.133868
0.080006
0.090389
-0.023308
-0.112418
-0.078685
-0.023939
0.058776
-0.085993
-0.033110
-0.051193
0.015882
0.071679
0.006613
0.162361
0.004511
-0.015400
0.106987
-0.023611
0.082577
-0.036490
0.213272
0.110604
0.015484
0.032047
-0.072960
-0.040378
-0.006287
-0.188347
-0.077428
0.047963
0.009566
-0.096503
-0.066292
0.107950
0.224786
-0.012781
-0.032658
0.032246
-0.074744
-0.001885
0.209150
0.056165
0.051868
0.068203
0.074858
0.015244
0.094479
-0.042690
-0.076988
-0.156538
-0.094921
0.062923
-0.045164
-0.004366
0.086913
0.120903
0.147115
0.057998
-0.054756
-0.050431
0.001445
-0.074698
0.016111
-0.153614
-0.026618
0.082934
-0.026644
-0.025090
0.025287
-0.023299
0.076289
-0.053742
0.153692
0.040898
0.099272
-0.076844
0.000915
0.025387
-0.026405
-0.036249
-0.094511
-0.016332
-0.049113
0.062209
-0.076554
-0.059998
0.092553
0.107544
0.122088
-0.125129
-0.052591
-0.085863
0.051711
-0.007741
0.117286
0.045662
-0.050983
-0.047712
0.146864
0.055149
0.001244
0.038353
0.022328
-0.022531
-0.163718
-0.007442
0.021221
-0.271611
-0.146263
-0.105245
-0.083882
-0.167443
0.061910
-0.189018
-0.060180
0.082475
0.044337
0.016756
-0.055850
-0.124834
-0.090284
-0.051851
-0.047744
-0.006507
0.139643
-0.082954
0.053688
-0.076726
0.014642
-0.012563
0.032459
-0.203783
-0.019957
-0.029946
0.098430
0.044154
0.116459
-0.040358
-0.071046
0.084737
-0.124350
0.035011
0.005929
0.049093
-0.034930
-0.020671
-0.109862
-0.049402
0.049057
-0.022808
0.083568
0.079155
0.055747
-0.071746
-0.052763
-0.021312
-0.027610
0.023373
-0.007228
-0.058843
0.289444
0.006306
-0.023954
-0.074582
-0.075897
0.130194
-0.058433
-0.070302
0.044485
-0.000099
-0.058632
-0.009627
-0.063048
-0.113987
0.001778
0.041222
-0.101922
-0.058435
-0.096512
0.058477
-0.021801
0.057938
0.036366
0.059419
-0.002834
-0.080208
-0.007714
0.089303
0.185652
0.151916
-0.054852
-0.044783
0.051306
-0.070956
-0.021276
0.093424
-0.046110
0.023729
-0.008662
0.123213
-0.101612
0.211088
0.055519
-0.035582
0.028465
0.098220
-0.042960
0.051338
-0.113529
0.028854
0.090414
0.054960
0.031943
0.007811
-0.215880
0.094473
0.192856
0.037407
-0.048254
-0.020435
-0.089949
-0.083263
-0.045670
0.009771
-0.211923
-0.031106
-0.116312
-0.130812
-0.109973
0.013373
0.129491
-0.006396
0.055571
-0.218357
-0.140032
0.098145
-0.116605
-0.053639
-0.121482
-0.047543
-0.019253
-0.008313
0.071905
0.100794
0.044475
-0.020053
-0.035227
0.071385
-0.010553
-0.063742
-0.004016
0.062246
0.084437
-0.132554
0.052394
0.060120
0.045277
-0.021574
0.115393
-0.046308
0.038865
-0.020114
0.142700
0.028153
-0.053125
-0.067496
-0.013480
0.241532
0.008770
0.095001
0.008480
-0.048204
0.001566
0.070869
0.126191
-0.082327
0.046613
-0.082502
0.068517
-0.004921
0.060861
0.049256
0.023422
0.032070
-0.043010
0.176119
-0.013760
0.010327
-0.147476
0.015322
-0.060760
0.006525
-0.048756
-0.177789
0.142084
-0.144793
0.054597
-0.013416
-0.108136
-0.053918
0.075973
0.046367
-0.019987
0.161512
0.006734
0.067864
-0.005475
0.142040
0.025924
-0.024588
0.093025
0.000389
0.085709
-0.010134
-0.008315
-0.007325
0.057937
0.012591
0.053642
-0.000192
0.179983
0.104638
0.074278
-0.027420
-0.061104
0.085003
0.016286
0.125073
0.015568
0.014519
0.145574
-0.068452
-0.045003
-0.050530
-0.084582
0.157564
-0.071803
-0.054177
-0.108879
0.002475
-0.087742
0.171453
-0.098026
0.018192
0.263331
-0.083915
0.024649
0.120896
0.041545
-0.121667
-0.058981
-0.093267
0.060081
-0.027809
0.000401
0.248364
-0.010832
0.090575
-0.004178
-0.065935
-0.120024
0.117674
-0.008391
-0.063662
-0.014541
0.007267
-0.011792
-0.210728
0.015347
0.147840
0.023475
-0.113898
-0.081478
0.080505
0.156521
0.067111
-0.056252
0.127552
-0.135582
0.074158
-0.056356
0.080680
-0.098112
0.012226
0.036330
-0.083923
0.049434
-0.203715
0.069838
0.079629
-0.031325
0.182920
-0.008892
-0.084493
0.071058
0.070650
-0.014381
0.160214
0.159131
-0.024720
-0.057382
0.057378
0.028767
-0.034647
0.040026
0.063281
0.017159
0.026256
-0.028521
0.008853
-0.051960
0.070890
-0.003220
0.036862
0.124706
-0.050960
-0.188015
-0.044195
-0.087633
0.046965
0.080160
-0.081785
0.044959
0.035537
0.032768
-0.121635
0.162372
0.150116
-0.009340
0.123360
-0.037673
0.135659
-0.160798
-0.097164
-0.023010
0.155886
-0.046943
-0.022658
-0.089251
0.135915
0.084472
-0.083914
0.048103
-0.026350
-0.125445
-0.004445
-0.053834
-0.051894
-0.028308
0.099726
0.149241
0.069264
0.206885
0.044011
-0.101349
0.069933
-0.128363
0.010679
0.092697
0.036133
0.056865
0.016067
-0.178949
-0.022986
0.157634
-0.054081
-0.078082
0.028101
-0.032656
-0.059859
-0.145053
0.093997
0.083431
-0.020944
0.036321
0.042445
-0.114959
0.156273
-0.015597
-0.051013
-0.026180
0.007592
0.019186
0.035893
-0.002795
0.052602
0.065907
-0.084240
0.112778
-0.131210
-0.017644
-0.015291
0.002468
-0.084818
0.163803
-0.063136
0.138454
-0.063422
-0.033233
-0.013723
0.115000
-0.106847
0.080778
-0.009565
-0.002894
0.042663
-0.069009
0.056129
0.188005
0.000792
-0.050562
0.057840
0.001376
0.133125
0.054284
0.050832
0.030227
0.096644
0.060508
-0.081731
-0.014431
0.076790
0.047405
-0.065806
0.113744
0.166399
-0.037649
-0.061839
-0.068231
-0.054819
0.045069
-0.045605
0.064558
-0.095694
-0.011035
0.095197
-0.075762
0.026580
0.026770
0.048506
0.064597
-0.019162
0.086604
0.121676
0.102380
0.061139
-0.098396
0.090364
0.116104
0.154860
-0.005377
-0.031719
-0.090449
-0.022772
-0.036956
0.115413
0.056318
0.081106
-0.191057
0.029990
0.036251
0.063302
0.074718
0.008809
-0.046473
0.037410
0.017348
0.052769
-0.050991
-0.071081
0.147943
-0.068633
-0.038561
-0.027155
-0.002578
-0.119887
0.000228
0.068390
0.046823
-0.012721
0.067482
0.065533
-0.017939
0.086017
-0.075460
-0.060789
0.010734
-0.089566
0.146323
0.116939
0.079272
-0.059950
0.002131
-0.109858
-0.150914
-0.018292
-0.065084
0.163118
0.000538
0.032669
0.048707
-0.138153
-0.007719
-0.071282
0.063482
0.052137
-0.058511
0.075557
0.144172
-0.023472
0.124446
0.070821
0.141679
-0.046845
0.006626
-0.024434
0.028288
0.010762
0.116872
-0.045365
-0.118016
0.027032
0.082414
0.036147
-0.067785
-0.027169
0.059438
0.057210
-0.051029
0.084288
0.020258
-0.025478
0.052154
-0.004472
-0.023411
0.025309
0.033815
0.089672
-0.108777
-0.043656
0.110655
0.037779
-0.068708
0.046265
0.094521
0.047240
-0.022451
-0.062290
-0.001630
0.070520
-0.005739
-0.084826
0.010393
0.025468
-0.078026
0.010450
-0.027853
-0.075765
0.009603
-0.070066
-0.012431
-0.018130
0.008597
0.005500
-0.041003
0.208437
-0.017925
-0.072804
0.083558
-0.065516
0.016861
-0.131145
0.186520
-0.021777
0.017472
-0.092277
0.021030
-0.037609
0.069560
0.061538
0.156319
0.184028
-0.045031
-0.028552
0.088369
0.036336
0.063314
0.143616
0.012571
0.039962
0.002667
-0.084162
0.002762
-0.005053
0.069477
-0.037748
0.077317
-0.068347
-0.109705
0.009458
0.011071
0.084068
0.006153
0.105121
0.020347
0.031917
0.102734
0.097092
-0.011064
-0.009174
-0.087610
-0.082829
-0.034282
0.024359
0.070304
0.153739
-0.030299
-0.042138
0.072007
0.005813
-0.138132
0.097155
0.002414
-0.050029
-0.042181
-0.007645
0.017123
-0.104862
0.074536
0.145168
0.194979
-0.163225
0.113911
-0.099344
0.052474
-0.073733
-0.110114
-0.013682
0.015396
0.041591
0.076656
-0.014804
0.026464
0.055010
-0.054703
0.092232
0.092526
0.167760
0.090814
0.015298
0.041211
-0.069624
-0.057396
-0.106250
-0.009847
-0.015566
-0.035752
0.016825
0.054046
-0.082819
-0.109411
-0.032977
-0.051969
-0.016817
0.023025
0.173632
0.027515
0.012283
0.058962
-0.089466
0.104790
-0.048950
0.058248
0.008890
0.038395
0.053711
0.091791
0.016150
-0.096014
0.041060
-0.000200
0.005641
-0.053124
-0.022536
0.087989
-0.128227
-0.065628
0.072974
0.035957
0.079629
-0.072975
0.138209
-0.024022
-0.061288
0.032393
0.084908
-0.070926
0.023111
0.035929
0.144552
0.132068
-0.151125
-0.047013
0.025959
-0.074202
0.074128
0.016470
-0.113400
0.112568
0.179720
-0.049738
0.059485
0.033548
0.097483
-0.108927
-0.002268
0.086223
-0.019893
0.166965
0.006735
0.042452
-0.096214
0.125326
0.021940
0.019756
0.031496
-0.013126
-0.067805
-0.125341
0.007026
-0.026838
-0.023003
0.111776
-0.005494
-0.075854
0.113713
0.015125
-0.025876
0.045094
0.094619
0.011485
0.111655
0.183123
0.102806
0.141770
-0.093071
0.000330
0.124084
0.027601
0.119014
-0.075464
0.065473
-0.061395
-0.014657
-0.027036
-0.053614
-0.008369
-0.099790
-0.062548
-0.100743
-0.086740
0.042183
-0.069486
0.035714
0.027924
-0.013092
-0.056142
0.078721
-0.033828
-0.061900
-0.022765
-0.044306
-0.084667
-0.007112
-0.097866
-0.065288
-0.027545
-0.086221
0.145989
0.031327
0.066434
-0.029803
-0.057270
0.140373
0.011209
0.119832
0.055423
-0.059567
-0.054031
0.140802
-0.071298
-0.000622
-0.027632
0.032328
0.094742
0.001555
0.053540
-0.149619
-0.005547
-0.017861
-0.077122
0.053162
-0.013803
0.027770
-0.055261
-0.118896
0.087186
0.088831
0.020120
-0.002190
0.034021
0.032389
-0.025484
0.006072
-0.024411
0.024048
-0.079513
0.038878
0.117454
-0.043122
0.013964
-0.058466
-0.035781
-0.125276
0.018080
0.010529
-0.002186
-0.053087
0.055228
-0.025445
0.122892
0.060160
0.093543
-0.054856
0.097819
0.229047
-0.023502
-0.011229
0.074683
-0.017736
0.098209
0.108170
-0.067758
0.053153
-0.104356
0.049983
-0.011379
0.102040
-0.018774
0.081550
0.138612
-0.186454
-0.002210
-0.085172
0.052342
0.038782
-0.039118
-0.114856
-0.011044
0.113591
-0.027776
0.142124
0.071763
0.096487
0.037328
0.059597
-0.009118
-0.131414
0.083705
0.137951
0.131958
0.014125
0.000902
-0.097884
0.128494
-0.055705
-0.041560
0.072636
-0.030370
-0.060858
-0.000678
-0.068014
0.067333
-0.068456
-0.053697
0.032162
-0.020294
0.166295
0.106775
-0.080063
0.041711
0.002504
0.024313
-0.017020
-0.042029
0.074175
-0.072503
0.097043
-0.017403
0.040637
-0.098547
-0.063697
0.020876
0.121660
0.132007
0.149291
-0.037530
-0.102541
0.066870
-0.008933
0.142819
0.014712
-0.097099
0.000127
0.055815
0.060694
0.033592
0.011813
-0.127141
0.083481
0.042646
-0.011938
0.051403
0.038976
0.153717
0.058549
0.108168
-0.103547
0.059885
-0.048695
-0.075209
-0.017636
-0.062181
-0.071352
-0.007086
-0.073071
0.073128
0.059155
0.066349
0.086107
0.084523
-0.061520
0.022205
-0.027429
0.069572
-0.083367
-0.058177
-0.046340
0.020371
0.044944
0.121809
-0.008609
0.001014
-0.011243
-0.013565
0.095128
0.113537
0.012056
0.151250
0.045319
0.082349
-0.007812
0.015592
0.017002
0.181473
0.068507
0.014777
0.139117
0.092374
-0.049087
0.050471
0.120027
0.123872
0.101120
-0.084422
-0.026342
-0.042058
0.059778
-0.158796
-0.152155
-0.025764
0.101402
-0.008726
-0.045715
0.080069
0.015478
-0.017122
0.123186
0.022752
-0.085208
0.033104
0.235792
0.013783
0.143385
0.082087
-0.080134
0.108138
-0.107974
-0.060371
-0.031367
0.112912
0.087115
-0.081317
-0.056567
0.069537
-0.069902
0.043374
-0.158871
-0.013638
-0.062638
-0.003521
0.131161
0.013038
0.121167
-0.073315
0.122894
0.025578
0.109661
0.019075
-0.080357
0.062750
0.015226
-0.010119
0.013543
-0.075538
-0.096508
-0.069068
0.025617
0.136095
-0.017260
-0.019685
0.038679
-0.024205
0.095579
0.061222
-0.008892
-0.023420
-0.013825
0.052164
-0.115278
-0.028866
-0.055217
-0.024479
-0.007691
0.045795
0.089706
-0.033595
-0.099377
0.097191
0.099113
-0.003881
0.030344
0.057608
0.024706
0.032960
0.055025
0.061871
0.071649
0.085446
-0.053859
-0.186749
-0.011195
0.006971
-0.023581
-0.044568
-0.003023
0.108051
-0.031985
-0.027527
-0.161393
0.133206
-0.044248
0.123339
-0.075452
-0.018395
-0.050884
-0.046390
-0.069190
-0.026084
-0.084192
0.067321
-0.028555
0.107125
-0.078307
0.039548
0.012707
-0.045886
0.091268
0.114197
-0.100449
0.063123
0.090913
0.084064
0.119344
0.170232
-0.087299
0.035789
-0.139323
-0.040623
0.055410
-0.072130
0.057408
0.056982
-0.042396
-0.031219
-0.058815
-0.103029
-0.001435
-0.095879
-0.096728
-0.115756
0.091000
-0.058229
0.080422
0.021188
-0.077906
0.039721
0.100944
-0.072121
-0.059358
0.112084
0.008331
0.072363
0.009669
-0.067830
-0.033015
0.057507
-0.051414
0.086560
-0.091747
-0.002788
0.009516
-0.054659
0.078868
-0.011528
-0.002141
0.028140
0.046793
0.013584
-0.045673
0.001672
0.048012
-0.010358
-0.132255
-0.000203
-0.041576
-0.017787
0.040970
-0.231112
0.073829
0.064400
-0.014049
-0.011050
0.018139
0.060215
-0.091511
0.015424
0.062441
0.146985
0.065593
0.039258
-0.073407
0.038169
-0.000936
0.020759
0.021426
0.099932
-0.081517
-0.115624
0.093646
-0.068568
0.110687
-0.139500
-0.039115
0.101963
0.072286
-0.053986
0.047874
-0.064625
-0.024480
-0.063215
-0.069706
-0.058741
0.050976
-0.125069
-0.053607
0.130212
0.103127
0.096124
-0.034528
-0.016828
0.013331
0.143350
0.025902
-0.069667
-0.075552
0.033697
-0.024947
-0.026426
0.016245
0.016857
0.012834
0.034646
-0.039707
-0.100566
-0.057055
0.014339
-0.098594
-0.104255
-0.081757
-0.067869
-0.076443
0.010624
0.014151
-0.046768
0.033686
-0.014842
-0.030621
-0.034258
-0.049026
-0.023423
0.033026
0.025416
0.069015
0.066288
-0.085633
0.042491
-0.104196
-0.046883
0.013803
0.045785
0.074187
-0.097870
0.042505
-0.070617
0.055590
-0.094312
-0.064044
0.034169
-0.038069
0.034912
-0.016055
-0.106988
-0.056735
-0.081220
0.087606
-0.045752
-0.017906
-0.048028
0.078738
-0.057033
0.026294
-0.022166
0.081284
0.033566
-0.106403
-0.018988
-0.045017
-0.073440
-0.016028
-0.087456
-0.037706
0.088936
-0.071337
-0.082623
-0.053273
-0.089663
-0.060702
-0.002648
-0.064305
-0.010658
0.079390
-0.047044
0.035755
-0.081548
0.047454
-0.019648
0.018433
0.005682
-0.029044
0.033660
-0.014414
0.058560
0.021266
-0.021011
-0.110032
-0.088064
-0.020974
0.023639
0.013796
-0.021085
0.043981
0.039497
0.071135
-0.057563
-0.055829
0.058110
0.008887
-0.027808
-0.030360
0.066818
-0.056451
-0.055542
0.054153
-0.056012
-0.101286
-0.027593
0.049203
-0.004958
-0.066952
-0.023191
-0.084063
-0.097427
-0.048971
0.000784
-0.038705
0.081084
-0.024865
-0.039495
-0.041007
-0.089387
-0.080209
0.097742
0.100840
0.039193
-0.013336
-0.010435
0.086501
-0.072789
0.042534
0.032768
0.088744
-0.045378
0.018570
-0.027703
0.076983
-0.006553
-0.020961
-0.018367
-0.095364
-0.083405
-0.151125
0.128032
-0.090530
-0.124215
0.092400
0.015464
0.153947
0.023044
-0.180442
-0.064976
0.065151
0.111122
0.017115
-0.074889
-0.032736
-0.029978
0.063557
0.151142
-0.020922
0.136509
-0.010611
0.152431
-0.078621
-0.077766
-0.025354
0.095443
0.260125
0.039166
-0.083511
-0.066369
-0.038555
0.021462
-0.053180
0.154287
-0.031026
0.068701
-0.019231
-0.034162
0.018899
-0.186904
0.009923
-0.014622
-0.086055
-0.007610
0.076628
-0.076343
-0.035368
-0.120142
-0.071331
-0.172358
-0.052718
-0.050109
-0.195000
-0.055139
0.026292
0.192099
0.045099
-0.073336
0.039215
0.029146
0.073869
0.111374
-0.066503
-0.031156
-0.020464
-0.184799
-0.042046
-0.148160
-0.076011
0.052880
-0.003732
0.151117
-0.071786
0.078153
0.068994
0.016770
0.010183
0.117327
0.005740
0.078231
0.155644
0.054281
0.059081
-0.034706
-0.042758
0.000975
0.004145
0.119403
0.005017
-0.091896
-0.119642
-0.151569
0.031901
0.064783
0.021289
0.022557
0.036590
0.122463
-0.028859
0.071685
0.046649
-0.048467
-0.088867
-0.078395
-0.020322
-0.050778
0.040705
-0.094590
-0.056442
-0.110814
-0.124235
0.033965
-0.046691
0.025339
0.046116
-0.056165
-0.064204
-0.064311
-0.100565
0.052919
-0.058199
0.079558
-0.065235
-0.059125
0.066961
0.059524
-0.054791
0.040992
-0.019490
0.027033
-0.007351
-0.028008
0.029173
-0.014550
-0.061121
0.030364
-0.041805
-0.031293
0.051982
0.085782
0.031376
-0.012026
-0.071023
-0.035306
-0.073086
0.005455
-0.163105
-0.008831
0.072922
0.085200
-0.104330
0.074751
-0.045802
0.040807
-0.085866
-0.014184
-0.084344
-0.086520
0.033932
0.069631
0.017205
-0.002570
0.051761
-0.119615
-0.073214
-0.016810
-0.042068
-0.044803
-0.132376
-0.168809
0.066878
-0.091306
-0.071872
0.010703
-0.130988
-0.131666
0.043123
0.080748
-0.051596
-0.058154
-0.072957
0.035208
-0.039867
0.076501
0.007500
0.106088
0.015230
-0.030216
-0.090599
-0.063533
-0.144609
0.043646
-0.089772
0.125399
0.031367
-0.065823
0.056904
-0.162436
-0.017147
-0.065007
-0.055239
-0.015106
0.041143
-0.073508
0.006142
0.065506
-0.035345
-0.084247
0.021126
-0.095057
0.022280
-0.043781
0.064324
-0.126282
0.023154
-0.045579
0.053274
0.020642
0.068361
-0.010068
0.006042
0.038033
0.044207
0.097431
-0.089326
0.046492
0.220106
0.046741
-0.281390
0.204630
0.090171
0.082716
0.008926
0.146907
0.127393
-0.101636
0.153777
-0.017915
-0.287402
-0.110014
0.054366
0.037454
-0.115730
0.075530
0.089452
-0.056691
0.129886
-0.058970
0.018916
-0.032278
0.071824
0.126496
0.169439
0.080466
-0.003314
0.094825
-0.062865
0.140958
0.011002
0.157832
0.143425
-0.056829
0.032656
-0.063872
0.051782
0.020007
-0.097253
-0.102018
-0.001738
-0.032528
-0.023089
-0.009468
0.005846
0.116740
0.067676
0.028759
0.009241
0.067274
-0.006981
0.019750
0.027497
0.063143
-0.029192
0.113549
-0.120879
-0.077330
-0.052439
-0.177243
-0.065508
-0.199371
-0.072414
-0.036008
-0.229365
0.116033
0.030541
0.016736
-0.142119
0.061133
0.100841
0.066805
0.081111
-0.024607
-0.107060
-0.007262
-0.017465
-0.039908
0.021315
-0.053795
-0.015672
0.099686
-0.141051
0.184036
-0.041001
0.147874
-0.084874
0.015447
-0.004404
-0.033993
-0.059394
-0.136377
0.175888
0.053412
0.078414
0.044869
0.007926
0.148096
0.148256
0.071039
-0.063755
-0.061235
-0.061170
-0.054265
0.014974
0.096283
-0.097668
0.045186
0.014210
-0.012210
-0.030588
-0.068304
0.004307
0.102310
-0.005479
0.200808
0.064905
0.110261
0.207796
0.130872
-0.083525
0.012513
0.093185
0.113227
0.135322
0.224015
0.083881
0.095734
0.061748
0.146292
-0.012647
-0.014512
0.112455
0.015821
-0.035591
0.107396
-0.072759
-0.003019
-0.017952
-0.007635
0.092054
-0.026508
0.243885
-0.061050
0.178297
-0.009653
0.058428
0.076156
0.042558
-0.130705
0.054497
0.131178
0.021779
-0.090018
-0.034943
0.060673
0.018033
-0.059955
-0.175656
0.003290
0.001066
-0.067115
0.029564
-0.022131
-0.011552
-0.028387
0.072807
-0.010387
0.071629
0.004129
0.078341
-0.022437
-0.008203
-0.053938
0.044527
0.023015
-0.178762
-0.104599
0.055263
0.135138
0.050097
-0.102569
-0.067274
0.017397
0.061456
-0.055729
0.033299
0.057541
-0.013879
0.072914
0.098792
-0.000909
-0.102877
-0.040470
-0.054054
-0.063239
0.085344
0.154155
-0.063193
-0.106440
0.097485
0.087419
0.109652
0.046079
-0.016404
0.053560
-0.071155
-0.009012
0.116510
0.048983
-0.103529
-0.178719
0.053860
0.038475
-0.046279
0.041990
0.034463
0.100908
-0.007183
-0.009071
0.086666
-0.078098
0.072519
0.118934
-0.043208
0.022413
-0.156602
-0.015311
0.010162
0.047197
0.026320
0.012410
-0.029916
-0.101501
-0.005577
-0.109553
0.040885
-0.079812
-0.105006
0.047813
0.069659
-0.102543
-0.054967
0.018970
-0.117430
-0.069113
0.053623
-0.006169
-0.007185
-0.055725
-0.039541
0.090222
-0.000357
-0.034392
-0.078929
-0.089815
0.012295
-0.052390
-0.097493
0.022727
0.064161
-0.049128
-0.056198
0.028710
0.009015
-0.024440
0.050673
0.023104
-0.028184
-0.084840
-0.003008
-0.102827
-0.067486
-0.015351
-0.048738
-0.032607
0.073773
-0.028162
-0.079091
-0.059200
0.072993
0.054387
-0.019317
0.024365
0.021427
-0.063054
-0.094836
0.047071
-0.048792
-0.047932
0.002545
0.052152
-0.032197
-0.044517
0.021807
0.037131
-0.050202
-0.065786
-0.049514
0.013490
0.039556
0.074584
-0.013061
-0.067552
-0.013180
-0.024415
0.004390
-0.001133
0.001971
-0.042621
0.037199
-0.027883
0.003420
0.090226
-0.090443
0.002482
-0.071187
-0.014321
-0.077819
0.009239
-0.057208
0.021812
-0.013055
0.019224
0.010979
-0.093075
-0.075822
-0.018355
0.026664
0.017039
-0.091231
0.053572
0.008903
-0.074437
-0.076066
0.039252
-0.066524
0.055002
-0.105965
0.064097
-0.077084
0.038533
-0.029309
0.024186
0.003125
0.034104
0.059875
-0.038489
-0.043219
-0.073543
-0.026795
-0.069506
-0.026044
-0.064176
-0.086589
0.127597
-0.006045
-0.061262
-0.102385
-0.013605
0.046576
-0.143914
0.090860
0.019311
0.019960
0.052170
-0.121841
-0.055042
0.125903
-0.011911
-0.022326
0.087973
0.120014
-0.056781
0.047073
0.087296
0.076373
-0.072696
0.079555
-0.054236
-0.028353
-0.137742
0.112110
-0.084854
-0.042962
0.004655
-0.033137
-0.020003
0.053973
-0.059856
-0.046238
-0.035652
0.072840
-0.208949
-0.043112
0.009667
-0.052141
-0.015373
0.095386
0.126219
0.022262
-0.045266
-0.047566
0.009629
-0.019668
-0.109299
0.162520
0.108098
-0.059195
0.030368
0.072854
0.087183
-0.005157
0.049866
-0.065783
-0.041979
0.076238
0.047786
0.020614
0.170305
0.015402
0.040514
0.083854
0.020894
0.192085
-0.006492
0.138164
-0.003157
0.162744
0.052634
-0.006930
-0.042421
0.067291
0.134039
0.138642
-0.033251
-0.091717
0.049611
-0.088758
0.141092
0.160057
0.071887
0.168277
-0.039856
0.082134
-0.051146
0.131355
0.118088
0.046616
-0.044014
-0.000079
-0.017896
-0.060693
-0.077062
0.062619
-0.079895
0.028558
-0.087545
-0.140719
0.071555
0.017443
0.072059
0.085290
0.129352
0.097736
0.000861
-0.084864
-0.098403
-0.021703
0.000860
-0.047063
0.151898
-0.094737
0.058949
-0.028798
-0.040595
0.002173
0.000341
-0.093024
0.025321
0.110795
0.073925
0.036349
0.104305
-0.026005
-0.163963
0.035521
-0.041939
0.028775
-0.191311
-0.010128
0.086193
-0.070948
0.060470
-0.087343
0.111217
-0.047224
-0.045949
0.221106
-0.075901
-0.144398
-0.071351
0.101856
0.053765
0.011794
0.026464
0.079011
0.053313
-0.098349
0.049654
0.065344
0.016651
0.063044
-0.120340
-0.006334
-0.078621
0.056355
-0.007352
-0.076770
-0.165470
0.071443
0.002013
0.012967
0.066789
0.016826
-0.108491
0.069390
-0.009207
-0.102649
-0.002079
-0.030552
0.074109
0.043391
0.021053
-0.054256
-0.068075
-0.307360
0.074400
0.087894
0.062294
0.176390
0.040404
0.034079
0.092144
0.106712
0.006874
0.065827
-0.038869
-0.148409
-0.007849
-0.022251
-0.065982
-0.072092
0.069792
0.148510
-0.088179
0.068418
-0.011839
-0.093148
-0.070479
-0.030166
-0.026556
-0.007094
0.005261
0.085337
0.079489
-0.001812
0.008732
-0.056118
-0.029916
-0.072544
-0.108090
-0.095276
0.030127
-0.031161
0.096420
0.017834
-0.061992
0.016361
0.022625
-0.171265
0.180958
-0.104222
0.050120
-0.086180
0.052080
-0.042542
0.007386
-0.063480
-0.000520
-0.090785
0.078679
0.071471
0.126042
0.015182
-0.068878
-0.011964
-0.028379
-0.078310
0.010940
0.190690
0.151112
-0.021832
0.098229
-0.006366
0.039037
-0.070459
0.189519
0.029793
0.150102
0.154751
-0.027303
0.003748
-0.022611
0.033098
0.183487
0.070239
-0.020791
0.043039
-0.018794
0.125953
0.105505
0.087156
0.037924
0.147653
-0.181907
-0.010250
0.008917
-0.024563
-0.065630
-0.019309
0.124597
-0.017203
-0.103754
-0.052660
0.055637
0.028100
-0.118215
-0.034213
-0.121102
0.012803
-0.020466
-0.055474
0.084963
-0.055075
-0.019999
0.107325
-0.138166
-0.019859
0.126776
-0.031743
-0.013857
0.019677
0.054619
0.243787
0.062260
-0.172166
-0.086219
0.019310
-0.006998
0.023809
-0.065212
-0.011889
-0.039861
0.036978
0.067256
0.073070
0.066131
-0.139127
0.055098
0.073470
-0.036104
0.078747
0.031528
-0.030988
-0.112662
0.018529
0.078571
0.029409
-0.116288
-0.099333
0.011130
-0.090551
-0.013025
0.032261
0.016927
-0.135485
-0.007039
-0.018001
-0.049268
-0.088702
-0.118724
-0.091550
-0.007196
-0.073023
0.086075
0.124194
0.156318
-0.015483
0.121430
0.072594
0.012623
0.075217
-0.009995
0.045912
0.206961
0.017215
-0.137408
-0.021674
-0.121348
-0.075315
0.018821
-0.035771
0.035380
-0.084276
0.039634
0.090977
0.031858
0.105292
-0.075425
-0.131560
-0.060798
0.116181
0.019333
0.064191
0.188999
0.127338
-0.018333
-0.058320
0.091534
-0.176729
-0.060530
0.116666
0.116362
0.025523
0.062728
-0.053008
-0.067191
-0.161900
0.057673
0.033773
-0.068058
0.000217
0.063375
0.043342
-0.043812
-0.035801
0.041099
-0.112951
-0.093043
0.105974
0.195494
0.108868
-0.010815
0.011038
0.070138
0.009258
-0.072663
-0.119796
-0.058992
0.018590
-0.111132
0.025814
-0.057836
0.013701
0.116318
0.069773
-0.004449
0.043571
0.049696
-0.079317
0.021739
0.048306
-0.100136
0.012953
-0.015219
0.005656
-0.054395
0.009261
-0.003741
-0.011024
-0.161702
-0.093265
-0.051703
-0.019981
0.103180
0.092989
-0.022287
-0.055929
-0.054496
-0.048181
0.042579
-0.057823
0.041304
-0.103457
0.036067
-0.080918
0.030884
-0.028144
-0.049849
-0.080200
-0.008117
-0.092657
-0.091544
-0.030214
0.068102
0.094242
0.023628
0.059035
-0.076639
-0.029239
-0.120966
-0.169338
0.017241
0.054076
-0.004342
0.050384
-0.009673
-0.078224
0.063846
-0.024008
0.048634
-0.025003
0.127887
-0.075779
0.097023
0.115957
-0.112503
-0.031371
0.158449
-0.036193
0.095286
-0.026626
0.067355
-0.027678
0.079114
-0.042410
0.011588
-0.100314
-0.017760
0.151153
0.077352
-0.187669
-0.033566
0.116311
0.009750
-0.118361
0.018955
-0.033884
0.038662
0.169872
0.003297
0.007269
-0.014063
0.085338
0.146552
-0.021478
0.078239
-0.090981
0.043608
0.152822
0.087825
0.033805
-0.095353
0.098743
-0.090405
-0.026540
-0.149210
0.118150
-0.141806
0.043670
-0.007282
0.002744
-0.149906
-0.028180
0.072436
0.050650
0.013400
-0.011286
0.124477
0.024923
0.032055
0.013233
-0.070420
-0.104369
-0.035749
0.036169
-0.060752
0.141155
-0.045108
0.054038
0.093006
0.052889
-0.004457
0.169872
0.069315
0.058427
-0.018509
0.065112
0.349913
0.121925
0.070333
0.004557
-0.117622
0.261593
-0.013381
0.188254
0.005329
0.168021
-0.020559
-0.051002
-0.063335
-0.000402
-0.041737
-0.053174
0.086069
-0.170774
0.009561
-0.103708
0.046619
-0.115968
-0.054841
0.155555
-0.039109
-0.023981
0.007592
0.018018
0.029060
0.005196
0.036865
0.072878
-0.051166
-0.190798
0.038035
-0.005277
-0.002508
-0.063586
-0.068415
-0.136936
0.050249
-0.044754
-0.222900
0.208372
0.010608
0.027010
0.148898
0.085803
-0.019695
-0.049888
0.045782
-0.039398
0.070639
-0.185660
-0.126468
-0.056104
0.055196
0.010569
-0.088573
0.081930
-0.095577
-0.003375
0.005125
0.033630
0.089464
0.081067
0.092200
-0.116946
-0.047224
-0.030533
-0.017836
-0.151381
0.031480
0.049935
0.161383
-0.085207
0.030541
-0.056707
-0.092398
0.006867
0.090878
-0.093706
0.012730
0.038160
-0.102683
-0.143347
0.115003
0.038183
-0.113295
-0.033347
-0.136359
0.015469
-0.061453
-0.034310
-0.109822
0.080170
-0.036683
0.031428
0.001649
0.091101
0.167718
0.055707
0.059009
0.024256
0.005851
0.033805
0.051290
0.033214
0.049457
0.030041
0.001013
0.020164
0.059776
-0.061234
-0.091928
-0.050918
-0.081636
0.205941
-0.076816
-0.087835
0.051841
-0.029792
0.166931
0.038261
0.019606
0.077888
0.076908
0.189416
0.104413
0.231702
-0.083919
-0.047352
-0.034409
-0.054739
0.115925
0.011482
0.165030
-0.066921
-0.080509
-0.024435
0.006614
0.064293
-0.049972
0.177782
-0.017149
0.016256
0.089022
-0.020986
-0.024378
0.114169
-0.102490
0.018270
-0.093054
-0.167679
-0.066042
0.036471
-0.105093
0.049702
-0.098206
-0.017895
-0.000641
-0.131792
-0.047513
0.036935
-0.027104
0.007101
-0.093551
-0.046081
-0.016718
-0.037075
0.134787
-0.042425
0.136713
-0.045761
-0.063059
0.040236
-0.087020
-0.048434
-0.029295
0.001215
0.069461
-0.011141
-0.033043
0.016736
-0.001279
-0.080179
-0.093381
-0.038363
-0.054337
0.008714
-0.044200
-0.026019
-0.026453
-0.024217
0.023899
0.052489
-0.067777
0.085429
0.037672
-0.099557
0.072667
-0.058358
-0.038839
0.036986
0.041857
-0.032573
-0.096274
-0.005843
-0.080022
-0.021584
-0.023220
-0.048580
0.060587
-0.135256
-0.104092
-0.052318
-0.071847
-0.019579
0.027463
-0.022334
0.048002
0.041113
0.021653
-0.080062
0.025623
0.060751
0.017646
0.030686
0.004143
0.023554
-0.064115
0.007878
-0.006448
-0.064035
-0.087673
-0.086984
0.034330
-0.074436
-0.069096
-0.067618
-0.087343
-0.080393
0.041788
0.086585
0.059353
-0.051962
-0.016493
-0.042718
-0.076691
0.025504
0.057834
-0.084415
-0.091041
0.016463
-0.037690
-0.106370
-0.041719
0.052810
-0.007137
-0.026760
0.032911
-0.072691
0.046850
0.024708
-0.103562
-0.071855
-0.049270
0.061648
0.059361
0.051919
0.021870
-0.048147
-0.088987
0.053645
-0.014918
0.031973
0.087745
-0.072330
-0.010645
-0.113725
-0.080492
0.036190
0.014865
0.016777
-0.059719
0.048229
-0.078755
-0.081593
0.081914
0.049489
-0.057886
-0.067383
-0.097524
0.032096
0.037444
-0.076643
-0.072967
0.019739
-0.093617
0.074249
0.022871
-0.106239
-0.055282
0.118451
-0.009293
-0.104166
-0.032924
0.018783
-0.020598
-0.026541
-0.013692
-0.123235
-0.003768
-0.075164
0.100510
-0.064536
-0.058645
0.060901
0.026122
-0.086262
-0.038652
-0.001053
0.018211
-0.073590
0.071177
-0.072632
0.074805
0.028979
0.002082
0.056999
-0.040554
0.051981
-0.176729
-0.037283
0.025072
0.016814
-0.007670
-0.057460
-0.028428
0.022418
-0.092166
0.065113
0.064862
-0.136831
-0.052425
-0.051145
0.005516
-0.134517
-0.033388
-0.082159
-0.150251
0.046942
-0.098574
-0.059964
0.034437
-0.090921
-0.042263
-0.056662
-0.026268
0.042961
-0.008597
-0.112216
0.022792
-0.013976
0.077663
-0.012074
0.066080
0.079865
-0.028288
0.027594
-0.061961
-0.070184
-0.030445
-0.013267
0.037637
0.009809
0.009732
-0.098202
-0.090961
-0.039795
-0.058042
0.056870
-0.091321
0.084948
-0.065887
-0.049834
0.073294
-0.044633
-0.064185
-0.018315
0.093334
-0.127203
0.047519
-0.101325
-0.073056
0.002104
0.054785
-0.086749
-0.097372
-0.073605
-0.141122
0.020819
0.014853
-0.036046
-0.184894
0.088857
-0.098966
-0.044591
-0.015170
0.015587
-0.015232
0.070681
-0.058587
-0.111459
0.116936
-0.001998
0.022000
-0.023718
0.049688
0.007550
-0.026305
0.006470
-0.057605
-0.099220
-0.000059
-0.080558
0.054333
0.155081
0.075788
0.077540
-0.040992
0.048400
-0.039713
0.069795
0.019210
0.022111
0.058408
-0.071135
-0.018713
-0.168505
0.037517
0.125864
0.074222
0.076784
0.054474
0.006959
-0.026793
-0.037395
0.003865
-0.074116
-0.113302
0.069759
-0.000331
0.074620
-0.106316
0.025562
-0.054568
-0.060960
0.006100
-0.196646
-0.053065
-0.077484
-0.048977
0.011336
-0.029000
0.041057
0.042556
0.017337
0.002461
0.058483
-0.014610
0.020243
-0.048601
0.042031
0.065347
0.042978
0.094119
-0.032394
0.043443
0.092890
0.153572
0.075727
-0.112186
0.015492
0.029905
0.121279
0.036298
-0.072591
0.055556
-0.019959
0.031267
-0.046301
0.011647
-0.079453
-0.062641
0.102761
0.095261
-0.055019
0.142784
0.055947
-0.115923
-0.027348
-0.006797
-0.080349
0.081124
-0.104805
-0.060550
0.014638
0.034426
0.031298
0.080237
0.045185
-0.019760
-0.120098
0.062316
-0.092264
0.007279
0.055083
-0.053175
-0.048282
0.021561
0.099455
0.021766
-0.097785
0.150065
0.081251
0.083143
0.037588
-0.007631
0.051227
0.068929
0.027349
-0.065912
0.020780
-0.045635
0.019096
0.033917
0.079273
0.057936
0.067225
0.031813
-0.070194
0.072889
0.211519
0.096487
0.100258
-0.079288
0.008558
0.073018
0.026558
-0.018893
0.059157
-0.083956
0.029756
0.034285
0.009068
-0.068600
-0.037329
0.004704
0.037922
-0.094680
-0.116470
-0.130334
0.056467
0.080902
0.016647
-0.059739
0.043666
0.102686
0.028572
0.027976
0.078411
0.097348
0.014148
0.089494
-0.058985
0.087628
-0.042725
-0.029609
0.088335
-0.052838
0.000112
-0.013505
0.121898
0.073992
0.077255
0.112286
-0.050895
0.070845
-0.161968
0.124189
0.030481
-0.068491
0.009215
-0.057651
-0.051263
0.004825
-0.022417
0.020597
-0.039443
-0.149222
-0.015317
-0.022911
0.068329
0.084858
0.012902
0.080807
-0.092501
-0.119058
0.004932
0.158941
0.047683
0.021648
0.000488
-0.054815
0.141985
0.018408
0.075882
0.019794
0.003809
0.016119
-0.055180
0.080023
0.091182
-0.073520
0.076117
0.047168
-0.092982
0.074401
0.091326
-0.092164
-0.020891
0.037060
-0.007095
-0.019007
0.019565
-0.023501
0.054192
0.104863
-0.072693
0.134370
-0.117341
-0.009164
0.038606
-0.057342
-0.069683
0.013982
-0.037703
-0.080711
-0.040240
-0.105382
0.066932
0.093595
-0.024681
0.023779
-0.111506
0.170430
-0.038299
0.078756
0.231721
0.207326
-0.085302
0.043028
-0.108693
0.031454
0.003385
0.125602
0.016286
-0.063203
0.094635
0.148105
0.026339
0.044906
0.091002
-0.001262
-0.047843
0.048934
0.045746
-0.012888
-0.214392
0.156368
0.015307
0.069152
-0.024566
0.125372
0.173375
-0.058111
0.092169
0.087944
0.075270
-0.050449
0.031847
-0.047773
0.077130
0.116474
0.079279
-0.063983
-0.037609
-0.076944
-0.260528
0.082442
-0.045260
-0.036986
0.090813
0.076976
-0.040233
0.026401
0.033431
0.049276
0.090647
0.038544
-0.071767
-0.107221
0.051439
0.007060
-0.096368
0.087803
-0.061246
-0.021913
-0.066921
-0.110046
-0.039125
0.019154
0.056738
0.069029
-0.098996
-0.037537
-0.178575
-0.064062
-0.084508
0.072609
-0.005541
0.071628
-0.071848
-0.107836
-0.035451
0.103829
0.056110
0.152905
0.125668
-0.006530
0.032296
-0.048541
-0.090336
0.193207
-0.079654
0.002486
0.055387
0.052898
0.023740
-0.038898
0.127690
0.081059
0.041578
0.058400
0.079099
-0.038013
0.060080
0.083687
0.077251
0.015563
0.186896
-0.030958
0.046623
0.137135
-0.022656
-0.013699
-0.134858
0.169937
-0.064518
0.033582
0.076226
0.066165
0.038891
0.007427
0.022066
0.044002
-0.035233
-0.077817
0.016372
0.038877
-0.021129
-0.024266
0.040754
-0.125796
-0.121861
-0.030172
0.035706
-0.097299
-0.003697
-0.068023
-0.048615
-0.053007
0.006975
-0.069899
-0.027719
0.016749
-0.031834
-0.063624
-0.000038
0.046170
-0.024692
0.035941
0.036735
0.054198
-0.062856
0.039422
0.003499
-0.039281
-0.097787
-0.043825
-0.038054
-0.071177
-0.020651
-0.090126
0.069896
-0.080042
0.039196
-0.038439
0.053177
-0.026306
0.003205
0.041410
0.007485
0.064901
0.058762
-0.100062
-0.044025
0.018861
-0.106346
-0.103968
0.042373
-0.022263
-0.058464
-0.056338
-0.021568
-0.102775
0.036819
-0.038184
0.043281
-0.084839
-0.086988
-0.025732
0.037719
-0.031073
-0.005923
-0.044924
0.010630
0.044006
-0.083076
-0.128744
0.069235
0.015305
0.005078
-0.065679
-0.124160
-0.124345
-0.062415
0.022620
-0.065889
-0.018607
-0.097216
0.057450
-0.072001
-0.090360
0.062231
0.019119
0.063057
0.040317
-0.054452
0.054472
-0.038640
-0.078825
-0.037900
0.059240
-0.026828
0.056080
-0.107408
-0.087364
-0.087637
-0.028216
-0.032615
-0.079275
-0.040873
0.042359
-0.053874
-0.010887
0.031918
0.084660
0.004095
-0.077402
0.018043
-0.090267
-0.114212
-0.022503
-0.069996
-0.053599
-0.036827
0.082707
0.032942
-0.103159
-0.087262
0.019199
-0.008501
0.001775
-0.024773
-0.032855
0.003032
-0.026517
-0.147935
0.142852
0.068799
-0.098892
0.120847
0.122558
0.118482
-0.083235
0.007450
0.007669
-0.055604
-0.047557
0.031993
-0.045211
-0.014752
0.016907
-0.151356
0.025452
-0.059679
-0.066545
0.097028
-0.043499
-0.038895
0.032726
-0.031970
0.109367
0.016719
0.046575
0.060964
-0.047660
0.115933
0.124008
-0.010687
-0.114334
0.039151
0.006375
-0.013383
-0.086708
-0.006981
-0.052018
-0.011380
0.062788
-0.022975
-0.076076
-0.003939
0.032659
0.004295
-0.027849
0.220863
0.025354
0.024748
-0.105633
0.053850
0.011510
0.040284
0.071474
0.059350
0.043316
-0.133165
0.052605
0.205183
-0.032247
-0.065057
-0.043091
-0.075637
-0.030157
0.101281
0.140974
-0.093820
0.100076
0.008690
0.004303
0.067473
-0.090899
0.086085
-0.155962
-0.064556
0.103275
0.090514
0.039914
0.092371
-0.057223
-0.036160
0.059062
-0.053619
-0.041592
0.005600
-0.025271
-0.007926
-0.082368
0.010606
0.104167
-0.029914
-0.099377
0.091880
0.118441
-0.068595
-0.090903
0.044289
0.023808
0.084209
0.020247
-0.089934
0.090658
-0.079339
-0.000296
-0.011722
-0.066281
0.079594
0.074663
-0.035302
-0.008592
-0.008046
-0.001987
-0.065915
-0.078239
-0.040443
-0.014134
-0.055229
-0.022295
0.054188
-0.044475
0.053069
-0.077433
-0.032302
-0.002535
0.008441
-0.105712
-0.019586
0.058498
0.021269
0.034940
-0.020423
-0.034191
0.023930
-0.005891
-0.028792
-0.020893
-0.087568
-0.015338
-0.035903
0.023955
0.076627
-0.004619
-0.036038
0.003518
-0.040827
-0.043371
0.031693
0.003949
-0.043233
-0.036275
0.023981
-0.040098
-0.080713
0.046045
-0.052975
-0.076690
0.043961
0.034618
0.064502
0.028646
-0.029747
0.009180
-0.038494
-0.008441
-0.014611
-0.117864
0.052788
-0.079447
-0.075371
0.019632
0.008542
-0.058238
0.005473
0.037187
-0.113307
0.033679
-0.006323
-0.075979
0.015480
-0.099166
-0.030089
-0.078733
-0.034471
-0.001316
-0.071552
0.006669
0.075459
0.010543
-0.001169
0.015417
0.059902
-0.048612
0.058498
-0.068264
-0.000290
-0.098527
0.059794
0.020005
0.004133
0.040622
-0.021753
-0.030795
-0.082971
0.034922
0.062314
0.039446
0.008987
0.004866
-0.030495
0.069070
0.001819
0.045852
-0.096864
-0.051363
-0.067189
0.001458
0.038419
-0.045285
-0.050921
-0.079513
-0.069374
-0.082242
-0.039853
-0.011266
-0.041349
-0.001248
-0.067729
0.083561
0.179198
0.113068
-0.128632
-0.026053
-0.078877
-0.031923
-0.021312
0.013744
0.063091
-0.008515
0.031063
0.138176
0.179081
0.029450
-0.036407
-0.029855
0.009306
0.006885
0.074775
-0.002707
-0.184664
0.169389
-0.097117
0.169758
-0.132524
0.243705
-0.005180
0.092431
0.062040
0.110040
0.062302
0.144795
0.080377
0.137956
-0.043823
0.235270
-0.097367
0.063835
0.003657
-0.032319
-0.059265
-0.073163
-0.030825
-0.113454
0.103083
-0.020060
0.040080
0.103266
-0.021716
0.033682
0.147006
-0.029391
0.047243
-0.150884
-0.022222
0.061302
0.071419
0.133026
-0.063519
0.049056
0.053648
-0.199566
0.004380
0.025526
-0.019318
0.024613
-0.125204
-0.006764
-0.177784
-0.129700
0.023026
0.133144
0.027728
0.032150
0.092270
0.019503
0.126378
0.088283
0.122806
-0.005203
0.095795
-0.142966
0.062197
-0.059701
-0.054359
0.035006
-0.049348
0.083204
-0.053303
0.072943
-0.049861
-0.026185
-0.027117
0.122167
0.081257
0.038965
-0.071701
0.050788
0.160011
0.067338
0.113965
0.134192
0.099751
-0.016146
-0.037339
0.030053
0.069268
-0.017616
0.048132
0.041021
0.085766
-0.028834
0.049275
-0.058473
0.087661
0.135849
0.052498
0.117038
-0.010362
0.006555
0.109018
0.162031
0.085480
0.192717
-0.072818
0.002316
0.051846
-0.050981
-0.123233
0.047518
-0.068697
0.052830
0.092701
-0.040412
-0.047013
0.003935
-0.090033
-0.005312
-0.073721
-0.060974
-0.116821
0.077446
-0.092998
0.038184
-0.006141
-0.061833
-0.007387
0.078183
0.090837
0.065050
0.018327
-0.031402
-0.068191
0.040498
0.037833
-0.019030
-0.009500
0.055529
0.055300
0.018787
-0.115455
-0.026710
-0.074818
-0.006004
0.127359
0.059415
0.147071
-0.024736
0.002163
-0.087053
0.099111
-0.032790
0.005815
-0.180378
-0.060806
0.055486
-0.113991
0.110411
-0.157327
-0.049200
-0.070981
0.044640
-0.019465
0.160164
0.040132
0.084493
0.127264
-0.049764
-0.048988
0.022424
0.019929
0.024840
0.050143
0.000981
0.054480
0.039842
0.015707
-0.030283
0.086005
-0.018503
-0.018268
-0.166355
0.062868
0.057269
-0.057306
0.054311
0.075247
0.071833
-0.014832
-0.003570
0.023045
0.063936
0.025843
0.036536
-0.179181
-0.031828
0.062860
-0.028111
0.032494
-0.057284
-0.002560
0.010317
-0.000529
-0.016066
-0.157885
-0.013745
-0.065345
-0.027568
0.024552
-0.015069
0.053919
-0.000226
0.023096
-0.038920
0.025023
-0.057467
0.000061
0.092235
-0.061513
-0.056805
-0.112478
-0.103922
0.161135
0.094691
0.122699
-0.107972
0.101145
-0.021646
-0.182353
-0.100279
0.044365
-0.020736
0.057948
0.070847
-0.031572
-0.109703
0.122018
-0.017354
0.015163
-0.074576
0.235013
-0.148829
-0.129387
0.061989
-0.065401
0.063582
0.005393
-0.091997
0.072539
0.093263
0.026089
0.190983
0.046587
0.047122
0.094572
0.142774
0.066799
-0.080816
-0.047634
0.060512
0.003357
0.105846
-0.021336
-0.079496
-0.059890
0.058603
0.022781
0.165754
0.078550
-0.042524
-0.133368
-0.067871
0.080835
0.048425
0.137184
-0.044309
0.054996
0.108282
0.045702
0.032012
-0.001767
-0.020936
0.106397
-0.145595
-0.092046
-0.078194
-0.003814
0.051830
0.173309
0.172318
-0.071719
-0.093741
-0.047236
-0.017931
0.085620
0.074536
-0.116971
0.000390
0.063374
-0.236165
-0.003874
0.045229
0.007433
-0.008675
-0.008123
0.169661
0.046917
-0.018327
0.008772
0.088129
-0.055455
-0.048794
-0.053747
-0.029141
0.029021
0.035817
-0.032142
-0.057072
0.000404
-0.019773
0.065079
0.032051
0.084217
-0.163095
0.082678
-0.201198
-0.066043
0.120183
-0.070446
-0.037828
-0.007972
-0.021373
-0.077173
0.010213
-0.119394
-0.082996
0.017983
-0.030127
0.062486
0.042063
-0.100039
-0.012771
0.005659
-0.013808
0.010499
-0.040257
-0.034579
-0.078084
-0.105403
-0.070257
-0.108843
0.072439
-0.082378
0.007289
0.044631
0.005962
-0.054905
-0.108878
-0.002116
-0.054803
0.028977
0.012630
0.011549
-0.075123
-0.070868
0.031901
-0.002305
-0.042517
0.084413
-0.074856
-0.029017
0.056139
-0.061232
-0.102295
0.012735
0.013284
0.050138
0.066064
0.064178
0.057533
0.049706
-0.071007
0.019686
0.079190
0.029458
0.079456
0.009530
0.018228
0.029493
-0.069657
-0.025918
0.051040
-0.072478
-0.038927
0.007529
-0.061539
0.062747
-0.080638
-0.048596
-0.027346
-0.062487
0.067548
0.029274
-0.063056
0.074870
0.066940
-0.055817
0.019310
-0.053189
-0.071202
-0.074293
-0.136050
0.078514
0.008940
0.037763
0.068233
-0.013357
-0.048313
-0.088007
-0.090916
0.004734
0.016757
0.016415
-0.067463
-0.013379
0.034852
-0.083607
-0.088533
-0.119267
0.031156
-0.092661
-0.019272
-0.103433
0.024080
-0.126115
0.046975
0.052816
-0.014428
-0.118734
-0.136374
0.015775
-0.056573
-0.065005
-0.005248
-0.035528
-0.094638
0.025093
-0.051997
0.025286
-0.027838
0.042012
-0.052812
0.043950
-0.069454
0.010467
-0.046790
-0.034316
-0.081899
0.081663
-0.018766
-0.132574
-0.127345
0.147161
-0.109660
-0.004772
0.009221
0.070799
-0.016782
-0.131522
-0.051735
0.052267
0.084132
0.040631
0.041099
-0.011844
-0.128968
0.215034
-0.119960
-0.048785
-0.025524
0.140263
-0.185207
0.027977
-0.008015
-0.100040
0.110625
0.140037
-0.240135
0.071518
-0.018181
0.059166
0.134257
-0.069711
-0.075393
0.081506
0.039081
0.037497
-0.054968
0.053979
0.011856
0.218184
0.025388
-0.024001
-0.010053
0.055331
-0.001562
-0.036382
-0.002108
-0.036604
-0.044885
-0.027996
-0.097057
0.090970
0.092625
0.133390
0.060291
0.083946
-0.014404
0.043501
-0.009381
0.085569
0.079495
0.073272
0.016633
-0.070293
0.076553
-0.017859
-0.125372
0.145038
0.150372
0.055850
0.042150
-0.056572
-0.023118
0.049064
-0.001448
0.070229
-0.070145
-0.074144
-0.162364
-0.049043
0.048619
0.062437
-0.045029
0.126100
0.177909
-0.028926
-0.002799
0.094874
-0.008985
0.085419
0.039294
-0.008351
0.062643
0.132086
0.058378
-0.022293
0.043022
-0.041446
0.110185
-0.023285
0.121430
0.022320
-0.136878
0.166385
-0.145879
-0.047801
0.163201
-0.098474
0.013834
0.030450
0.045174
-0.053090
0.017595
-0.136190
0.011692
0.022807
-0.098713
-0.039063
-0.021952
0.015561
-0.118525
-0.049690
-0.083911
-0.008568
-0.094290
-0.089300
-0.046649
0.014517
0.029189
0.041733
-0.034277
-0.047782
-0.008632
0.030500
-0.073390
-0.014868
-0.055921
0.057152
-0.037335
-0.057926
-0.045424
-0.066737
0.056858
-0.056184
-0.043502
0.064273
-0.075542
0.050026
0.016292
0.025181
0.079446
-0.030536
0.039457
0.012589
-0.055772
-0.059075
-0.035677
-0.071871
-0.077882
0.040945
-0.065703
0.037758
-0.015255
-0.022513
0.032842
-0.069899
0.018568
0.007131
0.053707
-0.060959
-0.103011
0.043741
-0.042158
0.057231
-0.009540
-0.006079
-0.108378
0.000242
0.073758
-0.037367
0.065436
-0.101847
0.030561
-0.041944
-0.038247
0.017425
-0.074665
-0.030096
0.005797
-0.065346
-0.043487
-0.066796
-0.001039
-0.071276
0.056439
-0.013288
0.003581
0.001003
0.002016
0.054175
-0.069563
-0.105768
-0.052009
-0.017566
-0.052360
-0.040608
0.028584
-0.025754
0.060850
0.058989
-0.035662
-0.092081
0.030937
0.033881
0.047135
0.026033
-0.070182
-0.086505
-0.118314
-0.096351
-0.015824
-0.090289
0.018680
-0.066772
-0.033706
-0.053631
-0.118074
0.002797
-0.080197
0.051672
0.018873
0.028250
-0.005847
-0.048758
0.099383
0.045853
0.002493
0.050017
0.053127
0.086469
0.110467
0.152880
0.120916
-0.067938
-0.122676
0.072765
-0.009333
0.045181
-0.039542
-0.084498
0.081519
0.022390
-0.067664
-0.069298
0.017327
-0.016820
-0.016958
0.022373
0.012714
-0.121914
0.157262
-0.140276
-0.055823
0.025891
0.126144
-0.135290
0.002377
0.051687
0.000176
0.080441
-0.036081
-0.040715
0.118374
-0.126314
0.181056
-0.087127
-0.075747
0.032708
0.096063
0.133066
-0.022484
-0.085911
-0.057634
0.065496
0.105795
-0.060989
-0.062483
-0.039552
-0.013546
-0.009566
-0.022658
0.063596
-0.166386
0.125347
-0.062470
0.087353
0.114520
-0.005706
0.032030
0.019728
-0.041082
0.065365
0.130658
0.020410
0.007642
-0.075527
0.104723
-0.085234
-0.066746
0.115617
0.083219
-0.103848
0.090879
0.023773
-0.023221
0.089420
0.118165
0.039704
0.044398
0.038868
-0.166425
-0.109414
0.058417
-0.088379
-0.011207
-0.001815
0.055686
-0.122594
-0.011334
0.009024
0.053415
0.046090
0.188695
-0.109132
0.090336
0.038225
0.028499
0.114506
-0.058515
0.082870
-0.028778
-0.007186
0.112398
-0.260623
-0.059387
-0.039637
0.145222
0.114259
0.048697
0.076456
-0.076428
-0.051611
-0.082834
0.214362
0.157896
0.040078
0.110066
-0.077089
0.083533
0.008273
0.077445
0.087963
0.030472
0.018528
0.108982
0.081536
-0.093317
0.018184
0.190285
-0.033279
0.130847
0.136011
0.098898
-0.072342
0.076585
0.112320
0.018500
-0.024121
0.008005
0.050536
-0.079192
0.005766
0.067178
0.181530
-0.073681
0.031367
-0.088307
-0.020891
-0.005292
0.033100
-0.065625
-0.079026
-0.115201
-0.032121
-0.026718
0.006451
-0.036125
-0.081026
0.008248
-0.042055
0.048313
0.052752
0.116175
0.104732
-0.074058
-0.004600
-0.094274
0.084733
0.022191
-0.078177
0.131906
0.033508
-0.019971
0.106932
-0.048258
-0.041355
-0.073257
-0.187007
-0.039268
-0.074330
-0.051067
0.012339
0.053434
-0.038761
-0.061690
0.032976
-0.014769
-0.119488
-0.055390
-0.117534
0.192333
-0.063898
0.100092
0.045068
0.011909
0.022972
-0.080107
-0.032389
0.025590
0.014242
-0.113426
-0.054497
0.053025
0.076617
0.019444
0.010350
0.085045
-0.017437
0.023557
-0.004258
0.019435
0.102236
-0.054108
-0.025514
0.121902
0.074685
0.126938
0.119795
0.148250
0.053518
0.002502
0.087933
0.018875
0.000097
0.037970
-0.009487
-0.016178
0.020545
-0.008470
0.025566
-0.148397
-0.056911
-0.013134
-0.061747
0.035035
-0.063938
-0.034898
0.062767
0.018016
-0.040448
-0.023412
0.165729
-0.049810
-0.087209
-0.033507
0.038925
0.029115
0.029781
-0.033341
0.101662
0.113819
0.126515
-0.028023
-0.081058
-0.217761
0.209716
-0.000057
0.034100
0.053953
0.104994
-0.217368
0.112275
-0.022858
-0.005597
0.130925
0.008317
-0.210585
-0.034544
0.073617
0.163972
0.037819
0.003683
-0.108891
0.075750
-0.004305
0.087873
-0.017058
-0.052862
0.008818
0.078510
0.020546
-0.043943
0.087093
0.102161
-0.067454
0.088808
0.105109
-0.064207
0.069716
-0.130421
-0.014033
-0.077726
-0.001377
-0.017898
0.059328
-0.073185
-0.026494
-0.017251
-0.064113
-0.081600
-0.043039
0.057473
-0.047815
0.031409
0.098421
-0.027660
-0.179520
0.074671
0.113390
0.063968
0.099727
0.082484
0.012360
-0.035033
0.009009
0.018389
-0.143189
-0.082732
-0.081799
0.059162
0.033928
0.006243
-0.016008
0.074196
0.122812
-0.009655
-0.086582
0.209421
0.087981
0.042064
-0.058774
0.081064
0.193952
0.046788
-0.026670
0.132169
0.074616
-0.029155
0.098717
-0.001272
0.052674
0.091028
-0.066311
0.111743
-0.181229
-0.029921
0.082726
-0.061499
0.043047
0.020701
-0.004993
0.016121
0.000152
-0.050462
-0.131078
0.049999
0.065217
-0.079975
-0.058529
0.011877
-0.056003
-0.009186
0.060506
-0.056587
-0.093980
0.093211
0.048394
0.017389
-0.063853
-0.037157
0.050574
-0.066486
-0.028737
0.100064
0.059650
-0.051729
0.078143
0.072572
0.023487
0.082413
-0.029806
-0.004363
0.041643
0.134463
-0.011203
0.043057
0.070912
0.042273
-0.147779
0.039016
-0.064072
-0.085600
-0.029258
0.026320
0.087658
-0.006219
0.026120
-0.067928
0.121168
0.078714
-0.074615
0.043009
0.019021
-0.186086
0.052333
0.076359
0.111214
-0.011330
-0.024511
0.005211
-0.046723
0.013604
0.158974
0.061845
-0.065027
0.066252
0.028320
0.020960
0.089417
0.079091
0.060209
-0.022517
-0.009591
-0.040475
0.052888
-0.016918
-0.087120
0.194377
0.212626
0.126625
-0.206599
0.035473
0.073872
-0.017123
0.045687
-0.128867
0.069754
-0.038957
-0.029338
-0.209373
0.200282
0.006829
0.035184
-0.053869
-0.013007
0.037636
-0.002177
-0.006701
-0.065991
0.039771
0.117525
0.045663
-0.018687
-0.173954
-0.045090
-0.046848
-0.074252
-0.139306
-0.097643
-0.000019
-0.041548
-0.024391
-0.024029
0.028134
0.026981
0.043544
0.114673
-0.007454
-0.047637
0.083404
0.004568
-0.031306
0.030205
0.003752
0.000253
0.039193
0.077932
-0.026415
-0.053631
0.044791
-0.049601
0.003669
-0.112380
-0.106045
-0.081803
-0.103886
-0.095866
-0.107841
-0.007579
-0.024819
0.056123
-0.045257
-0.035402
-0.063766
0.054431
-0.062396
0.030863
-0.088035
0.054736
-0.003020
-0.016533
0.054594
-0.087209
0.014277
-0.087637
0.006490
-0.042039
-0.040677
-0.054569
-0.056538
0.006774
-0.027455
-0.078797
0.013275
-0.017758
0.041891
-0.020545
-0.056792
-0.087274
-0.058409
-0.104953
-0.036250
-0.059462
-0.013747
-0.070574
0.013389
-0.039236
-0.020060
-0.043579
-0.036906
-0.059561
-0.044934
-0.075401
0.045134
0.051545
0.050607
0.070899
-0.038577
0.015061
0.033271
0.018478
0.038782
-0.069270
-0.002954
0.043186
-0.005258
-0.094944
-0.098793
-0.051144
-0.091954
-0.109869
-0.051532
0.058461
-0.087674
0.070461
-0.008438
-0.023873
-0.044183
0.057944
0.051427
0.029236
0.039245
0.072850
-0.026834
-0.003275
0.064621
0.067612
-0.081679
0.108083
-0.060169
-0.088095
0.016353
-0.111274
0.056774
0.031673
0.079626
0.017011
-0.075717
-0.017755
0.000092
-0.095991
-0.007569
-0.014327
-0.035284
0.050458
-0.034697
-0.010087
-0.100148
-0.040886
-0.062208
-0.013204
-0.020215
-0.051073
0.039714
-0.102272
-0.004604
0.039654
0.088439
-0.086158
-0.087794
-0.033887
-0.113098
0.001855
0.068375
-0.075461
0.021564
-0.093852
-0.086570
-0.073771
0.054424
-0.057327
0.014980
-0.050440
-0.085907
-0.088957
-0.088712
-0.107342
-0.066556
0.041025
-0.023538
-0.071134
0.047466
0.025526
-0.017570
-0.034119
0.061650
0.051015
0.054691
-0.092959
-0.121777
-0.092523
-0.007620
-0.016433
0.005722
0.032289
0.037378
0.080092
-0.030247
0.072710
-0.017237
-0.030404
-0.057987
-0.014593
0.028445
0.051020
0.030526
0.044252
0.077714
0.048604
-0.039010
-0.025755
-0.060515
0.031115
0.068555
-0.060408
-0.104134
0.015644
-0.044263
0.090417
-0.066960
-0.048665
-0.065289
-0.033394
-0.011958
0.076456
-0.107552
0.028384
0.014014
-0.062508
-0.095536
-0.005323
-0.000728
-0.062860
-0.068770
-0.012412
-0.025723
-0.064834
-0.001817
-0.004185
-0.061403
0.028104
-0.033656
-0.012054
0.069325
-0.023212
-0.073838
-0.093681
-0.044724
0.013410
0.020522
-0.047726
-0.034450
0.050432
0.008741
0.017658
-0.008415
-0.026655
-0.095152
0.007893
0.008199
-0.078787
-0.097543
-0.089099
0.035354
0.031224
-0.083268
-0.014011
0.106488
-0.056570
0.007665
-0.125655
-0.022704
-0.087753
0.060268
0.008092
-0.094576
0.007246
0.004886
-0.003782
-0.094500
-0.074617
-0.043052
-0.050882
0.061048
-0.025109
-0.093494
-0.078879
-0.101109
-0.032404
-0.015948
0.000984
0.027175
-0.055068
-0.095634
-0.078127
-0.076550
-0.100373
0.064701
-0.052512
0.044805
-0.040200
0.012018
-0.117340
-0.008259
-0.104081
0.056364
-0.091590
-0.030288
-0.115569
0.078429
0.125323
0.018794
-0.111415
-0.051254
0.083238
0.068213
-0.020697
-0.086206
0.014650
-0.082146
-0.037480
-0.046952
-0.004594
-0.072706
-0.041079
-0.065168
-0.046113
-0.101110
0.059956
-0.091885
-0.119690
0.050868
0.050821
0.154363
-0.087032
-0.037435
-0.094257
0.008414
0.008440
-0.077162
0.090404
0.013320
-0.026709
-0.071277
-0.042455
0.018504
-0.090407
0.031490
0.007709
-0.036711
-0.088503
-0.066091
-0.051343
-0.014014
0.044604
-0.133510
0.042670
-0.046532
0.031004
-0.012195
-0.083636
0.047241
-0.061619
-0.013931
0.135661
-0.051355
-0.042065
-0.104445
0.134508
0.005523
0.040957
-0.131998
-0.066766
0.086742
-0.008795
0.048529
0.042567
-0.052937
0.012395
0.039114
0.041772
0.044125
-0.127856
0.041887
-0.129811
0.053038
-0.078096
0.044808
0.043837
-0.084816
0.053865
-0.050838
0.025380
-0.161663
-0.003243
0.079336
0.114943
0.016861
0.093641
0.073021
-0.020642
-0.090656
-0.071807
0.058926
0.103662
-0.055124
-0.062958
0.128984
-0.068156
-0.065216
-0.021970
-0.130344
-0.045272
0.106676
-0.080390
-0.113974
0.000319
-0.086305
0.045173
-0.141576
0.084542
-0.037654
0.054638
-0.012491
0.017424
-0.138746
0.185901
0.046271
-0.101749
-0.073508
0.023069
-0.017866
-0.104001
-0.028149
-0.006582
0.026370
-0.019814
-0.008274
-0.038870
0.079982
0.085359
-0.025159
0.042223
0.017957
-0.058835
-0.000233
0.151708
-0.007189
-0.066178
-0.010249
0.041543
0.033059
0.120859
-0.022084
-0.028381
0.056188
-0.063676
0.181606
-0.049775
0.032051
-0.015304
-0.019730
0.145758
0.031270
-0.011616
-0.067828
0.069512
0.102282
-0.128291
-0.174891
-0.154638
-0.095360
0.001971
0.069235
0.019699
0.064712
0.018386
0.126580
0.036279
-0.086069
0.057804
0.043745
0.038865
-0.034646
0.000696
0.083526
-0.027370
0.151784
0.009466
-0.015599
-0.020501
0.075413
0.128567
-0.061288
0.094848
0.047593
0.049444
-0.104488
-0.069524
0.071658
0.005983
0.131615
0.109618
-0.003843
0.060555
0.017314
-0.183249
0.186658
0.004076
0.058141
0.110015
-0.005383
0.040988
0.012589
0.022714
-0.037345
-0.022450
-0.071622
0.017129
0.027531
0.003435
-0.005227
0.011169
0.137622
0.123102
0.106181
-0.046429
0.024142
0.111007
-0.138876
0.020523
0.083467
-0.061966
0.076385
0.108996
-0.152674
-0.092525
-0.072889
-0.037523
0.037544
0.027723
0.016360
-0.003455
-0.086951
0.052737
-0.148863
0.118952
0.012968
0.032565
-0.037323
-0.146589
0.007998
0.054266
-0.068757
-0.055478
0.032257
-0.033858
-0.044016
0.083089
0.078194
-0.012346
0.063187
0.016032
-0.041950
0.035719
0.070095
-0.072697
0.008658
-0.024907
0.008005
0.073354
-0.061763
-0.089762
-0.088706
0.004829
-0.112069
0.080250
-0.024973
-0.023074
-0.034875
-0.115138
0.060397
0.108831
-0.038891
-0.016595
-0.041663
0.098218
-0.085060
-0.110123
0.001744
-0.077250
0.034568
0.040107
-0.083772
-0.011486
-0.032578
-0.053208
0.039642
0.026643
0.036630
-0.192924
0.099139
-0.080845
0.065634
-0.108287
-0.001575
0.002988
-0.138988
0.001214
0.009833
-0.023003
0.084178
-0.049442
-0.124926
-0.030267
0.009883
-0.092084
-0.067349
-0.045022
-0.087428
0.052224
0.114312
0.002305
-0.078579
-0.015565
-0.067490
-0.157578
0.098141
0.083247
0.019653
0.067552
-0.083210
-0.056688
0.136634
0.071343
0.069656
-0.017762
0.049190
-0.098180
-0.016614
-0.005659
0.038009
0.123821
-0.018111
0.015926
-0.050165
0.026544
-0.098061
-0.073823
-0.052355
0.102582
0.001550
0.076076
-0.129969
-0.096746
-0.224546
-0.049261
0.010646
0.070161
-0.003740
-0.122573
-0.129807
-0.032537
-0.108752
0.040642
0.018851
-0.089510
0.028232
0.065699
0.026912
0.071126
0.088731
0.040276
0.122677
0.046965
0.006304
-0.075509
-0.072039
0.006566
0.087589
-0.058681
0.080471
-0.077661
0.033420
0.009780
-0.071160
0.088570
-0.085136
0.033888
-0.063782
-0.038455
-0.032338
0.003057
0.108119
0.059700
-0.170477
0.056714
0.033433
-0.000554
0.079760
-0.012563
0.031894
0.008780
0.068293
0.006498
0.065821
-0.103778
0.151376
0.045629
-0.014603
0.117948
0.008406
0.095732
0.000593
0.102473
-0.140573
-0.064589
0.156995
-0.168907
-0.018717
0.040566
-0.042986
0.077324
-0.022022
0.120440
-0.034517
0.041916
0.035190
-0.058653
-0.048421
0.039884
0.010846
0.158297
0.017908
-0.053274
0.037259
-0.041760
-0.090657
0.087669
0.100474
0.034171
0.011863
-0.144841
0.025494
-0.245710
-0.076110
0.130363
-0.069254
-0.020675
-0.027860
0.039780
-0.082834
0.012050
-0.030165
0.034651
-0.141173
-0.062108
-0.002225
0.091029
-0.057072
-0.149560
-0.117338
-0.133115
0.201912
0.091427
-0.040931
-0.068988
0.120757
0.098183
-0.040347
0.087171
0.087115
-0.022020
0.073465
-0.038988
0.026786
-0.046440
-0.030534
0.019131
0.178165
-0.169690
0.078722
-0.041724
-0.067144
-0.065154
0.128055
-0.022323
-0.048778
0.087611
0.162714
-0.004680
0.063131
-0.090298
0.154953
-0.086300
0.047210
0.088632
-0.073868
-0.076291
0.176615
-0.090468
-0.055789
0.031635
0.145036
0.123418
-0.008371
0.128412
-0.010707
0.027720
-0.089089
0.080103
0.015806
0.034454
-0.005876
-0.023914
-0.111107
-0.054851
-0.068646
-0.026199
0.013218
-0.103690
0.035404
0.028498
-0.039811
0.081008
-0.012934
0.032312
0.013045
0.008638
-0.096640
0.085855
-0.064335
0.041434
-0.061424
-0.048258
0.038519
-0.160407
-0.014827
0.023562
0.099112
-0.053022
0.065798
0.002736
0.062555
-0.051574
-0.018987
0.194612
-0.030511
0.070636
0.046649
-0.054713
-0.072410
-0.001456
0.114727
0.024082
0.020131
-0.004843
0.053634
0.121463
-0.024176
0.036181
0.043777
-0.025228
0.127912
0.006177
0.051203
-0.138247
0.038869
-0.066712
-0.081553
-0.090751
0.053480
0.089011
-0.049402
0.036257
-0.014943
0.102700
0.003934
-0.046853
0.084441
0.060231
-0.096107
0.062652
0.203534
0.001003
0.065750
-0.017504
-0.052784
0.023584
-0.125501
0.078205
-0.171164
0.001766
0.021919
0.045499
-0.107797
-0.079395
-0.008043
0.038678
0.147830
-0.078328
-0.015121
-0.064936
0.076290
-0.073422
-0.034247
0.079085
-0.093051
0.013661
0.005482
0.081889
0.026906
0.057458
0.071569
-0.065355
0.028763
0.000243
0.001903
-0.025848
0.137002
-0.052514
-0.002666
0.020735
0.123369
-0.015593
0.007163
0.016249
-0.047001
-0.021770
-0.028869
-0.062043
0.061698
-0.076383
-0.005460
0.033249
-0.085057
-0.125717
-0.106042
-0.075725
-0.085107
-0.086213
0.012301
0.093081
0.004683
0.091481
0.033920
0.083543
-0.042226
0.118535
0.103086
0.125923
0.048043
0.001038
-0.001838
0.009355
-0.039629
-0.161314
0.141352
0.034792
-0.093730
-0.121554
0.120681
-0.032916
0.013706
-0.043528
-0.010329
0.151529
0.018541
0.108201
0.086497
0.069448
-0.121835
-0.037582
-0.031270
-0.010933
0.027335
0.051647
-0.080101
0.113211
0.009734
0.064386
0.025267
-0.026188
-0.109062
0.012366
0.075169
-0.081063
0.044464
-0.005921
0.061189
0.094189
0.041911
0.108448
-0.005050
0.033024
-0.045330
0.129332
-0.008896
-0.061675
0.164896
-0.007576
-0.251457
0.134181
0.154702
0.109525
0.130523
0.111030
-0.106323
0.054701
-0.098039
0.033946
-0.197091
-0.010397
0.041034
-0.056787
-0.058072
-0.105725
-0.061091
-0.005861
0.139618
0.081753
-0.071807
-0.038672
-0.053159
-0.084252
0.041493
0.101126
-0.072229
-0.055103
0.111137
0.042374
-0.038371
0.031051
0.105445
-0.016531
0.022172
0.042347
-0.026912
0.073641
0.071901
-0.082707
-0.020069
-0.034600
-0.022559
0.026485
0.053334
0.080629
0.027301
-0.028035
0.034836
-0.046139
-0.017276
-0.231332
-0.041892
0.055157
-0.217001
0.102175
-0.037472
-0.034559
0.019199
-0.119230
0.003325
-0.053334
0.080832
0.042750
-0.112755
0.010282
0.048921
0.071469
0.092497
0.031677
-0.061037
-0.049091
-0.048947
0.042310
0.003102
0.121599
-0.092010
-0.131541
-0.027829
-0.264589
0.005980
-0.062174
-0.019125
-0.054879
-0.002583
0.066021
-0.097891
-0.046706
0.048555
0.053647
-0.044467
-0.051373
-0.134333
0.054893
0.101932
-0.061788
-0.149141
0.075526
-0.128721
0.086285
0.038281
-0.145612
-0.229356
0.074653
0.013518
-0.007963
0.088800
0.031833
0.096336
0.039311
-0.066036
-0.011877
-0.049089
0.077246
0.113633
-0.007624
-0.086254
-0.098990
0.095869
0.194841
-0.002764
0.231714
0.031120
-0.044076
0.107268
-0.147931
-0.155916
0.007641
0.008576
-0.044639
0.006006
0.000776
0.085944
-0.026438
-0.053096
-0.086711
-0.008429
0.037349
0.098702
0.158906
-0.181579
-0.017980
0.016237
-0.021435
-0.056255
0.065040
-0.035848
-0.069929
0.048194
0.066426
0.009102
-0.048645
-0.124486
0.097206
0.001108
0.042984
0.043179
-0.030894
0.113784
-0.083109
-0.008912
-0.013528
-0.002158
-0.008324
0.002293
0.087011
0.081541
0.021161
-0.064731
-0.022151
-0.038110
-0.156429
-0.110627
-0.036296
-0.096372
0.064251
-0.054854
0.000446
-0.062417
0.033605
-0.079326
0.181045
-0.060058
0.068839
0.101168
0.040975
0.026468
0.084499
0.178059
0.141479
-0.019404
0.059933
0.066014
0.031934
0.108030
0.134666
0.122444
-0.054456
-0.077252
-0.130022
-0.019690
-0.097058
-0.055413
-0.003170
-0.063699
0.078352
-0.043001
-0.094412
0.005623
0.150412
-0.045950
0.136517
-0.065363
0.002352
-0.020389
-0.000378
0.028928
0.039509
-0.070780
0.085693
-0.111686
0.007781
-0.147559
-0.027902
-0.084302
-0.033360
0.039060
-0.079946
-0.083163
0.116458
-0.046679
-0.093718
0.139846
0.014756
-0.010970
-0.043977
-0.028476
-0.002447
-0.000463
-0.084162
-0.095689
-0.083110
0.021208
-0.063195
0.048498
-0.053390
-0.041222
0.009137
-0.066324
-0.072565
-0.096521
0.056801
-0.002355
0.053386
0.022648
0.032277
-0.009364
0.074217
-0.071052
-0.083857
-0.075490
-0.038170
0.026752
0.046521
-0.015552
-0.067617
0.064970
-0.000173
-0.100039
-0.075058
-0.086195
-0.089598
-0.058945
0.010392
-0.087247
-0.007681
0.070587
-0.054641
-0.086046
-0.026453
-0.084812
0.075078
-0.078139
-0.001061
0.019820
-0.018508
-0.073288
-0.022081
0.007567
-0.078183
0.038788
0.019313
0.046238
0.002170
0.051040
-0.102896
-0.066355
0.043277
0.033401
-0.054937
0.020699
0.021215
0.061759
0.032115
0.047140
-0.028936
0.019682
0.052976
-0.091346
-0.027506
0.026472
0.031183
0.088589
-0.083286
0.023501
0.031362
-0.022519
-0.028493
0.058486
-0.111448
-0.122764
0.028366
-0.041393
-0.068396
-0.017372
0.053156
-0.011560
-0.023944
0.080583
-0.070980
-0.094828
-0.046109
-0.010580
0.018876
0.059619
0.068608
-0.076096
0.015200
0.064887
-0.020794
-0.098252
-0.022993
0.038225
0.022852
-0.075131
-0.102511
-0.000224
0.081096
0.080801
-0.113562
-0.079041
0.039304
0.021888
0.111741
-0.013485
0.004914
0.000531
0.028070
-0.028429
-0.122230
0.000439
-0.095993
0.075859
-0.038457
0.091599
0.139789
0.018476
0.149772
-0.018253
0.117204
-0.097113
-0.086982
0.037505
0.121481
0.011338
-0.029974
0.036332
-0.051908
0.154110
-0.191208
0.129011
-0.092529
-0.090953
-0.073033
0.072913
-0.186860
0.064165
-0.090644
-0.060552
0.051443
0.010931
0.000664
0.049560
-0.119358
0.039359
0.012791
-0.063743
-0.084366
-0.082662
0.103793
0.030938
-0.069964
-0.045113
-0.083386
0.073588
-0.095627
0.072642
-0.016462
-0.096952
0.074319
-0.024219
0.073488
0.111620
-0.007591
0.014016
-0.101091
0.049084
-0.072722
-0.075895
-0.016788
0.118817
-0.017426
-0.067744
-0.085167
0.067276
0.004322
0.115334
0.135827
0.072606
0.008301
0.030067
0.084170
0.066776
-0.040347
-0.129622
0.004863
-0.157206
0.029162
-0.024892
-0.019016
0.035053
0.112825
0.137154
0.094334
-0.070546
-0.033600
-0.004190
-0.046155
0.033793
0.057960
-0.059183
-0.125506
-0.132746
-0.102384
0.030854
-0.005796
0.064115
-0.048288
-0.097947
0.037508
-0.079652
-0.176629
0.135379
0.063217
-0.009268
0.072656
-0.016768
-0.052258
0.022982
0.021073
0.005525
0.105979
-0.217529
-0.083772
0.035482
-0.112259
-0.025966
0.077556
-0.168314
-0.028002
-0.066098
-0.175349
-0.080742
0.084392
-0.022441
-0.072505
0.083487
-0.099418
0.106689
-0.079291
-0.098740
-0.102942
-0.008553
0.076622
-0.008749
0.124809
0.077777
0.026918
-0.103221
0.002320
0.107238
0.171819
-0.085267
0.104335
-0.053908
0.107330
0.081180
0.058916
0.060277
0.039429
0.078329
0.078995
-0.083585
0.005747
-0.092316
-0.009004
0.024174
-0.083396
0.040293
-0.009322
-0.003722
-0.041889
-0.006822
-0.047217
-0.079699
0.042789
-0.133185
0.020003
0.028782
-0.021426
0.031135
0.233108
-0.146555
0.078539
0.158687
-0.054236
0.074847
-0.012507
0.021790
-0.012523
-0.012779
0.030270
0.039662
-0.027169
0.000780
-0.044645
0.016713
-0.117811
0.042715
-0.086891
-0.005167
-0.016534
0.034325
0.030701
0.127891
-0.060680
0.036554
0.059259
0.158392
0.112965
0.084942
0.074284
0.071309
0.014157
0.005737
-0.054913
0.093105
-0.006358
0.023349
0.082063
0.015991
0.042787
0.247374
-0.107646
-0.057218
0.037493
0.073064
-0.081958
-0.072104
-0.052140
0.097937
-0.041671
0.180878
-0.025824
-0.045959
-0.228204
-0.089622
-0.032631
0.003327
-0.038389
0.023476
-0.022967
0.085165
0.060213
0.046396
-0.035130
-0.040305
0.013936
-0.207818
-0.027895
0.237698
0.050332
-0.012108
0.012955
0.068621
-0.059495
-0.137267
0.112519
-0.191776
0.147507
0.234836
-0.041911
-0.022936
0.043443
0.049978
-0.022816
0.022924
-0.018053
0.032024
0.063937
0.016173
0.047653
-0.088457
-0.049871
-0.067714
0.004083
-0.038267
-0.062833
0.018643
-0.062348
0.071661
-0.062062
0.029213
-0.189424
0.042978
0.049224
0.014656
-0.018095
0.058583
-0.063921
-0.023484
-0.069377
0.051251
-0.032147
0.054095
-0.186807
-0.040577
0.090977
-0.022903
0.115450
-0.017690
-0.007646
0.085286
-0.017792
0.154038
-0.094593
-0.075802
0.018246
0.003269
0.154936
0.053460
0.110763
-0.050228
-0.035946
0.146888
-0.007409
0.015046
0.067637
0.145071
-0.004016
0.005818
-0.063558
0.041608
0.119702
-0.073481
-0.107835
0.014325
0.096078
-0.024591
0.034899
-0.139750
-0.083773
0.053352
-0.126515
0.002331
0.027298
-0.110589
-0.041721
-0.063527
0.080482
0.042485
0.047688
-0.104699
0.052355
-0.075208
-0.015004
-0.074705
-0.046481
-0.050506
0.115047
0.049874
0.004077
0.038330
-0.058290
0.037856
0.098810
0.084363
0.177312
0.057384
-0.106160
-0.001558
-0.028247
-0.035710
0.013325
0.049268
-0.023011
0.031086
0.076131
-0.071878
-0.130773
-0.041673
-0.074790
-0.034846
-0.134381
-0.150876
-0.027900
-0.064316
-0.012845
-0.054497
-0.044566
0.054169
0.023671
-0.018407
-0.008154
0.063630
0.000280
0.004776
-0.034446
-0.047936
0.025676
-0.092648
-0.077213
-0.065762
0.040300
0.065709
0.097357
0.080716
0.054561
-0.045763
-0.083493
-0.007536
-0.019676
-0.042759
0.102720
0.037352
0.008598
-0.044960
0.001087
0.019337
0.069931
-0.066671
0.055831
0.001201
0.003522
-0.035624
-0.024137
0.012907
0.063332
0.015652
0.046818
0.038211
-0.036678
-0.088519
0.068859
-0.037460
0.037444
-0.053392
0.034529
0.087931
0.063129
-0.124544
-0.122585
-0.022943
0.006698
-0.046319
-0.151869
-0.005036
0.041000
0.002170
-0.017107
0.034591
0.021028
-0.029191
0.006835
0.033361
0.008082
0.005263
0.084425
0.105326
-0.020202
-0.074599
0.073348
0.033252
-0.004750
0.088678
-0.040792
0.002541
0.123901
-0.017086
-0.003241
0.019001
0.004928
0.059118
-0.071993
0.005373
-0.003273
-0.005917
-0.114120
-0.135010
-0.069897
-0.022882
-0.060346
0.010360
-0.061154
0.025562
0.020147
-0.034631
0.077909
0.046010
-0.121309
0.077795
-0.044691
0.094298
-0.006841
-0.102865
-0.005594
-0.021227
-0.002652
-0.094396
-0.140974
0.006176
-0.052957
-0.019693
0.048722
0.078495
0.075847
-0.071261
0.176864
-0.235444
0.133745
0.143344
0.029940
0.015278
0.090527
0.029830
0.097160
0.068599
0.047371
0.148144
-0.164755
0.199588
-0.127542
-0.099181
-0.088766
-0.054075
-0.177375
0.063667
-0.194167
-0.023584
-0.011539
0.075252
-0.088129
0.084198
-0.092813
0.001725
-0.057641
0.102584
0.075471
0.072120
0.104795
-0.027218
0.054537
0.039113
-0.094549
-0.104689
-0.128008
0.038243
0.012777
-0.096963
0.050945
-0.030401
-0.032910
0.144405
-0.053663
-0.016621
0.022293
-0.082878
-0.032782
-0.024413
-0.035080
0.071659
-0.074470
0.069695
0.067222
0.117438
0.028999
-0.082427
0.087651
0.101010
0.066234
-0.039288
-0.044118
0.083252
-0.007272
0.031400
-0.020978
-0.127658
0.083436
0.018747
-0.092174
-0.073889
0.111226
0.030202
-0.205247
0.072050
0.010678
-0.105018
-0.080732
-0.047651
0.084959
-0.098861
-0.039696
-0.180881
0.071190
-0.016411
-0.048188
-0.079558
0.033903
-0.277589
0.099579
-0.049665
-0.223665
0.087916
0.074487
0.007987
-0.035337
0.096905
-0.046993
-0.002513
0.060287
-0.046593
-0.086228
-0.173833
